#ifndef _CONV2_WEIGHTS_
#define _CONV2_WEIGHTS_
#include "../op.h"
mylenet::WEIGHT conv2_weights[16][6][5][5] = {{
	{
		{-1.013102084398269653e-01,4.504379630088806152e-02,8.331185206770896912e-03,-2.930140197277069092e-01,-2.163755893707275391e-01,},
		{1.521303877234458923e-02,2.682897076010704041e-02,-2.371162623167037964e-01,-1.316442191600799561e-01,2.542035281658172607e-01,},
		{-1.293058544397354126e-01,-1.275398731231689453e-01,1.541526764631271362e-01,1.919438689947128296e-01,3.739092499017715454e-02,},
		{-1.995624508708715439e-03,1.750393062829971313e-01,1.729438006877899170e-01,8.470881730318069458e-03,-1.489274799823760986e-01,},
		{1.723152399063110352e-01,2.749623656272888184e-01,2.257035672664642334e-02,-2.184830904006958008e-01,-4.392544552683830261e-02,},
	},
	{
		{-7.198670413345098495e-03,1.885781437158584595e-01,1.575890481472015381e-01,8.863660693168640137e-02,-6.721121817827224731e-02,},
		{1.754467338323593140e-01,1.966775357723236084e-01,-3.970264643430709839e-02,-4.187032952904701233e-02,3.219642210751771927e-03,},
		{6.807814538478851318e-02,1.635583676397800446e-02,-2.887040376663208008e-01,-1.140894219279289246e-01,3.637003526091575623e-02,},
		{-1.815753728151321411e-01,-2.181397378444671631e-01,-1.779354065656661987e-01,-1.891222596168518066e-01,-2.296402864158153534e-02,},
		{-7.401552796363830566e-02,1.092380434274673462e-01,7.261148840188980103e-02,-1.688401214778423309e-02,-1.003780364990234375e-01,},
	},
	{
		{1.458106935024261475e-01,2.103438973426818848e-01,-1.393915899097919464e-02,-2.121175825595855713e-01,-2.771315276622772217e-01,},
		{1.500661671161651611e-01,1.428134441375732422e-01,-1.739779561758041382e-01,-3.051576614379882812e-01,-2.105246633291244507e-01,},
		{-2.913956530392169952e-02,-3.619670569896697998e-01,-4.671505689620971680e-01,-1.842388063669204712e-01,-2.504181675612926483e-02,},
		{-1.107821837067604065e-01,-5.772943794727325439e-02,7.164606451988220215e-02,1.930684894323348999e-01,7.641170918941497803e-02,},
		{1.742345094680786133e-01,3.440363109111785889e-01,3.205527365207672119e-01,3.201809227466583252e-01,8.872457593679428101e-02,},
	},
	{
		{-1.271125674247741699e-01,2.088571898639202118e-03,-4.075340181589126587e-02,-1.091692000627517700e-01,-1.260353066027164459e-02,},
		{-4.916474223136901855e-02,8.809398114681243896e-02,1.382742077112197876e-01,-4.053800553083419800e-02,-2.450969964265823364e-01,},
		{1.093483641743659973e-01,4.027038067579269409e-02,-1.326712667942047119e-01,-4.165363684296607971e-02,1.569212526082992554e-01,},
		{-7.377828657627105713e-02,-1.485920995473861694e-01,-2.130895853042602539e-01,-2.339506000280380249e-01,-1.780218072235584259e-02,},
		{-2.224864661693572998e-01,-1.151491254568099976e-01,-2.053250372409820557e-01,-1.717970967292785645e-01,-9.261958301067352295e-02,},
	},
	{
		{2.785171009600162506e-02,9.512673132121562958e-03,1.563561558723449707e-01,1.171796172857284546e-01,7.647390663623809814e-02,},
		{-5.017607659101486206e-02,1.500405073165893555e-01,7.270357012748718262e-02,3.572655469179153442e-02,5.997444689273834229e-02,},
		{7.009029388427734375e-02,4.092055931687355042e-02,-2.564713731408119202e-02,-5.166574195027351379e-02,2.507602609694004059e-02,},
		{-5.374501645565032959e-02,-2.813298813998699188e-02,-7.444033026695251465e-02,-9.370096027851104736e-02,-1.246390715241432190e-01,},
		{-5.307440180331468582e-03,4.157529771327972412e-02,-6.471806019544601440e-02,-2.084392607212066650e-01,-1.777811795473098755e-01,},
	},
	{
		{-4.057916998863220215e-02,5.384023860096931458e-02,1.434169560670852661e-01,2.334242686629295349e-02,4.949420224875211716e-03,},
		{1.159728020429611206e-01,2.149462401866912842e-01,1.300449669361114502e-01,3.566261380910873413e-02,-2.164265811443328857e-01,},
		{1.272148191928863525e-01,1.543025672435760498e-01,-9.636124223470687866e-02,-3.439623415470123291e-01,-1.867809891700744629e-01,},
		{1.223940551280975342e-01,-2.206195443868637085e-01,-3.522151708602905273e-01,-1.527715921401977539e-01,1.031343266367912292e-01,},
		{-3.424409627914428711e-01,-2.336294054985046387e-01,-1.710580196231603622e-03,9.551627188920974731e-02,-3.114822879433631897e-02,},
	},
	},
	{
	{
		{7.205312699079513550e-02,-3.162996470928192139e-02,-1.894996017217636108e-01,-8.863971382379531860e-02,-2.653094008564949036e-02,},
		{1.734749078750610352e-01,4.376505687832832336e-02,-4.626201987266540527e-01,-6.746567040681838989e-02,1.718213856220245361e-01,},
		{4.668300226330757141e-02,1.778513491153717041e-01,-9.836430102586746216e-02,-3.676030337810516357e-01,-1.191888600587844849e-01,},
		{-1.136616803705692291e-02,1.373402327299118042e-01,2.036794833838939667e-02,-8.294564485549926758e-02,-1.001551076769828796e-01,},
		{-4.372607544064521790e-02,-1.091240271925926208e-01,7.292353361845016479e-02,1.218699812889099121e-01,1.956020891666412354e-01,},
	},
	{
		{7.776048779487609863e-02,-4.730530455708503723e-02,-4.688284825533628464e-04,-1.095643788576126099e-01,-3.191875293850898743e-02,},
		{1.275616884231567383e-01,1.273070275783538818e-01,-1.038724277168512344e-02,-2.397792488336563110e-01,1.556480824947357178e-01,},
		{-2.893207967281341553e-02,1.539647877216339111e-01,1.543259173631668091e-01,-8.673104643821716309e-02,-9.335062652826309204e-02,},
		{-5.259175598621368408e-02,7.968516647815704346e-02,2.936470210552215576e-01,1.918510794639587402e-01,-1.485252380371093750e-01,},
		{-1.109783351421356201e-01,-1.980370879173278809e-01,1.071572825312614441e-01,2.914899289608001709e-01,6.621034443378448486e-02,},
	},
	{
		{-1.351736634969711304e-01,-9.279441833496093750e-02,2.060971111059188843e-01,5.835723876953125000e-02,-1.453108489513397217e-01,},
		{-2.022005617618560791e-02,-1.262884885072708130e-01,-4.851389303803443909e-02,1.931695938110351562e-01,-1.379307955503463745e-01,},
		{-1.083111613988876343e-01,-3.442183136940002441e-01,-5.609058141708374023e-01,2.639065384864807129e-01,3.031245172023773193e-01,},
		{-4.281662404537200928e-02,7.018841803073883057e-02,-1.665799915790557861e-01,-3.516236543655395508e-01,1.366783976554870605e-01,},
		{-5.880874022841453552e-02,1.776846945285797119e-01,2.952710986137390137e-01,4.120192304253578186e-02,-1.007142513990402222e-01,},
	},
	{
		{-2.302591875195503235e-02,1.275018509477376938e-02,6.102025508880615234e-02,7.383960485458374023e-02,1.162505801767110825e-02,},
		{-1.062620431184768677e-02,-6.504552066326141357e-02,-1.584509909152984619e-01,-2.208025604486465454e-01,9.877975285053253174e-02,},
		{3.695269301533699036e-02,4.128017649054527283e-02,-3.022183179855346680e-01,-4.331642687320709229e-01,3.204504027962684631e-02,},
		{-1.383049637079238892e-01,9.988929331302642822e-02,-6.529453396797180176e-02,-3.264790177345275879e-01,-2.875283360481262207e-01,},
		{-8.791359513998031616e-02,-1.250467151403427124e-01,1.059726402163505554e-01,-1.780302077531814575e-02,-5.973280668258666992e-01,},
	},
	{
		{-3.453546762466430664e-02,-2.030110172927379608e-02,-1.833227723836898804e-01,-9.110572189092636108e-02,4.284939728677272797e-03,},
		{3.210220113396644592e-02,1.015363931655883789e-01,6.535736378282308578e-03,-5.397156998515129089e-02,6.353165488690137863e-03,},
		{-4.872886836528778076e-02,8.686845004558563232e-02,1.714293807744979858e-01,-2.100919745862483978e-02,-1.156534776091575623e-01,},
		{-1.899765431880950928e-01,-7.171085476875305176e-02,1.568099409341812134e-01,2.949309945106506348e-01,1.001922264695167542e-01,},
		{-1.269561648368835449e-01,-1.227317303419113159e-01,6.081813201308250427e-02,2.513506412506103516e-01,1.908283531665802002e-01,},
	},
	{
		{-4.318686667829751968e-03,4.929785430431365967e-02,-2.385966666042804718e-02,-2.324202563613653183e-03,6.409083306789398193e-02,},
		{-3.301114216446876526e-02,-2.387287281453609467e-02,1.261833310127258301e-01,3.573603183031082153e-02,5.224750936031341553e-02,},
		{-9.374775737524032593e-02,-7.134153693914413452e-02,-4.271466657519340515e-02,5.706962198019027710e-03,6.188526377081871033e-02,},
		{-1.978097558021545410e-01,-1.654040515422821045e-01,-1.186695247888565063e-01,-6.949007045477628708e-03,2.856270074844360352e-01,},
		{-1.050361543893814087e-01,-3.169547393918037415e-02,-8.005730807781219482e-02,-1.243062764406204224e-01,-1.721704453229904175e-01,},
	},
	},
	{
	{
		{-1.265251487493515015e-01,-3.165613710880279541e-01,-1.115877479314804077e-01,-1.061117574572563171e-01,-1.464916169643402100e-01,},
		{2.202768623828887939e-02,1.953095383942127228e-02,6.001310795545578003e-02,1.112565491348505020e-02,3.003485798835754395e-01,},
		{2.071843743324279785e-01,2.987844347953796387e-01,2.138959616422653198e-01,2.713572680950164795e-01,1.850738674402236938e-01,},
		{-1.509639471769332886e-01,-1.101625636219978333e-01,7.368760998360812664e-05,-1.383739430457353592e-02,-1.870942264795303345e-01,},
		{-1.784220784902572632e-01,-1.127276271581649780e-01,-1.380035430192947388e-01,-2.754222154617309570e-01,-8.753850311040878296e-02,},
	},
	{
		{1.148873865604400635e-01,4.837729036808013916e-02,3.083686344325542450e-02,6.175130605697631836e-02,5.099168419837951660e-02,},
		{1.461910307407379150e-01,3.133060876280069351e-03,-1.781727373600006104e-02,-1.549084931612014771e-01,-1.698424667119979858e-01,},
		{4.322666674852371216e-02,-1.117408499121665955e-01,-1.276157647371292114e-01,-1.688258349895477295e-01,-1.655624508857727051e-01,},
		{-1.882751733064651489e-01,-3.816737830638885498e-01,-3.154634237289428711e-01,-5.709641054272651672e-02,6.556567549705505371e-02,},
		{-1.861254870891571045e-01,-3.115899264812469482e-01,-1.826679557561874390e-01,5.549802631139755249e-02,5.717489123344421387e-02,},
	},
	{
		{-4.279460385441780090e-02,-4.486152436584234238e-03,8.057640492916107178e-02,-1.891686581075191498e-02,-2.294034697115421295e-03,},
		{-2.223947346210479736e-01,-3.802202939987182617e-01,-2.973405420780181885e-01,-1.602290719747543335e-01,-1.608701497316360474e-01,},
		{3.136474788188934326e-01,2.157121598720550537e-01,1.130594536662101746e-01,2.377924919128417969e-01,2.413249909877777100e-01,},
		{1.600237041711807251e-01,2.069114446640014648e-01,1.244065910577774048e-01,3.542993962764739990e-02,-1.343729496002197266e-01,},
		{4.292148724198341370e-02,4.608050361275672913e-02,-9.490849077701568604e-02,-9.147674590349197388e-02,-2.116987258195877075e-01,},
	},
	{
		{2.398379594087600708e-01,-1.433712244033813477e-02,1.387655138969421387e-01,1.311053633689880371e-01,6.061695516109466553e-02,},
		{1.250034719705581665e-01,6.872961670160293579e-02,1.058641746640205383e-01,1.399217545986175537e-01,-1.091340184211730957e-01,},
		{1.494258344173431396e-01,1.330990642309188843e-01,-7.124884426593780518e-02,-1.555888801813125610e-01,-5.172851681709289551e-02,},
		{-6.124029681086540222e-02,-2.837920784950256348e-01,-2.291613668203353882e-01,4.325255751609802246e-02,1.902542561292648315e-01,},
		{-6.860095262527465820e-02,-3.053866624832153320e-01,-5.873208492994308472e-02,4.071396961808204651e-02,2.408667095005512238e-02,},
	},
	{
		{4.747141897678375244e-02,7.479017227888107300e-02,4.952856525778770447e-02,1.055441144853830338e-02,6.917534768581390381e-02,},
		{1.720749884843826294e-01,1.030991673469543457e-01,1.608494073152542114e-01,9.355949610471725464e-02,-9.715565294027328491e-02,},
		{-4.418014362454414368e-02,-9.305632114410400391e-02,-7.370356470346450806e-02,-1.999453455209732056e-01,-2.419682890176773071e-01,},
		{-3.072731196880340576e-01,-2.687180042266845703e-01,-3.445322513580322266e-01,-1.372690349817276001e-01,1.763121224939823151e-02,},
		{-7.594020664691925049e-02,-2.408900111913681030e-01,-2.926762104034423828e-01,-4.208687692880630493e-02,4.465555399656295776e-02,},
	},
	{
		{6.075191125273704529e-02,6.987399607896804810e-02,1.070477068424224854e-01,1.469157040119171143e-01,1.875723302364349365e-01,},
		{1.640127599239349365e-02,-8.249708265066146851e-02,9.925065934658050537e-02,6.178579851984977722e-02,-1.610030680894851685e-01,},
		{-3.032286167144775391e-01,-2.597908377647399902e-01,-1.622175276279449463e-01,-2.815152406692504883e-01,-1.033834218978881836e-01,},
		{-1.318771094083786011e-01,-1.737272739410400391e-01,-1.390099078416824341e-01,-7.266660779714584351e-02,9.550737589597702026e-02,},
		{3.863904625177383423e-03,-1.157378554344177246e-01,-9.965799003839492798e-02,4.331123083829879761e-02,1.602339185774326324e-02,},
	},
	},
	{
	{
		{4.618474096059799194e-02,1.178592145442962646e-01,-9.841613471508026123e-02,-3.056131303310394287e-01,-3.475208580493927002e-01,},
		{-6.403658539056777954e-02,-2.528726458549499512e-01,-1.287059783935546875e-01,5.288183689117431641e-02,-1.147627923637628555e-02,},
		{-2.467396408319473267e-01,4.960017278790473938e-02,2.443608939647674561e-01,2.219537645578384399e-01,4.769060015678405762e-02,},
		{-1.148560717701911926e-01,3.454707562923431396e-02,7.187705487012863159e-02,-2.967792935669422150e-02,-1.165585964918136597e-01,},
		{6.629395484924316406e-02,1.978366449475288391e-02,-6.583448499441146851e-02,-1.612884998321533203e-01,-3.491976857185363770e-02,},
	},
	{
		{8.756417036056518555e-02,-4.089584201574325562e-02,8.944444358348846436e-03,4.463063180446624756e-02,2.812624722719192505e-02,},
		{-2.297916263341903687e-02,-5.656721815466880798e-02,3.792578727006912231e-02,2.224749773740768433e-01,1.720441281795501709e-01,},
		{-1.634604930877685547e-01,-1.454884707927703857e-01,5.311765894293785095e-02,1.680394709110260010e-01,8.362551778554916382e-02,},
		{-1.513171941041946411e-01,-1.097208410501480103e-01,-8.441581740044057369e-04,-8.359464816749095917e-03,4.485185071825981140e-02,},
		{1.974162906408309937e-01,1.674554198980331421e-01,7.609605789184570312e-02,-1.009885147213935852e-01,-6.332361698150634766e-02,},
	},
	{
		{-8.675676584243774414e-02,3.119209222495555878e-02,2.527815699577331543e-01,8.848836272954940796e-02,3.041538968682289124e-02,},
		{-2.738259965553879738e-03,2.584153413772583008e-02,-1.744825951755046844e-02,7.851032540202140808e-03,-2.203044132329523563e-04,},
		{2.623602375388145447e-02,5.213821772485971451e-03,2.421108484268188477e-01,2.848530113697052002e-01,-7.462094724178314209e-02,},
		{2.779517471790313721e-01,3.892493247985839844e-01,2.885398864746093750e-01,6.937311589717864990e-02,-1.008091866970062256e-01,},
		{-9.655562043190002441e-02,-2.818028256297111511e-02,-4.891705885529518127e-02,-1.998796463012695312e-01,-2.310156673192977905e-01,},
	},
	{
		{2.512807399034500122e-02,2.453535422682762146e-02,-2.367402240633964539e-02,-1.569022536277770996e-01,-1.835068762302398682e-01,},
		{1.195856109261512756e-01,-1.225609332323074341e-02,-2.048474401235580444e-01,-2.242483943700790405e-01,-3.721037209033966064e-01,},
		{-1.027412638068199158e-01,-1.838563978672027588e-01,-4.046442508697509766e-01,-1.639024168252944946e-01,-7.489404082298278809e-02,},
		{-1.540828943252563477e-01,-3.380126953125000000e-01,-1.931076198816299438e-01,-6.861633807420730591e-02,-4.014321602880954742e-04,},
		{4.852249473333358765e-02,9.643800556659698486e-02,1.201919019222259521e-01,3.298118244856595993e-03,-1.004412993788719177e-01,},
	},
	{
		{-8.685330301523208618e-02,3.427379205822944641e-02,7.786580827087163925e-03,4.925346001982688904e-02,-1.003037486225366592e-02,},
		{-6.674646865576505661e-03,1.200080886483192444e-01,5.958862602710723877e-02,1.769331842660903931e-01,1.394740492105484009e-01,},
		{-5.477203428745269775e-02,-7.986793667078018188e-02,-5.288079380989074707e-03,1.224151104688644409e-01,1.215458735823631287e-01,},
		{-5.095233768224716187e-02,-5.682865902781486511e-02,-1.182097792625427246e-01,-5.604565888643264771e-02,4.139305278658866882e-02,},
		{3.980908915400505066e-02,3.533380478620529175e-02,-3.862897306680679321e-02,-7.406494021415710449e-02,-1.977876946330070496e-02,},
	},
	{
		{1.534780114889144897e-02,-9.628834575414657593e-02,9.124231338500976562e-02,1.481287032365798950e-01,8.239372819662094116e-02,},
		{-1.805551163852214813e-02,8.087360858917236328e-02,2.989429235458374023e-02,6.947875022888183594e-02,-3.100271522998809814e-02,},
		{-4.313970729708671570e-02,-7.976981252431869507e-02,-2.340477257966995239e-01,-1.837922185659408569e-01,-1.297934800386428833e-01,},
		{-1.067611426115036011e-01,-5.169314146041870117e-02,-2.479975856840610504e-02,1.607011258602142334e-02,-3.118466399610042572e-02,},
		{-7.607895135879516602e-02,9.736546874046325684e-02,1.166478693485260010e-01,8.581113070249557495e-02,-6.804613023996353149e-02,},
	},
	},
	{
	{
		{2.278289794921875000e-01,-3.614291250705718994e-01,-2.377977967262268066e-01,-4.873835295438766479e-02,-5.975125357508659363e-02,},
		{-3.515482693910598755e-02,-9.448356181383132935e-02,-8.162113279104232788e-02,3.776982426643371582e-02,3.965255618095397949e-02,},
		{-1.694889366626739502e-01,1.915386877954006195e-02,-7.378566265106201172e-02,4.915460944175720215e-03,-4.066528677940368652e-01,},
		{-1.037887949496507645e-02,1.783710271120071411e-01,-1.109827961772680283e-02,-2.453462034463882446e-01,-1.514701694250106812e-01,},
		{3.495196998119354248e-02,2.211387827992439270e-02,-2.145207300782203674e-02,-5.838552489876747131e-02,-1.355034112930297852e-01,},
	},
	{
		{1.513513475656509399e-01,-1.971996128559112549e-01,-2.780102193355560303e-01,-6.752393394708633423e-02,3.774165362119674683e-02,},
		{1.939293891191482544e-01,-2.313470542430877686e-01,-3.391935527324676514e-01,-2.395316958427429199e-02,1.151951029896736145e-01,},
		{-1.921439319849014282e-01,-2.302918136119842529e-01,4.280745983123779297e-02,1.000780016183853149e-01,-3.548219427466392517e-02,},
		{-2.164306491613388062e-01,1.098132655024528503e-01,6.638952344655990601e-02,1.499343942850828171e-02,-2.257113456726074219e-01,},
		{7.613337785005569458e-02,1.332309991121292114e-01,7.729954272508621216e-02,1.325886696577072144e-02,-1.211002320051193237e-01,},
	},
	{
		{4.966769367456436157e-02,-1.064145714044570923e-01,-1.917146146297454834e-01,-1.269625723361968994e-01,-1.959948390722274780e-01,},
		{-4.472593218088150024e-02,-6.459537893533706665e-02,-2.512433938682079315e-02,1.731938272714614868e-01,1.157928928732872009e-01,},
		{-1.403323858976364136e-01,-1.172872707247734070e-01,1.274270117282867432e-01,5.562605708837509155e-02,-1.009186431765556335e-01,},
		{-1.646646670997142792e-02,1.614326089620590210e-01,2.619192898273468018e-01,-6.015861034393310547e-02,-3.640067875385284424e-01,},
		{8.156241476535797119e-02,2.107059955596923828e-01,-1.179109066724777222e-01,-2.932569980621337891e-01,-3.271144330501556396e-01,},
	},
	{
		{2.298003137111663818e-01,5.677873641252517700e-02,-3.319507092237472534e-02,-3.334903717041015625e-01,-3.841770812869071960e-02,},
		{2.439664453268051147e-01,-1.418676972389221191e-01,-3.002976477146148682e-01,-2.941749617457389832e-02,2.606950402259826660e-01,},
		{6.762590259313583374e-02,-1.967548280954360962e-01,-5.005629733204841614e-02,2.306696176528930664e-01,2.609627544879913330e-01,},
		{-3.056878447532653809e-01,-7.001884281635284424e-02,4.408768564462661743e-02,7.790353149175643921e-02,1.322811990976333618e-01,},
		{-2.951943874359130859e-01,5.054121837019920349e-02,1.435063332319259644e-01,1.434430181980133057e-01,7.141555845737457275e-02,},
	},
	{
		{2.230143547058105469e-01,-1.555828284472227097e-02,-2.103007584810256958e-01,-2.285525500774383545e-01,-1.550671756267547607e-01,},
		{1.866926848888397217e-01,-9.718216210603713989e-02,-1.710440814495086670e-01,-2.054743468761444092e-01,3.490798547863960266e-02,},
		{-7.748450338840484619e-02,8.002836257219314575e-03,-3.644015267491340637e-02,-5.207635089755058289e-02,-3.641544654965400696e-02,},
		{5.832469090819358826e-02,-1.171433925628662109e-01,-3.592195361852645874e-02,-2.459823898971080780e-02,1.657186448574066162e-02,},
		{4.961258918046951294e-02,1.007693782448768616e-01,6.586907804012298584e-02,3.089701384305953979e-02,-2.423312328755855560e-02,},
	},
	{
		{9.660034626722335815e-02,1.140338256955146790e-01,-2.357942461967468262e-01,-3.796595335006713867e-01,-1.094695329666137695e-01,},
		{2.290097326040267944e-01,-3.803920745849609375e-02,-2.058502882719039917e-01,6.537068635225296021e-02,9.367427974939346313e-02,},
		{4.544977098703384399e-02,-2.422863095998764038e-01,-2.194966748356819153e-02,2.026573568582534790e-01,2.501864433288574219e-01,},
		{-8.505221456289291382e-02,-1.098730787634849548e-01,4.632323980331420898e-02,1.626922339200973511e-01,4.437194764614105225e-02,},
		{-4.738805070519447327e-02,1.448208689689636230e-01,1.443078815937042236e-01,1.007761433720588684e-01,-1.894574239850044250e-02,},
	},
	},
	{
	{
		{6.780514866113662720e-02,-4.270752891898155212e-02,-1.219074949622154236e-01,-1.156103238463401794e-02,1.677834987640380859e-01,},
		{7.118483632802963257e-02,7.139437645673751831e-02,-1.670762002468109131e-01,8.378338068723678589e-03,2.106242924928665161e-01,},
		{1.782221905887126923e-02,-4.683542996644973755e-02,-1.785541921854019165e-01,-4.318838715553283691e-01,-1.125748902559280396e-01,},
		{3.355904482305049896e-05,-5.209066346287727356e-02,-1.473487466573715210e-01,-3.295713961124420166e-01,-7.285673171281814575e-02,},
		{9.826291352510452271e-02,7.015139609575271606e-02,-1.059022322297096252e-01,-5.847023427486419678e-02,2.865830808877944946e-02,},
	},
	{
		{1.953252851963043213e-01,4.281965270638465881e-02,1.298449840396642685e-02,-1.377948522567749023e-01,-5.437258630990982056e-02,},
		{3.075999766588211060e-02,2.019349634647369385e-01,-1.233579814434051514e-01,-4.644814729690551758e-01,-7.501611858606338501e-02,},
		{4.802702739834785461e-02,1.105904653668403625e-01,7.964523881673812866e-02,-1.986265778541564941e-01,-3.355305269360542297e-02,},
		{-2.808035723865032196e-02,4.124721512198448181e-02,4.789946228265762329e-02,-7.266710698604583740e-02,-1.402556151151657104e-01,},
		{-2.992601692676544189e-02,1.342305690050125122e-01,1.486718058586120605e-01,3.726605698466300964e-02,-4.165280144661664963e-03,},
	},
	{
		{-1.649036854505538940e-01,-1.613227576017379761e-01,7.551679760217666626e-02,-1.394719183444976807e-01,-2.053400576114654541e-01,},
		{-1.109432503581047058e-01,-3.650805950164794922e-01,-3.588104620575904846e-02,1.357415467500686646e-01,2.022436112165451050e-01,},
		{-8.653420954942703247e-02,-4.076483547687530518e-01,-2.096412181854248047e-01,8.917630463838577271e-02,2.355078756809234619e-01,},
		{2.675925940275192261e-02,-2.377605885267257690e-01,-3.912302851676940918e-01,-1.843014955520629883e-01,-1.538517978042364120e-02,},
		{-4.431154206395149231e-02,-6.827105581760406494e-02,-1.687601357698440552e-01,-1.318091875873506069e-03,1.692191660404205322e-01,},
	},
	{
		{5.227047950029373169e-02,2.809713967144489288e-02,-4.172560945153236389e-02,-1.162008941173553467e-01,-1.791217476129531860e-01,},
		{7.290586084127426147e-02,1.323792785406112671e-01,1.028420329093933105e-01,-2.915683388710021973e-01,-5.718765407800674438e-02,},
		{-1.986223645508289337e-02,1.508736461400985718e-01,-1.861542277038097382e-02,-3.089745044708251953e-01,1.970073729753494263e-01,},
		{-8.975297957658767700e-02,2.958602905273437500e-01,1.464206874370574951e-01,-4.467606842517852783e-01,1.146061420440673828e-01,},
		{6.429219245910644531e-02,2.184393554925918579e-01,2.390096485614776611e-01,-2.750566899776458740e-01,4.479139670729637146e-02,},
	},
	{
		{7.258095592260360718e-02,1.499589830636978149e-01,-4.357992857694625854e-02,-1.082484871149063110e-01,3.634756430983543396e-02,},
		{6.075897440314292908e-02,1.529823094606399536e-01,6.559596396982669830e-03,-2.817518711090087891e-01,-1.989385336637496948e-01,},
		{-1.550056971609592438e-03,1.500502377748489380e-01,4.161791130900382996e-02,-8.617305010557174683e-02,-2.144747227430343628e-01,},
		{-1.145310774445533752e-01,-3.280896693468093872e-02,1.405534595251083374e-01,6.932900100946426392e-02,-8.751095086336135864e-02,},
		{-1.147563755512237549e-01,4.202622175216674805e-02,1.521347314119338989e-01,6.876166909933090210e-03,-2.750936523079872131e-02,},
	},
	{
		{-1.362354774028062820e-02,3.852381929755210876e-02,-5.780629441142082214e-02,-1.871633692644536495e-03,-1.917429268360137939e-01,},
		{-5.547288432717323303e-02,-6.501524150371551514e-02,-7.247541099786758423e-02,-2.399789839982986450e-01,-1.792852133512496948e-01,},
		{-5.044903978705406189e-02,2.112167887389659882e-02,-4.599316045641899109e-03,-9.214900434017181396e-02,1.168713718652725220e-02,},
		{-1.118247807025909424e-01,1.874596998095512390e-02,-5.604291334748268127e-02,-1.074362471699714661e-01,7.884810119867324829e-02,},
		{1.333128288388252258e-02,1.573222875595092773e-01,-3.400723636150360107e-02,-1.238030120730400085e-01,4.890787228941917419e-02,},
	},
	},
	{
	{
		{-2.858784496784210205e-01,-1.061114296317100525e-01,-1.128926798701286316e-01,-8.026532083749771118e-02,3.033712739124894142e-03,},
		{-4.633175674825906754e-03,-2.407806813716888428e-01,-2.873078882694244385e-01,-3.492747545242309570e-01,-2.708623111248016357e-01,},
		{1.309957355260848999e-01,-5.945787206292152405e-02,2.733035385608673096e-02,7.795606553554534912e-02,3.514192625880241394e-02,},
		{2.181647419929504395e-01,3.589060306549072266e-01,2.993118166923522949e-01,3.359940946102142334e-01,2.386992275714874268e-01,},
		{1.318607628345489502e-01,1.602237299084663391e-02,2.241240290459245443e-04,-1.112939789891242981e-02,5.296388640999794006e-02,},
	},
	{
		{-2.735406905412673950e-02,-1.888380795717239380e-01,-1.654940247535705566e-01,-4.882379993796348572e-02,-4.639293998479843140e-02,},
		{1.030761376023292542e-01,2.041867934167385101e-02,-3.972538188099861145e-02,-3.676955029368400574e-02,1.186919584870338440e-02,},
		{4.712959006428718567e-02,9.492347389459609985e-02,-3.454255312681198120e-02,1.284292340278625488e-01,7.914923131465911865e-02,},
		{-1.834087371826171875e-01,-3.541489690542221069e-02,-8.730539679527282715e-02,-6.132087204605340958e-03,-6.581292953342199326e-03,},
		{8.546351455152034760e-03,-1.198190599679946899e-01,-1.150368303060531616e-01,-1.474684029817581177e-01,-1.164792254567146301e-01,},
	},
	{
		{-2.246929258108139038e-01,-1.238582804799079895e-01,-3.045791201293468475e-02,2.929035574197769165e-03,-2.444192022085189819e-02,},
		{-3.550226800143718719e-03,2.013745903968811035e-01,1.785549074411392212e-01,1.606055945158004761e-01,1.280762404203414917e-01,},
		{9.792103432118892670e-03,6.312968581914901733e-02,-5.775885190814733505e-03,1.243317499756813049e-03,-6.186060234904289246e-02,},
		{2.281594723463058472e-01,3.091936409473419189e-01,3.084106445312500000e-01,3.250867426395416260e-01,1.146506294608116150e-01,},
		{1.344950497150421143e-01,1.108739078044891357e-01,1.137028113007545471e-01,1.095274686813354492e-01,2.482813745737075806e-01,},
	},
	{
		{3.957938402891159058e-02,-5.692518875002861023e-02,-9.791680425405502319e-02,-6.999374181032180786e-02,-1.270548906177282333e-02,},
		{-7.034564763307571411e-02,-9.874816983938217163e-02,-1.771007031202316284e-01,-6.633035093545913696e-02,6.938647478818893433e-02,},
		{-1.440844088792800903e-01,-1.483396142721176147e-01,-2.334741801023483276e-01,-5.223708227276802063e-02,9.721594303846359253e-02,},
		{-2.089945822954177856e-01,-1.780810356140136719e-01,-1.201486736536026001e-01,2.059806697070598602e-02,-5.477488040924072266e-02,},
		{-1.792830526828765869e-01,-1.536817848682403564e-01,-6.247648969292640686e-02,-1.526096314191818237e-01,-1.044943258166313171e-01,},
	},
	{
		{-3.573514521121978760e-02,-1.461411118507385254e-01,-6.170089542865753174e-02,-1.047411262989044189e-01,-2.490627951920032501e-02,},
		{6.753234565258026123e-02,-8.483776822686195374e-03,-5.172874778509140015e-02,2.675254829227924347e-02,-1.967278681695461273e-02,},
		{1.118878126144409180e-01,1.750019937753677368e-01,1.233066990971565247e-01,1.080803796648979187e-01,7.747551798820495605e-02,},
		{-2.174897119402885437e-02,7.474814355373382568e-02,2.140329033136367798e-02,6.899237632751464844e-02,7.056782394647598267e-02,},
		{-1.586603522300720215e-01,-1.374290585517883301e-01,-1.517881602048873901e-01,-1.464231163263320923e-01,-1.545925438404083252e-01,},
	},
	{
		{-3.377507254481315613e-02,-4.938999190926551819e-02,3.918372094631195068e-02,-1.072080060839653015e-01,-6.283614318817853928e-03,},
		{8.311523497104644775e-02,9.268517047166824341e-02,1.166205480694770813e-01,5.391786992549896240e-02,1.445984393358230591e-01,},
		{-1.360198576003313065e-02,1.076501309871673584e-01,5.572405457496643066e-02,1.106532365083694458e-01,1.712224483489990234e-01,},
		{-1.375770717859268188e-01,-2.932179868221282959e-01,-1.992234140634536743e-01,2.096905931830406189e-02,-3.062137402594089508e-02,},
		{-2.107715755701065063e-01,-1.713774800300598145e-01,3.814178518950939178e-03,-5.110124591737985611e-03,-8.532419800758361816e-02,},
	},
	},
	{
	{
		{1.944303326308727264e-02,1.674783676862716675e-01,-9.342047572135925293e-02,-2.165279239416122437e-01,1.030270680785179138e-01,},
		{1.284184604883193970e-01,1.009676158428192139e-01,-2.756031751632690430e-01,-1.443817317485809326e-01,1.675902903079986572e-01,},
		{-7.780843414366245270e-03,7.817286252975463867e-02,-4.838331043720245361e-02,-1.803575754165649414e-01,3.114772960543632507e-03,},
		{-1.553191691637039185e-01,-1.362010021694004536e-03,1.271389238536357880e-02,-3.194995969533920288e-02,-1.167600825428962708e-01,},
		{-9.620022773742675781e-02,-1.074663642793893814e-02,4.395234584808349609e-02,1.950517594814300537e-01,1.708276718854904175e-01,},
	},
	{
		{1.593417301774024963e-02,1.875587850809097290e-01,8.709020912647247314e-02,-1.876382529735565186e-01,1.633032262325286865e-01,},
		{7.016327232122421265e-02,4.667662084102630615e-02,-1.184258889406919479e-02,-1.556548327207565308e-01,1.007797420024871826e-01,},
		{1.958791539072990417e-02,2.739914320409297943e-02,6.576168537139892578e-02,-1.268867254257202148e-01,-4.116888344287872314e-02,},
		{-1.863155961036682129e-01,2.311722561717033386e-02,2.761485874652862549e-01,1.189827919006347656e-01,-1.779476404190063477e-01,},
		{-1.062577813863754272e-01,-1.182996779680252075e-01,5.425360798835754395e-02,1.860415190458297729e-01,-1.431000828742980957e-01,},
	},
	{
		{-6.433995068073272705e-02,-1.555704921483993530e-01,-1.366198360919952393e-01,-3.196611255407333374e-02,-4.378055781126022339e-02,},
		{5.245879665017127991e-02,-1.729710549116134644e-01,-4.263448119163513184e-01,-2.713232338428497314e-01,-5.518944235518574715e-04,},
		{-3.399269655346870422e-02,-4.214047193527221680e-01,-5.531779527664184570e-01,8.186068385839462280e-02,2.748181819915771484e-01,},
		{-1.007952988147735596e-01,-1.307441890239715576e-01,-3.188735544681549072e-01,2.043549157679080963e-02,3.750608265399932861e-01,},
		{1.428629904985427856e-01,2.620005011558532715e-01,1.843561828136444092e-01,1.212485656142234802e-01,-3.228026442229747772e-03,},
	},
	{
		{-5.281087383627891541e-02,1.180173456668853760e-01,4.482064768671989441e-02,3.450128249824047089e-03,1.769796758890151978e-01,},
		{-1.494567245244979858e-01,2.262946218252182007e-01,1.487451493740081787e-01,-6.392765045166015625e-02,1.460728794336318970e-01,},
		{-3.518012911081314087e-02,1.532834321260452271e-01,3.822605684399604797e-02,-3.244127035140991211e-01,1.076125502586364746e-01,},
		{-1.765222847461700439e-01,9.117816388607025146e-02,1.043967008590698242e-01,-4.858017563819885254e-01,-1.249806061387062073e-01,},
		{-1.940943747758865356e-01,5.107689648866653442e-02,4.428538680076599121e-02,-2.930460572242736816e-01,-7.521235942840576172e-01,},
	},
	{
		{-2.210364863276481628e-02,5.150582641363143921e-02,6.888906657695770264e-02,6.836325675249099731e-02,4.361221194267272949e-02,},
		{-1.035868097096681595e-02,1.072432845830917358e-01,5.078036338090896606e-02,-3.108526952564716339e-02,1.384606212377548218e-01,},
		{-6.375218927860260010e-02,9.642419219017028809e-02,-1.312662847340106964e-02,1.888644322752952576e-02,-1.265116035938262939e-01,},
		{-1.278923600912094116e-01,3.852257505059242249e-02,1.867317855358123779e-01,2.270881682634353638e-01,-3.545644506812095642e-02,},
		{-1.329448521137237549e-01,-2.122411727905273438e-01,-1.208011340349912643e-02,1.984313428401947021e-01,1.348072290420532227e-01,},
	},
	{
		{3.854175284504890442e-02,-2.898347936570644379e-02,6.672407686710357666e-02,5.320425331592559814e-02,1.161684468388557434e-01,},
		{-5.717810615897178650e-02,4.684233665466308594e-02,1.199109200388193130e-02,-1.569856852293014526e-01,-4.187875613570213318e-02,},
		{-1.996592432260513306e-02,2.652140520513057709e-02,-5.871653929352760315e-02,-1.593615412712097168e-01,1.690467596054077148e-01,},
		{-1.893231421709060669e-01,-1.093850582838058472e-01,-2.109584957361221313e-01,-3.509893640875816345e-02,1.483791470527648926e-01,},
		{-2.710331678390502930e-01,-1.240323036909103394e-01,-2.231763601303100586e-01,-1.214492172002792358e-01,-9.246167540550231934e-02,},
	},
	},
	{
	{
		{-1.433288753032684326e-01,-4.992861300706863403e-02,-1.822979152202606201e-01,-2.913941442966461182e-01,-3.322428762912750244e-01,},
		{-1.232242584228515625e-01,-2.703849785029888153e-02,2.460130676627159119e-02,-2.656375467777252197e-01,-2.313558012247085571e-01,},
		{6.570622324943542480e-02,2.205905914306640625e-01,7.825782150030136108e-02,-2.438458800315856934e-01,2.965756133198738098e-02,},
		{1.708234399557113647e-01,2.206438779830932617e-01,-1.041086688637733459e-01,-2.788968682289123535e-01,8.276607096195220947e-02,},
		{4.787871614098548889e-02,-1.138525456190109253e-01,-6.965564936399459839e-02,-1.308288276195526123e-01,-3.706412389874458313e-02,},
	},
	{
		{-8.382497727870941162e-02,1.140401735901832581e-01,-9.231114760041236877e-03,4.618537053465843201e-02,-6.703866273164749146e-02,},
		{-4.671164974570274353e-02,1.020888388156890869e-01,4.959535598754882812e-02,-1.359102409332990646e-02,-3.208770230412483215e-02,},
		{-1.089430004358291626e-01,6.084599718451499939e-02,2.548106610774993896e-01,-3.532462939620018005e-02,-2.028198093175888062e-01,},
		{8.876597508788108826e-03,2.230643182992935181e-01,1.656472086906433105e-01,-3.410167098045349121e-01,-2.785824537277221680e-01,},
		{1.583266705274581909e-01,1.256401240825653076e-01,7.476095575839281082e-03,-1.833461076021194458e-01,-1.829739362001419067e-01,},
	},
	{
		{-6.974217295646667480e-02,-4.930463153868913651e-03,1.231103092432022095e-01,1.120586693286895752e-02,2.014394290745258331e-02,},
		{9.248036146163940430e-02,5.360612645745277405e-02,2.636664733290672302e-02,-1.619443669915199280e-02,1.710495166480541229e-02,},
		{1.044814288616180420e-01,7.467313110828399658e-02,-1.232540309429168701e-01,-2.148732095956802368e-01,-1.076092198491096497e-01,},
		{5.142147839069366455e-02,1.738652884960174561e-01,-3.972466289997100830e-01,-6.290083527565002441e-01,1.447419226169586182e-01,},
		{7.662406563758850098e-02,-1.223160475492477417e-01,-4.215329885482788086e-01,-3.953469693660736084e-01,1.727227568626403809e-01,},
	},
	{
		{-4.883801564574241638e-02,6.219179555773735046e-02,-6.444598734378814697e-02,3.090459504164755344e-04,3.200469911098480225e-02,},
		{4.291120916604995728e-03,-2.607425861060619354e-02,-9.630702435970306396e-03,6.154651567339897156e-02,-5.322798714041709900e-02,},
		{-8.624836802482604980e-02,3.476565703749656677e-02,9.566638618707656860e-02,2.928163297474384308e-02,-6.694882363080978394e-02,},
		{-1.319893300533294678e-01,1.796567291021347046e-01,1.228405311703681946e-01,4.300053417682647705e-02,-5.734004974365234375e-01,},
		{4.273704066872596741e-02,2.304506301879882812e-01,4.049472808837890625e-01,3.101870790123939514e-02,5.329543724656105042e-02,},
	},
	{
		{-2.465348541736602783e-01,-1.976357586681842804e-02,7.270085811614990234e-02,-3.578701522201299667e-03,6.156284362077713013e-02,},
		{-8.692550659179687500e-02,2.809709124267101288e-02,1.562509238719940186e-01,7.614518515765666962e-03,-1.706688292324542999e-02,},
		{-1.197020784020423889e-01,4.305762425065040588e-02,9.561277180910110474e-02,3.112297877669334412e-02,-7.557772099971771240e-02,},
		{-9.601954370737075806e-02,5.356602370738983154e-02,8.060760796070098877e-02,2.144699543714523315e-02,-2.018566727638244629e-01,},
		{-1.454992145299911499e-01,-2.450606785714626312e-03,6.943981349468231201e-02,6.728977430611848831e-03,-2.021528333425521851e-01,},
	},
	{
		{-1.936919093132019043e-01,9.252984076738357544e-02,1.050636246800422668e-01,1.148249953985214233e-01,7.059109210968017578e-02,},
		{-1.016258522868156433e-01,-1.973745645955204964e-03,1.202817484736442566e-01,-1.997094415128231049e-02,2.658202126622200012e-02,},
		{2.629983611404895782e-02,2.925095334649085999e-02,4.536161199212074280e-02,-5.756505951285362244e-02,-1.293747276067733765e-01,},
		{-1.166412457823753357e-01,9.862616425380110741e-04,1.315135210752487183e-01,-1.808932572603225708e-01,-5.178390741348266602e-01,},
		{7.256872206926345825e-02,2.077044993638992310e-01,1.851751506328582764e-01,-3.035582602024078369e-01,-2.127115428447723389e-01,},
	},
	},
	{
	{
		{5.699560046195983887e-03,1.984587460756301880e-01,2.218061089515686035e-01,7.597228046506643295e-03,-3.787938952445983887e-01,},
		{-6.226177886128425598e-02,-6.127134896814823151e-03,-4.071494340896606445e-01,-3.061815500259399414e-01,2.501219883561134338e-02,},
		{-5.517565831542015076e-02,-9.634070843458175659e-02,9.035540372133255005e-02,1.188614293932914734e-01,1.094791069626808167e-01,},
		{1.768991351127624512e-01,1.081693097949028015e-01,1.705574393272399902e-01,3.361491486430168152e-02,-5.866838991641998291e-02,},
		{4.969794303178787231e-02,-2.124115824699401855e-02,-6.993448734283447266e-02,-1.281019002199172974e-01,-2.438441663980484009e-01,},
	},
	{
		{-1.171667799353599548e-01,-6.528034806251525879e-02,1.095643490552902222e-01,6.920415908098220825e-02,2.761108428239822388e-02,},
		{-2.423444949090480804e-02,4.579059407114982605e-02,-1.480915490537881851e-02,-3.763490240089595318e-04,9.225700795650482178e-02,},
		{1.120767220854759216e-01,-1.080335155129432678e-01,-2.209499776363372803e-01,-8.699191361665725708e-02,1.011685952544212341e-01,},
		{1.269365078769624233e-03,-1.357516199350357056e-01,-1.269657015800476074e-01,-6.015537306666374207e-02,-1.677595824003219604e-02,},
		{5.249561369419097900e-02,3.954987972974777222e-02,7.007305510342121124e-03,-7.064601778984069824e-02,9.894001996144652367e-04,},
	},
	{
		{-2.314736396074295044e-01,-6.142739672213792801e-03,1.402935236692428589e-01,1.108843460679054260e-01,3.316119778901338577e-03,},
		{-1.504872553050518036e-02,5.093225836753845215e-02,-1.497478485107421875e-01,-3.919479548931121826e-01,-3.695139288902282715e-01,},
		{-6.299827247858047485e-02,-1.204666122794151306e-01,-2.511226832866668701e-01,-2.234374172985553741e-02,-1.178016886115074158e-01,},
		{1.315544992685317993e-01,2.222021371126174927e-01,1.559885293245315552e-01,2.216718904674053192e-02,-9.010194242000579834e-02,},
		{1.668343544006347656e-01,8.616962283849716187e-02,1.503306478261947632e-01,1.648730188608169556e-01,-5.019234493374824524e-03,},
	},
	{
		{-2.949752211570739746e-01,-1.246643885970115662e-01,1.655141008086502552e-03,7.271882891654968262e-02,2.441018633544445038e-02,},
		{-1.647637188434600830e-01,4.618500918149948120e-02,1.849346458911895752e-01,2.717395499348640442e-02,2.726838737726211548e-02,},
		{-2.054233476519584656e-02,1.163561046123504639e-01,-6.567333638668060303e-02,-1.319476664066314697e-01,-1.095383241772651672e-01,},
		{-9.466640651226043701e-02,-1.870926171541213989e-01,-2.132978886365890503e-01,-3.579888939857482910e-01,-4.890958964824676514e-02,},
		{-5.461970577016472816e-04,-1.156116127967834473e-01,-9.933520108461380005e-02,-1.553757768124341965e-02,-7.091999799013137817e-02,},
	},
	{
		{-6.943413615226745605e-02,-4.402478039264678955e-02,1.766610890626907349e-02,1.385691110044717789e-02,1.373701691627502441e-01,},
		{4.489958286285400391e-02,9.067845530807971954e-03,6.393478065729141235e-02,7.563749700784683228e-02,1.271939426660537720e-01,},
		{7.812112569808959961e-02,6.474509090185165405e-02,-3.098065592348575592e-02,9.208751469850540161e-02,-5.977364629507064819e-02,},
		{-2.385698445141315460e-02,-4.960079863667488098e-02,-1.141930371522903442e-02,-1.507361978292465210e-01,5.120860412716865540e-02,},
		{-6.418623030185699463e-02,-9.168104268610477448e-03,-1.675684005022048950e-01,-2.059190869331359863e-01,-1.290208250284194946e-01,},
	},
	{
		{-1.399239301681518555e-01,-6.251160055398941040e-02,8.429327607154846191e-02,1.537769734859466553e-01,1.482897996902465820e-01,},
		{-3.662785142660140991e-02,1.701906174421310425e-01,1.397293061017990112e-01,1.872130185365676880e-01,-1.938847638666629791e-02,},
		{6.580517441034317017e-02,4.885950684547424316e-02,9.922533482313156128e-02,-1.499203443527221680e-01,-1.889175474643707275e-01,},
		{-1.750085800886154175e-01,-1.599520742893218994e-01,-2.882450819015502930e-01,-2.556914687156677246e-01,-7.735737413167953491e-02,},
		{-7.362709194421768188e-02,-1.273449659347534180e-01,7.219006121158599854e-02,9.326988458633422852e-02,1.051689013838768005e-01,},
	},
	},
	{
	{
		{-1.421389915049076080e-02,7.603431493043899536e-02,1.377624422311782837e-01,-1.352809816598892212e-01,-5.169589817523956299e-02,},
		{-5.709977820515632629e-03,8.341731131076812744e-02,1.339227259159088135e-01,-2.787544429302215576e-01,1.020349748432636261e-02,},
		{-6.869033724069595337e-02,-1.311039179563522339e-01,5.806399974972009659e-03,-2.846470177173614502e-01,-1.861239671707153320e-01,},
		{-8.849745243787765503e-02,-9.585820138454437256e-02,3.403734788298606873e-02,-4.865280538797378540e-02,-1.069761216640472412e-01,},
		{-1.590326279401779175e-01,-1.189496293663978577e-01,-3.838949277997016907e-02,-2.847059071063995361e-02,-2.321201376616954803e-02,},
	},
	{
		{-1.700585782527923584e-01,-7.905694097280502319e-02,1.452569067478179932e-01,-5.267547443509101868e-03,-1.023631617426872253e-01,},
		{2.107185125350952148e-02,9.069672971963882446e-02,1.429426372051239014e-01,-1.802142113447189331e-01,-2.105951756238937378e-01,},
		{-1.158071011304855347e-01,3.116877190768718719e-02,2.259443402290344238e-01,2.515461854636669159e-02,-1.737272143363952637e-01,},
		{-3.167156577110290527e-01,-1.689608544111251831e-01,1.912751644849777222e-01,2.159791588783264160e-01,7.171144336462020874e-02,},
		{-1.046404018998146057e-01,-3.266846388578414917e-02,5.179106816649436951e-02,1.984401047229766846e-01,1.244836524128913879e-01,},
	},
	{
		{-9.183618426322937012e-02,-6.574992090463638306e-02,-2.121277004480361938e-01,-2.298963218927383423e-01,-2.340881340205669403e-02,},
		{-2.636314136907458305e-03,9.055549278855323792e-03,-2.466603368520736694e-01,-1.258055269718170166e-01,8.741665631532669067e-03,},
		{6.601797044277191162e-02,-1.867071688175201416e-01,-5.415906310081481934e-01,-3.527454137802124023e-01,4.528128728270530701e-02,},
		{1.699424535036087036e-01,7.762800902128219604e-02,-1.473683267831802368e-01,-4.171901941299438477e-01,2.358657568693161011e-01,},
		{1.243983730673789978e-01,2.517875730991363525e-01,1.539099067449569702e-01,-1.136971358209848404e-02,2.572417445480823517e-02,},
	},
	{
		{-1.110315695405006409e-01,-3.222715109586715698e-02,1.980807185173034668e-01,5.461976677179336548e-02,-5.931564047932624817e-02,},
		{-8.262931555509567261e-02,4.553756490349769592e-02,1.546090692281723022e-01,1.451250314712524414e-01,-3.485618531703948975e-01,},
		{-1.359056383371353149e-01,1.218324676156044006e-01,1.595857292413711548e-01,-8.010393381118774414e-02,-2.413006722927093506e-01,},
		{-3.352084457874298096e-01,4.871881008148193359e-02,2.256409525871276855e-01,9.843139350414276123e-02,-2.471844404935836792e-01,},
		{-2.121322304010391235e-01,-8.617752045392990112e-02,3.871715068817138672e-01,1.386505812406539917e-01,-1.820167154073715210e-01,},
	},
	{
		{-1.086240261793136597e-01,-4.068185109645128250e-03,1.054366305470466614e-01,-6.022208929061889648e-02,1.571463793516159058e-02,},
		{-2.042822092771530151e-01,-8.058948814868927002e-02,9.614037722349166870e-02,5.348895862698554993e-02,-1.645917259156703949e-02,},
		{-1.585018932819366455e-01,-4.788613319396972656e-02,-3.109399229288101196e-02,1.348831355571746826e-01,-4.805477708578109741e-02,},
		{-1.183862090110778809e-01,-1.904445439577102661e-01,7.373213768005371094e-02,1.353684961795806885e-01,3.598977997899055481e-02,},
		{-3.445971384644508362e-02,-1.237341165542602539e-01,-6.559331715106964111e-02,1.019105985760688782e-01,1.508475393056869507e-01,},
	},
	{
		{-3.580191731452941895e-02,-8.014058321714401245e-02,9.419024735689163208e-02,4.273215681314468384e-02,-7.254941761493682861e-02,},
		{-1.419957876205444336e-01,2.068727836012840271e-02,9.632614254951477051e-02,-3.399345278739929199e-02,-1.934285163879394531e-01,},
		{-1.227512061595916748e-01,-4.468156490474939346e-03,1.130023077130317688e-01,-3.427839837968349457e-03,-1.305468678474426270e-01,},
		{-1.761075258255004883e-01,-6.483599543571472168e-02,-8.629564940929412842e-02,-2.197152674198150635e-01,-4.520449787378311157e-02,},
		{-9.395087510347366333e-02,-3.720885142683982849e-02,6.664104294031858444e-03,-1.170375496149063110e-01,1.056799665093421936e-01,},
	},
	},
	{
	{
		{1.281392574310302734e-01,1.171832531690597534e-01,-1.281941086053848267e-01,-9.353004395961761475e-02,4.970859363675117493e-02,},
		{1.605068594217300415e-01,-6.219722703099250793e-02,-1.791413128376007080e-01,9.419475495815277100e-02,1.830705255270004272e-01,},
		{-2.198262065649032593e-01,-4.395384490489959717e-01,-2.188113033771514893e-01,5.320970341563224792e-02,7.293082773685455322e-02,},
		{-9.836971759796142578e-02,-2.941446006298065186e-01,-2.459981143474578857e-01,-2.725305855274200439e-01,-1.116377413272857666e-01,},
		{-4.915653169155120850e-02,-1.689569801092147827e-01,-7.973388582468032837e-02,4.249638319015502930e-02,1.164071783423423767e-01,},
	},
	{
		{2.099719271063804626e-02,1.420542001724243164e-01,-6.245250115171074867e-04,-1.060051172971725464e-01,-1.588540896773338318e-02,},
		{8.090069890022277832e-02,1.074357628822326660e-01,-1.385715156793594360e-01,-1.236829012632369995e-01,1.053616106510162354e-01,},
		{-1.887543871998786926e-02,-8.962632715702056885e-02,-1.315565556287765503e-01,2.643870003521442413e-02,-1.926978118717670441e-02,},
		{3.371741995215415955e-02,5.834428966045379639e-02,3.001723065972328186e-02,-6.778409332036972046e-02,-8.820149302482604980e-02,},
		{7.993008196353912354e-02,-4.993489384651184082e-02,-9.377122623845934868e-04,2.614608965814113617e-02,-1.491231918334960938e-01,},
	},
	{
		{-8.495659381151199341e-02,-3.092901594936847687e-02,-3.783608973026275635e-02,-1.581625491380691528e-01,-2.508600652217864990e-01,},
		{1.713615655899047852e-01,-2.203919142484664917e-01,-4.997584223747253418e-01,-1.517551988363265991e-01,-9.680208750069141388e-03,},
		{1.823881641030311584e-02,-6.230710744857788086e-01,-4.135132133960723877e-01,2.305441945791244507e-01,3.229306936264038086e-01,},
		{-4.177289009094238281e-01,-4.292771816253662109e-01,-2.174669317901134491e-02,2.399089932441711426e-01,1.599205881357192993e-01,},
		{-9.306126832962036133e-02,-4.683548957109451294e-02,1.162434741854667664e-01,3.102745413780212402e-01,2.435481846332550049e-01,},
	},
	{
		{-1.845623105764389038e-01,1.921635568141937256e-01,1.594301611185073853e-01,7.565842568874359131e-02,-8.577281236648559570e-02,},
		{1.208566427230834961e-01,2.215744704008102417e-01,1.296368986368179321e-01,-1.068673729896545410e-01,3.639689832925796509e-02,},
		{4.225087910890579224e-02,2.649760842323303223e-01,1.605024337768554688e-01,-2.291036993265151978e-01,1.751623153686523438e-01,},
		{5.716649442911148071e-02,2.509858608245849609e-01,-7.450988888740539551e-02,-1.777462661266326904e-01,-9.385599941015243530e-02,},
		{1.414323747158050537e-01,1.464090645313262939e-01,-5.452020093798637390e-02,-1.103505641222000122e-01,-1.350390911102294922e-01,},
	},
	{
		{-3.588557615876197815e-02,7.188415527343750000e-02,1.199368853121995926e-02,1.375103183090686798e-02,-7.550255209207534790e-02,},
		{-5.573647469282150269e-02,4.980056732892990112e-02,-4.983267933130264282e-02,-9.025416523218154907e-02,-4.004855826497077942e-02,},
		{-9.615553915500640869e-02,-4.723364859819412231e-02,-1.089019179344177246e-01,-1.157459802925586700e-03,-6.470607221126556396e-02,},
		{8.382651954889297485e-02,5.388024076819419861e-02,-2.702918648719787598e-02,4.012264311313629150e-02,4.538577795028686523e-02,},
		{1.123645231127738953e-01,1.080167442560195923e-01,5.245829746127128601e-02,8.827178180217742920e-02,2.187147736549377441e-03,},
	},
	{
		{-1.786830574274063110e-01,-8.347854949533939362e-03,1.210461631417274475e-01,7.467171549797058105e-02,-1.054803282022476196e-01,},
		{8.178400248289108276e-02,5.542587488889694214e-02,1.001862064003944397e-01,-1.085251867771148682e-01,-9.191323071718215942e-02,},
		{1.463085412979125977e-01,1.191489994525909424e-01,-1.683408021926879883e-01,-5.023629590868949890e-02,6.893979758024215698e-02,},
		{4.311193898320198059e-02,-1.202798038721084595e-01,-1.161862388253211975e-01,-7.959644310176372528e-03,1.202140823006629944e-01,},
		{1.010221838951110840e-01,-5.706351622939109802e-02,-1.476805657148361206e-01,-1.071912888437509537e-02,3.412747755646705627e-02,},
	},
	},
	{
	{
		{-7.991850376129150391e-02,-1.093818321824073792e-01,1.606162190437316895e-01,2.158133983612060547e-01,8.196580410003662109e-02,},
		{-6.264998018741607666e-02,-3.501699566841125488e-01,-2.655012607574462891e-01,-3.879098966717720032e-02,7.042915374040603638e-02,},
		{-1.057995632290840149e-01,-1.238777115941047668e-01,-3.057823479175567627e-01,-4.056328833103179932e-01,-3.069250285625457764e-01,},
		{-5.587132275104522705e-02,-1.561095938086509705e-02,2.754066884517669678e-01,1.113769561052322388e-01,4.931972827762365341e-03,},
		{-1.209287792444229126e-01,-1.222281530499458313e-01,5.574500933289527893e-02,2.515586316585540771e-01,1.330454647541046143e-01,},
	},
	{
		{-4.642323032021522522e-02,-2.262684404850006104e-01,-1.089419499039649963e-01,7.478053867816925049e-02,-7.201068568974733353e-03,},
		{1.649815822020173073e-03,-8.924601227045059204e-02,-1.996585726737976074e-01,-1.164142489433288574e-01,-2.132051140069961548e-01,},
		{1.023486256599426270e-01,1.607713550329208374e-01,9.187703579664230347e-02,9.693671762943267822e-02,-1.232404932379722595e-01,},
		{-6.584337446838617325e-03,6.101207435131072998e-02,2.171260267496109009e-01,1.428614109754562378e-01,-6.440737098455429077e-02,},
		{4.616591613739728928e-03,-5.379600450396537781e-02,9.531132131814956665e-02,4.576524719595909119e-02,1.358801424503326416e-01,},
	},
	{
		{-2.982919104397296906e-02,1.201726868748664856e-01,1.328989267349243164e-01,-1.364102065563201904e-01,-3.418764770030975342e-01,},
		{9.651807695627212524e-02,1.625308692455291748e-01,4.368436634540557861e-01,2.865252792835235596e-01,1.373188793659210205e-01,},
		{-1.403761953115463257e-01,-2.321417182683944702e-01,6.445239484310150146e-02,3.607054799795150757e-02,4.987629875540733337e-02,},
		{-1.960239261388778687e-01,4.454299435019493103e-02,7.312414795160293579e-02,1.524980962276458740e-01,1.822650730609893799e-01,},
		{-3.262319564819335938e-01,-2.310248315334320068e-01,-2.480346709489822388e-02,1.586426235735416412e-02,-1.337111443281173706e-01,},
	},
	{
		{-8.236471563577651978e-02,-1.354265809059143066e-01,2.295402586460113525e-01,1.692295074462890625e-01,1.714289784431457520e-01,},
		{1.863938383758068085e-02,-1.563180834054946899e-01,-1.782654821872711182e-01,-4.266782104969024658e-02,-8.046066761016845703e-02,},
		{8.663767017424106598e-03,-2.831134498119354248e-01,-3.110235631465911865e-01,-3.201054781675338745e-02,-1.328694969415664673e-01,},
		{1.314021944999694824e-01,-2.468335628509521484e-02,-1.363009363412857056e-01,-5.943500995635986328e-02,-1.234871074557304382e-01,},
		{1.128554493188858032e-01,-1.310740709304809570e-01,-4.641044139862060547e-02,-1.134677827358245850e-01,-3.490059375762939453e-01,},
	},
	{
		{-6.585490889847278595e-03,-9.179002046585083008e-02,-6.112522259354591370e-02,-2.695655822753906250e-02,-4.643765091896057129e-02,},
		{9.178816340863704681e-03,-4.035032540559768677e-02,-1.308712512254714966e-01,-2.645554542541503906e-01,-2.439636141061782837e-01,},
		{1.164628416299819946e-01,1.010050624608993530e-01,1.246730536222457886e-01,4.098384454846382141e-02,9.242017986252903938e-04,},
		{5.574750527739524841e-02,8.387272804975509644e-02,1.813839524984359741e-01,2.639794945716857910e-01,2.314991131424903870e-02,},
		{5.545992404222488403e-02,3.874862194061279297e-02,3.030928969383239746e-02,1.018526777625083923e-01,1.072584278881549835e-02,},
	},
	{
		{-4.512322321534156799e-02,-1.284394711256027222e-01,-1.211208328604698181e-01,-1.555482596158981323e-01,-6.807892769575119019e-02,},
		{9.083329886198043823e-02,4.692497476935386658e-02,1.032757014036178589e-01,9.321212023496627808e-02,-1.403782069683074951e-01,},
		{1.041171625256538391e-01,3.034486249089241028e-02,6.567182391881942749e-02,1.403170526027679443e-01,1.617537625133991241e-02,},
		{-2.707704901695251465e-02,2.228912524878978729e-02,6.552113592624664307e-02,1.481598913669586182e-01,2.394008450210094452e-02,},
		{-2.018125262111425400e-03,-6.649089604616165161e-02,-8.907632529735565186e-02,-1.778991371393203735e-01,-9.908505529165267944e-02,},
	},
	},
	{
	{
		{-6.487791985273361206e-02,-2.600320875644683838e-01,-2.625623047351837158e-01,-4.852413833141326904e-01,-3.952997326850891113e-01,},
		{-3.350416421890258789e-01,-3.065034002065658569e-02,-3.637188300490379333e-02,-4.004741907119750977e-01,-1.190326809883117676e-01,},
		{2.449670881032943726e-01,1.595285534858703613e-01,-4.574620351195335388e-02,-2.143809199333190918e-01,8.036575466394424438e-02,},
		{2.597925066947937012e-01,-4.080114141106605530e-02,-2.324232012033462524e-01,-4.445767402648925781e-02,1.171724200248718262e-01,},
		{-1.599024087190628052e-01,-1.435735449194908142e-02,1.863009929656982422e-01,9.871622920036315918e-02,-3.986525908112525940e-02,},
	},
	{
		{3.202779218554496765e-03,7.914981991052627563e-02,5.635422468185424805e-02,1.289697438478469849e-01,7.260172069072723389e-02,},
		{-1.439885646104812622e-01,2.449206635355949402e-02,2.104533761739730835e-01,3.337268531322479248e-02,1.516423225402832031e-01,},
		{8.964201807975769043e-02,1.381272077560424805e-01,6.666988134384155273e-02,-1.507533192634582520e-01,-1.128625590354204178e-02,},
		{4.557954519987106323e-02,4.290258511900901794e-02,-7.387489825487136841e-02,-1.518696546554565430e-01,-1.399542689323425293e-01,},
		{-1.602770537137985229e-01,-9.413383156061172485e-02,-1.352765560150146484e-01,5.513152852654457092e-02,-1.133330315351486206e-01,},
	},
	{
		{1.062821000814437866e-01,6.205299496650695801e-02,7.684597279876470566e-03,-9.601776301860809326e-02,7.230404764413833618e-02,},
		{-2.309997566044330597e-02,-1.998678892850875854e-01,-4.637147486209869385e-01,-5.285446643829345703e-01,-4.245094060897827148e-01,},
		{9.397460520267486572e-02,1.815955736674368382e-03,-2.202224582433700562e-01,-4.468686580657958984e-01,-2.769269645214080811e-01,},
		{1.784376055002212524e-01,-1.926165819168090820e-01,-7.081102728843688965e-01,-4.443056285381317139e-01,-4.243717715144157410e-02,},
		{-2.271248698234558105e-01,-4.000850021839141846e-01,-3.461873829364776611e-01,-4.539750888943672180e-02,7.368358317762613297e-03,},
	},
	{
		{2.844436094164848328e-02,3.650884330272674561e-02,-5.444595217704772949e-02,-1.986563205718994141e-01,-1.825747080147266388e-02,},
		{-3.224270045757293701e-02,7.615190744400024414e-02,-1.057211682200431824e-01,-3.310659527778625488e-01,-2.800860106945037842e-01,},
		{-1.685596108436584473e-01,3.207926452159881592e-02,-7.869477570056915283e-02,-3.206418156623840332e-01,-2.762813568115234375e-01,},
		{1.270736455917358398e-01,1.953633278608322144e-01,-3.073858655989170074e-02,-3.891011476516723633e-01,-4.740840792655944824e-01,},
		{9.540190547704696655e-02,1.649152040481567383e-01,5.061561986804008484e-02,-4.140996038913726807e-01,-5.813176631927490234e-01,},
	},
	{
		{-1.200845241546630859e-01,2.778884209692478180e-02,1.069770157337188721e-01,2.046475857496261597e-01,1.952614039182662964e-01,},
		{-1.175882789539173245e-04,7.945726066827774048e-02,2.067338973283767700e-01,2.053203284740447998e-01,2.687981724739074707e-01,},
		{-3.838612139225006104e-02,7.334688305854797363e-02,2.597535587847232819e-02,3.902097418904304504e-02,1.253113895654678345e-01,},
		{-1.109851524233818054e-01,1.691533066332340240e-02,-8.103312551975250244e-02,-2.126663923263549805e-02,-9.678997844457626343e-02,},
		{-1.490959376096725464e-01,-3.681832924485206604e-02,5.999882519245147705e-02,5.238033086061477661e-02,-1.660353094339370728e-01,},
	},
	{
		{7.223796565085649490e-03,9.237322956323623657e-02,2.550539970397949219e-01,2.581979632377624512e-01,1.217425689101219177e-01,},
		{-4.458561167120933533e-02,3.794491663575172424e-02,6.852669268846511841e-02,4.209124669432640076e-02,7.160457968711853027e-02,},
		{-2.348480373620986938e-01,-4.564922675490379333e-02,-6.841918081045150757e-02,-1.058326512575149536e-01,-3.432882130146026611e-01,},
		{6.815718114376068115e-02,4.129724949598312378e-02,-3.171551600098609924e-02,-3.381443619728088379e-01,-2.820911705493927002e-01,},
		{1.663196384906768799e-01,4.606467112898826599e-02,-1.667724549770355225e-01,-2.540530562400817871e-01,-2.233570665121078491e-01,},
	},
	},
	{
	{
		{6.913192570209503174e-02,-1.230089813470840454e-01,-1.927482485771179199e-01,1.490310672670602798e-02,1.138979569077491760e-01,},
		{5.930663645267486572e-02,-2.504037022590637207e-01,-7.027645409107208252e-02,3.959256783127784729e-02,2.375228852033615112e-01,},
		{-7.817293703556060791e-02,-1.150932163000106812e-01,-2.896798774600028992e-02,-1.203383551910519600e-03,-1.590237319469451904e-01,},
		{7.429801672697067261e-02,-7.285987585783004761e-02,-1.445186287164688110e-01,-2.496858984231948853e-01,1.562109403312206268e-02,},
		{1.086194142699241638e-01,-8.466321229934692383e-02,5.523417890071868896e-02,2.068523317575454712e-01,1.325328201055526733e-01,},
	},
	{
		{-2.688151299953460693e-01,-2.052114158868789673e-01,-8.620709925889968872e-02,-2.392016537487506866e-02,-1.014338880777359009e-01,},
		{-3.049846291542053223e-01,-3.596436679363250732e-01,-3.343150019645690918e-01,-9.241975098848342896e-02,-1.357502937316894531e-01,},
		{-1.700332462787628174e-01,-2.681015431880950928e-02,-7.631918787956237793e-02,8.385768532752990723e-02,-3.849211847409605980e-03,},
		{1.409310400485992432e-01,4.947019740939140320e-02,2.458956651389598846e-02,-6.379241496324539185e-02,-7.019640505313873291e-02,},
		{7.587835192680358887e-02,1.821016147732734680e-02,-1.157136112451553345e-01,4.237875714898109436e-02,5.189965665340423584e-02,},
	},
	{
		{-8.563584834337234497e-02,-1.406804770231246948e-01,-1.890527158975601196e-01,-2.011139690876007080e-01,-3.325622379779815674e-01,},
		{2.402548491954803467e-01,8.686721324920654297e-02,1.025223731994628906e-01,1.734084784984588623e-01,3.172048628330230713e-01,},
		{3.681243956089019775e-01,1.261355876922607422e-01,2.254246622323989868e-01,3.501619994640350342e-01,3.684614002704620361e-01,},
		{1.216162070631980896e-01,2.081093937158584595e-01,-1.117096934467554092e-02,1.034337747842073441e-02,8.364203572273254395e-02,},
		{-2.712568938732147217e-01,-2.805226445198059082e-01,-8.369221538305282593e-02,2.026768773794174194e-01,2.975220978260040283e-01,},
	},
	{
		{-2.590316832065582275e-01,1.236511245369911194e-01,2.882947623729705811e-01,2.843492329120635986e-01,3.764730691909790039e-02,},
		{-3.752317130565643311e-01,-3.992417156696319580e-01,-1.697999835014343262e-01,-1.616150140762329102e-01,2.021193969994783401e-03,},
		{-2.026663869619369507e-01,-1.773586273193359375e-01,-6.231256574392318726e-02,-1.253073802217841148e-03,6.075881794095039368e-02,},
		{3.296687826514244080e-02,7.657042145729064941e-02,7.844751328229904175e-02,7.586847990751266479e-02,6.691364198923110962e-02,},
		{2.088097482919692993e-01,-3.896082565188407898e-02,-1.738431453704833984e-01,-1.791549175977706909e-01,-3.929052650928497314e-01,},
	},
	{
		{-1.933253705501556396e-01,-2.100281119346618652e-01,-9.941878169775009155e-02,-9.495148062705993652e-02,7.084859162569046021e-02,},
		{-3.203633725643157959e-01,-3.477476835250854492e-01,-3.568483591079711914e-01,-7.192742824554443359e-02,-6.559931486845016479e-02,},
		{-2.232082635164260864e-01,-3.601070120930671692e-02,-2.208710163831710815e-01,-5.705868452787399292e-02,-4.567550122737884521e-02,},
		{9.278561174869537354e-02,3.543883189558982849e-02,4.792287945747375488e-02,3.911561518907546997e-02,1.553139984607696533e-01,},
		{5.434334278106689453e-02,6.576092541217803955e-02,1.422544661909341812e-02,1.943062059581279755e-03,2.151921950280666351e-02,},
	},
	{
		{-3.857305049896240234e-01,-3.761279881000518799e-01,-1.725137382745742798e-01,3.686833754181861877e-02,-1.610514521598815918e-01,},
		{-5.930536612868309021e-02,-2.057442814111709595e-01,-2.366997152566909790e-01,-1.390719115734100342e-01,-1.593610644340515137e-01,},
		{1.711825132369995117e-01,1.696728728711605072e-02,9.607697278261184692e-02,1.500453501939773560e-01,1.591059863567352295e-01,},
		{2.371416240930557251e-01,2.008060216903686523e-01,1.967719793319702148e-01,1.882790327072143555e-01,1.485685855150222778e-01,},
		{4.883511736989021301e-02,1.333894729614257812e-01,5.172842368483543396e-02,-6.456702202558517456e-02,-2.394444122910499573e-02,},
	},
	},
	{
	{
		{9.219866245985031128e-02,1.361452192068099976e-01,1.087077707052230835e-01,-3.053994849324226379e-02,5.365935340523719788e-02,},
		{-1.105055212974548340e-03,-3.958018124103546143e-02,1.551164984703063965e-01,2.582662701606750488e-01,3.434067070484161377e-01,},
		{-1.180315539240837097e-01,-1.505715548992156982e-01,-8.173418231308460236e-03,1.281119436025619507e-01,1.475360989570617676e-01,},
		{-8.099679648876190186e-02,-2.332015931606292725e-01,-2.870674133300781250e-01,-4.508775472640991211e-01,-3.760219514369964600e-01,},
		{-1.487684249877929688e-01,-2.731700241565704346e-01,-1.698222309350967407e-01,-1.722336933016777039e-02,3.334048390388488770e-02,},
	},
	{
		{-1.083843111991882324e-01,7.401303946971893311e-02,8.959346264600753784e-02,1.673865765333175659e-01,1.038828268647193909e-01,},
		{-1.732166111469268799e-01,-1.262819021940231323e-01,-9.021323919296264648e-02,9.956642240285873413e-02,7.499270886182785034e-02,},
		{-8.944506943225860596e-02,-1.395620703697204590e-01,-1.214690506458282471e-01,-5.941481213085353374e-04,3.740375861525535583e-02,},
		{-2.176945284008979797e-02,2.535034902393817902e-02,-5.738358478993177414e-03,-1.174969971179962158e-01,-1.300083249807357788e-01,},
		{1.295209396630525589e-03,4.555460065603256226e-02,9.413748979568481445e-03,-4.824188351631164551e-02,-3.310946375131607056e-02,},
	},
	{
		{3.932952880859375000e-02,3.373189270496368408e-02,-5.495302006602287292e-02,1.828386783599853516e-01,1.308041065931320190e-01,},
		{1.749544441699981689e-01,1.675280779600143433e-01,1.948721110820770264e-01,3.086140751838684082e-01,3.328349068760871887e-02,},
		{5.711654573678970337e-02,-1.051871012896299362e-02,1.618454009294509888e-01,2.806712090969085693e-01,1.443841010332107544e-01,},
		{-1.018270850181579590e-01,-5.509321391582489014e-02,-7.238562405109405518e-02,5.860961973667144775e-02,-1.316224336624145508e-01,},
		{-2.992174029350280762e-01,-1.856785714626312256e-01,-1.152670532464981079e-01,-1.400768607854843140e-01,-2.219480276107788086e-01,},
	},
	{
		{-5.693481490015983582e-02,-8.674895763397216797e-02,9.832693636417388916e-02,-1.483706980943679810e-01,-3.039981722831726074e-01,},
		{-3.280040919780731201e-01,-3.328267633914947510e-01,-5.714096873998641968e-02,-5.651952698826789856e-02,-2.627998292446136475e-01,},
		{-5.057494640350341797e-01,-3.141092360019683838e-01,-6.861782819032669067e-02,5.768936872482299805e-02,-1.738220639526844025e-02,},
		{-4.087621718645095825e-02,5.392032116651535034e-02,2.376006916165351868e-02,4.246174171566963196e-02,2.393059879541397095e-01,},
		{1.057864800095558167e-01,1.951182186603546143e-01,8.966892957687377930e-02,-8.028435707092285156e-02,-1.813721358776092529e-01,},
	},
	{
		{-1.654827892780303955e-01,9.184198826551437378e-02,1.435724347829818726e-01,2.156684249639511108e-01,1.617925316095352173e-01,},
		{-2.541264891624450684e-01,-2.047257274389266968e-01,-3.380581364035606384e-02,8.454300463199615479e-02,8.757226914167404175e-02,},
		{-1.375979632139205933e-01,-1.126365959644317627e-01,-1.829005628824234009e-01,-1.401221305131912231e-01,-5.901030451059341431e-02,},
		{-1.343585550785064697e-01,-4.322558641433715820e-02,5.560921877622604370e-02,-2.705829404294490814e-02,-2.558204904198646545e-02,},
		{1.011376157402992249e-01,1.105621457099914551e-01,1.135371774435043335e-01,1.170805096626281738e-02,-9.099817276000976562e-02,},
	},
	{
		{-2.368234097957611084e-01,-9.540002048015594482e-02,-8.671726286411285400e-02,-2.435415238142013550e-02,8.592274039983749390e-02,},
		{-2.748489938676357269e-02,-2.173657715320587158e-01,-1.822432279586791992e-01,-1.146251186728477478e-01,-2.126282900571823120e-01,},
		{-1.343804597854614258e-02,1.947481743991374969e-02,-1.004700511693954468e-01,6.485235691070556641e-02,-6.429389119148254395e-02,},
		{9.834679774940013885e-03,1.185353323817253113e-01,8.671128749847412109e-02,1.574301272630691528e-01,2.413220144808292389e-02,},
		{1.190423686057329178e-02,7.636924833059310913e-02,1.451695561408996582e-01,-3.014280693605542183e-03,-2.083832174539566040e-01,},
	},
	},
	};

#endif