#ifndef _CONV1_WEIGHTS_
#define _CONV1_WEIGHTS_
#include "../op.h"
mylenet::WEIGHT conv1_weights[6][1][5][5] = {{
	{
		{3.442377448081970215e-01,2.268356978893280029e-01,3.536913692951202393e-01,2.687019705772399902e-01,2.823658287525177002e-01,},
		{1.690731048583984375e-01,1.480460464954376221e-01,2.166450768709182739e-01,1.966668963432312012e-01,-7.209400832653045654e-02,},
		{-3.038884699344635010e-01,-1.226823329925537109e-01,-2.350306659936904907e-01,-1.880741715431213379e-01,-5.369545891880989075e-02,},
		{-4.579962790012359619e-01,-2.380877584218978882e-01,-1.821862906217575073e-01,-2.871142327785491943e-01,2.603726387023925781e-01,},
		{-1.888505071401596069e-01,-3.311578333377838135e-01,-1.878595352172851562e-02,1.334116458892822266e-01,1.085758283734321594e-01,},
	},
	},
	{
	{
		{4.774076864123344421e-02,6.868322193622589111e-02,1.488242447376251221e-01,-8.882567286491394043e-02,-2.082508206367492676e-01,},
		{1.017730776220560074e-02,5.703578516840934753e-02,3.531994223594665527e-01,4.022855864604935050e-05,1.802739351987838745e-01,},
		{-6.114518269896507263e-02,8.264660090208053589e-02,1.046694889664649963e-01,1.996211856603622437e-01,2.229381948709487915e-01,},
		{-3.504473268985748291e-01,-1.405099034309387207e-01,-8.792281895875930786e-02,3.042481243610382080e-01,2.733370959758758545e-01,},
		{-1.397372782230377197e-01,-1.558446884155273438e-01,-6.368588656187057495e-03,1.509298533201217651e-01,2.711798846721649170e-01,},
	},
	},
	{
	{
		{1.873814314603805542e-01,6.667549163103103638e-02,4.455412626266479492e-01,3.859941065311431885e-01,2.625953555107116699e-01,},
		{-3.093649446964263916e-01,-3.028149306774139404e-01,-3.384327888488769531e-01,-1.818475276231765747e-01,-1.672344505786895752e-01,},
		{-1.182466074824333191e-01,-4.512298703193664551e-01,-4.481391310691833496e-01,-2.953027486801147461e-01,-1.042692586779594421e-01,},
		{3.888166509568691254e-03,-6.895589828491210938e-02,-1.175136044621467590e-01,-1.214028075337409973e-01,6.218207255005836487e-02,},
		{5.158514976501464844e-01,3.193857967853546143e-01,3.683455288410186768e-01,2.308618873357772827e-01,-6.028829887509346008e-02,},
	},
	},
	{
	{
		{-2.429978847503662109e-01,-3.435650765895843506e-01,-1.036211326718330383e-01,1.838016957044601440e-01,6.419341266155242920e-02,},
		{-3.220052123069763184e-01,-1.551441550254821777e-01,-2.542623877525329590e-01,2.974270880222320557e-01,2.428904920816421509e-01,},
		{-4.042001664638519287e-01,-1.135016381740570068e-01,-1.033494174480438232e-01,2.799110114574432373e-01,2.367090135812759399e-01,},
		{-2.711237370967864990e-01,-9.660854935646057129e-02,8.512397110462188721e-02,7.293890416622161865e-02,3.702446818351745605e-01,},
		{-3.424034267663955688e-02,-4.728065058588981628e-02,2.091451287269592285e-01,3.115463852882385254e-01,1.120051741600036621e-02,},
	},
	},
	{
	{
		{-1.224779710173606873e-01,2.084944397211074829e-01,-1.798143386840820312e-01,-1.734165400266647339e-01,-2.234386950731277466e-01,},
		{2.249622493982315063e-01,1.961803138256072998e-01,5.072052776813507080e-02,2.099903970956802368e-01,-1.627257764339447021e-01,},
		{9.695982933044433594e-02,4.667269438505172729e-02,2.686350345611572266e-01,3.494503498077392578e-01,7.847321033477783203e-02,},
		{-9.525343030691146851e-02,6.409523636102676392e-02,1.172711104154586792e-01,1.096374094486236572e-01,-4.058977961540222168e-02,},
		{-1.832817345857620239e-01,-2.481189668178558350e-01,5.688279494643211365e-02,-9.522015601396560669e-02,1.919818073511123657e-01,},
	},
	},
	{
	{
		{-2.236071079969406128e-01,-2.957432568073272705e-01,-3.365617096424102783e-01,-1.578443199396133423e-01,1.332611292600631714e-01,},
		{-1.792172640562057495e-01,-2.554472386837005615e-01,-4.148030653595924377e-02,-5.393274594098329544e-03,9.100758284330368042e-02,},
		{-2.105197906494140625e-01,3.923694416880607605e-02,2.090804576873779297e-01,1.787889897823333740e-01,3.566609323024749756e-01,},
		{3.643851578235626221e-01,6.954426318407058716e-02,1.738651096820831299e-01,3.096898794174194336e-01,-4.973421618342399597e-02,},
		{2.138252258300781250e-01,3.388840556144714355e-01,5.471091717481613159e-02,7.526878733187913895e-03,-6.338524073362350464e-02,},
	},
	},
	};

#endif