#ifndef _FC1_WEIGHTS_
#define _FC1_WEIGHTS_
#include "../op.h"
mylenet::WEIGHT fc1_weights[120][400] = {{4.443477466702461243e-02, 4.995588213205337524e-03, -3.205831721425056458e-02, 3.301942348480224609e-02, 2.951704338192939758e-02, -3.122491203248500824e-02, 4.067194461822509766e-02, -4.636961594223976135e-02, 3.032294847071170807e-02, -1.712035760283470154e-02, -6.423042714595794678e-02, 2.959755435585975647e-02, -2.687520347535610199e-02, -4.428062122315168381e-03, 6.347238086163997650e-03, 9.863136336207389832e-03, -1.792117394506931305e-02, 2.360929921269416809e-02, 5.578997544944286346e-03, -9.954012930393218994e-03, -5.464148893952369690e-02, -2.023071795701980591e-02, -3.990819677710533142e-02, -4.440282285213470459e-02, -1.939120329916477203e-02, -4.551768302917480469e-02, -3.150437027215957642e-02, 1.417184248566627502e-02, -3.002742864191532135e-02, 1.326894294470548630e-02, 1.676207967102527618e-02, -3.021765872836112976e-02, -2.633069083094596863e-02, 6.925120018422603607e-03, 3.018789691850543022e-03, -1.937290281057357788e-02, 2.886153198778629303e-02, -4.718037322163581848e-02, 2.034617401659488678e-02, 1.303485035896301270e-02, -2.486446499824523926e-02, 2.636886946856975555e-02, -5.692563578486442566e-02, -1.638770289719104767e-02, 2.779613994061946869e-02, 7.967300713062286377e-03, -2.877750433981418610e-02, -4.279399290680885315e-03, -1.734110899269580841e-02, 2.151377126574516296e-02, 1.364623662084341049e-02, -1.059336791513487697e-04, -1.074447110295295715e-02, 4.135042428970336914e-02, 1.927223522216081619e-03, 4.025412723422050476e-03, -1.484072394669055939e-02, -4.635225608944892883e-02, -4.960220307111740112e-02, 1.138923410326242447e-02, 2.077936939895153046e-02, 4.198206588625907898e-02, -3.425873443484306335e-02, -3.590375185012817383e-02, 1.978531107306480408e-02, -1.221937127411365509e-03, 2.581396140158176422e-02, -5.199680849909782410e-02, -4.232018813490867615e-02, -1.081707701086997986e-02, 1.520820776931941509e-03, 2.296321280300617218e-02, 3.622098267078399658e-02, -4.004812985658645630e-02, -2.016623504459857941e-03, 2.049916610121726990e-02, 1.313994079828262329e-02, 1.793683320283889771e-02, -2.695761248469352722e-02, -2.340972423553466797e-04, -4.254687577486038208e-02, -3.120835125446319580e-02, 4.050255939364433289e-02, -1.879598014056682587e-02, -5.443945527076721191e-02, -2.997423522174358368e-02, -8.554717898368835449e-02, -2.337213046848773956e-02, -6.135189160704612732e-02, -4.214377701282501221e-02, 1.167450565844774246e-02, -1.593799795955419540e-03, -4.873713478446006775e-02, -2.187100425362586975e-02, 1.792050711810588837e-02, 1.034571975469589233e-02, -2.570609562098979950e-02, -1.323069632053375244e-02, 9.038515388965606689e-03, 1.766243949532508850e-02, 7.927428930997848511e-03, -3.837959095835685730e-02, 2.893172949552536011e-02, -3.395547345280647278e-02, 2.318753860890865326e-02, 3.365918248891830444e-02, -3.194266930222511292e-02, -2.199632115662097931e-02, 5.983927287161350250e-03, -2.229722775518894196e-02, 2.539737708866596222e-02, 2.492821589112281799e-02, 1.195158623158931732e-02, 1.726676593534648418e-03, 2.643351070582866669e-02, 1.348866987973451614e-02, -3.377858176827430725e-02, -5.043136328458786011e-02, 5.337934009730815887e-03, -5.272527784109115601e-02, 2.381013892590999603e-02, -4.058843851089477539e-02, -8.034140802919864655e-03, 3.895670548081398010e-02, 1.541717257350683212e-02, 4.192614555358886719e-02, -1.529893605038523674e-03, -1.515787746757268906e-02, -5.324443057179450989e-02, -1.476012542843818665e-02, 3.045883588492870331e-02, -1.532973535358905792e-02, 3.220004588365554810e-02, 2.057576365768909454e-02, 3.128417953848838806e-02, -1.201442442834377289e-02, -3.020602650940418243e-02, -4.592308402061462402e-02, 3.238822333514690399e-03, -1.298122946172952652e-02, 2.065890282392501831e-02, -6.270595360547304153e-03, 2.681719325482845306e-02, -3.879165276885032654e-02, 1.349868625402450562e-02, -2.049299329519271851e-02, -4.523948580026626587e-02, -5.810938403010368347e-02, -3.531682305037975311e-03, -3.087159059941768646e-02, 3.037069179117679596e-02, -2.898002229630947113e-02, -4.417226091027259827e-02, -4.933584481477737427e-02, -4.225333407521247864e-02, 2.132869698107242584e-02, -4.869328439235687256e-02, 1.472203154116868973e-02, 3.027495369315147400e-02, 1.608588383533060551e-03, -7.378859445452690125e-03, -2.427393198013305664e-02, -2.414764650166034698e-02, -1.562607474625110626e-02, -4.316722601652145386e-02, -1.393907889723777771e-02, -5.505863577127456665e-02, -5.929497070610523224e-03, -6.530308630317449570e-03, -3.382129967212677002e-02, 3.914271667599678040e-02, 1.731752417981624603e-02, 9.479702450335025787e-03, -9.936592541635036469e-03, -1.529654208570718765e-02, 2.028443617746233940e-03, 1.416204497218132019e-02, -1.306155323982238770e-02, -1.929325750097632408e-03, -5.114129930734634399e-02, -1.596642844378948212e-02, 2.199624665081501007e-02, -4.487084969878196716e-02, -6.929932162165641785e-03, -4.057023674249649048e-02, -2.900551073253154755e-02, -8.005058043636381626e-04, -1.626258343458175659e-02, 3.677625581622123718e-02, -1.107413414865732193e-02, -2.248530462384223938e-02, -5.790375545620918274e-02, -1.135308016091585159e-02, 3.129977360367774963e-02, 2.627537585794925690e-02, -2.295633591711521149e-02, 3.931543231010437012e-02, -3.563249111175537109e-02, 8.568075485527515411e-03, 1.637036539614200592e-02, -2.552275313064455986e-03, -3.655266761779785156e-02, 1.695738174021244049e-03, 9.937878698110580444e-03, -4.905708506703376770e-02, 2.759420126676559448e-02, -5.070425570011138916e-03, -2.041981182992458344e-02, -2.068766951560974121e-02, -1.370135229080915451e-02, 3.333547711372375488e-02, 4.071763716638088226e-03, -2.704901807010173798e-02, 4.808733239769935608e-03, -3.200450912117958069e-02, -4.478551819920539856e-02, 2.692248672246932983e-02, 3.701681643724441528e-02, -5.544582381844520569e-02, -1.033242233097553253e-02, 9.328801184892654419e-03, -2.636357769370079041e-02, 8.906831033527851105e-03, 3.707360476255416870e-02, -1.356845069676637650e-02, -3.116211667656898499e-02, 2.386365085840225220e-02, -1.299230754375457764e-02, 1.955977641046047211e-02, -4.194036498665809631e-02, -4.824952781200408936e-02, -1.858071982860565186e-02, 3.554316237568855286e-02, 1.959882117807865143e-02, -3.644560277462005615e-02, 2.285213768482208252e-02, -5.178786441683769226e-02, -5.683250352740287781e-02, -1.260564848780632019e-02, -2.583557739853858948e-02, -1.134916394948959351e-02, -3.442082554101943970e-02, -2.947245351970195770e-02, -1.738420501351356506e-02, -4.819981008768081665e-02, 5.543734878301620483e-03, -3.880615904927253723e-02, -2.124689146876335144e-02, -4.801426455378532410e-02, -3.748504444956779480e-02, -5.835901573300361633e-02, -5.747831240296363831e-02, -2.125443331897258759e-02, 1.072054728865623474e-02, 3.019838035106658936e-02, -1.408892101608216763e-03, -3.749148175120353699e-02, -4.397506639361381531e-02, -3.596722707152366638e-02, 1.651289127767086029e-02, 7.212759926915168762e-03, -5.471237376332283020e-02, 2.002231962978839874e-02, 4.783907905220985413e-03, -3.061614930629730225e-03, -1.537165138870477676e-02, -3.300250694155693054e-02, -3.395025059580802917e-02, -6.020655855536460876e-02, -4.853878170251846313e-02, 2.269799821078777313e-02, 2.543845027685165405e-02, 1.401640940457582474e-02, 3.595786914229393005e-02, -3.369215875864028931e-02, 5.815562233328819275e-02, 1.887576654553413391e-02, -3.650680556893348694e-02, -1.256859768182039261e-02, 3.757015988230705261e-02, -1.951104775071144104e-02, -3.590975701808929443e-02, -1.070972066372632980e-02, -3.702995181083679199e-02, 8.861215785145759583e-03, -4.102950042579323053e-04, -2.821975201368331909e-02, -4.952822625637054443e-02, 3.852558508515357971e-02, 3.105419501662254333e-02, -3.424987941980361938e-02, -1.212222222238779068e-02, 2.491100167389959097e-04, 2.811377681791782379e-02, 4.825858399271965027e-03, 7.896577008068561554e-03, 2.374471537768840790e-02, -5.962698720395565033e-03, 1.544721424579620361e-02, 2.476214058697223663e-02, -4.946704953908920288e-02, -2.943680062890052795e-02, 1.525864098221063614e-02, -4.241557046771049500e-02, 2.801165357232093811e-02, -4.148491844534873962e-02, -5.301567167043685913e-02, -4.109880700707435608e-02, 3.186812391504645348e-03, -3.871525451540946960e-02, -7.322784513235092163e-03, -2.242875471711158752e-02, -2.761962264776229858e-02, 3.104413300752639771e-02, -1.423389650881290436e-02, 1.211881451308727264e-02, 6.440974306315183640e-03, -3.636828809976577759e-02, -1.361987274140119553e-02, 3.115623025223612785e-03, 1.558747887611389160e-02, 3.437742590904235840e-02, 2.299369499087333679e-02, 1.019351277500391006e-02, -5.948354303836822510e-02, 2.682066522538661957e-02, 1.202599052339792252e-02, -1.559861842542886734e-02, 1.598865352571010590e-02, -1.571150496602058411e-02, 3.526754304766654968e-02, -1.467405632138252258e-02, 1.605294831097126007e-02, -6.302548572421073914e-03, -2.640507742762565613e-02, -3.274043649435043335e-02, -2.843455970287322998e-02, -1.839190535247325897e-02, 3.833766654133796692e-02, 1.826195977628231049e-02, 3.428167104721069336e-02, 1.235421374440193176e-02, -4.928595572710037231e-02, -7.013418944552540779e-04, -4.993141442537307739e-02, 2.242726087570190430e-02, 2.231341972947120667e-02, -5.986481532454490662e-02, -1.933317817747592926e-02, -3.475801274180412292e-02, 1.601908938027918339e-03, -2.309932932257652283e-02, 2.476886846125125885e-02, -2.435035258531570435e-02, 3.059633634984493256e-02, -6.881864392198622227e-04, 1.097767055034637451e-02, -2.359444648027420044e-02, 4.186063539236783981e-03, 3.996577486395835876e-02, -1.754081249237060547e-02, -4.807904735207557678e-02, -1.587595231831073761e-02, -5.322328209877014160e-02, 2.081353589892387390e-02, 1.982207037508487701e-02, 4.373645037412643433e-02, -4.380485974252223969e-03, -4.994796589016914368e-03, -1.863365992903709412e-02, 9.002570062875747681e-03, 3.830580785870552063e-02, -2.868710143957287073e-04, -3.468358516693115234e-02, -2.200417220592498779e-02, -2.165829204022884369e-02, 1.352719403803348541e-02, -7.453992962837219238e-02, -8.260251022875308990e-03, 1.374374888837337494e-02, -4.177736490964889526e-02, 7.836590521037578583e-03, -2.577893435955047607e-03, -4.636172205209732056e-02, -6.414080038666725159e-03, -2.557197958230972290e-02, 1.523232925683259964e-02, -4.880982916802167892e-03, -2.841806970536708832e-03, -2.221526391804218292e-02, 7.844471372663974762e-03, 3.914975002408027649e-02, 1.976823806762695312e-02, 1.324097719043493271e-02, -2.284300327301025391e-02, 9.242204250767827034e-04, -2.997372299432754517e-02, 5.425191484391689301e-03, 2.511774003505706787e-02, -3.375794366002082825e-02, },
{1.361872255802154541e-01, -7.714697718620300293e-02, 5.138712376356124878e-02, 8.386920392513275146e-02, -5.391041561961174011e-02, -9.116643667221069336e-02, -6.729152053594589233e-02, 8.502756059169769287e-02, -6.430190056562423706e-02, 3.302242606878280640e-02, 7.961486279964447021e-02, 1.035381704568862915e-01, 2.382653355598449707e-01, 6.437046453356742859e-03, 8.205811679363250732e-02, 6.553827319294214249e-03, 6.095521152019500732e-02, 1.203649789094924927e-01, 1.375285834074020386e-01, 1.694756597280502319e-01, -1.105919331312179565e-01, -1.621021702885627747e-02, 6.991063803434371948e-02, 1.143872588872909546e-01, 6.522339582443237305e-02, 8.425651118159294128e-03, -1.813662610948085785e-02, -6.799722462892532349e-02, -2.373751811683177948e-02, -2.650849707424640656e-02, -1.694375127553939819e-01, -2.318337559700012207e-01, -3.677450120449066162e-02, -1.004998087882995605e-01, 3.378347307443618774e-02, -1.689118146896362305e-01, -1.109987720847129822e-01, 2.072441019117832184e-02, 1.092495471239089966e-01, 3.071580268442630768e-02, 6.453789025545120239e-02, -2.253464050590991974e-02, 2.463203854858875275e-02, 5.180899053812026978e-02, 1.528405211865901947e-02, 1.800168007612228394e-01, 1.707798540592193604e-01, -2.925033867359161377e-02, 1.840254059061408043e-03, -1.419850438833236694e-01, 2.212334126234054565e-01, 4.791412875056266785e-02, -1.339051872491836548e-01, 4.941696301102638245e-02, 6.483066827058792114e-02, 2.259468138217926025e-01, -2.576988190412521362e-02, -1.626294404268264771e-01, -5.747340619564056396e-02, -1.351181566715240479e-01, 1.213745772838592529e-01, 2.918579056859016418e-02, 3.087530285120010376e-02, 1.639800667762756348e-01, 6.538950651884078979e-02, -8.125811815261840820e-02, 1.816515438258647919e-02, 1.222067773342132568e-01, 4.033273458480834961e-02, -7.110576331615447998e-02, 1.473524793982505798e-02, 1.162115335464477539e-01, 2.189614623785018921e-01, 1.470350176095962524e-01, 5.812633410096168518e-02, 1.412360556423664093e-02, 2.940391749143600464e-02, 6.296608597040176392e-02, 1.434601098299026489e-01, 3.979143872857093811e-02, -7.776082307100296021e-02, 2.969888411462306976e-02, 1.364149618893861771e-03, -2.675630152225494385e-02, -1.939037442207336426e-02, -1.147786304354667664e-01, 3.745793923735618591e-02, 3.764421120285987854e-02, 1.809651404619216919e-01, 1.103288494050502777e-02, -2.450865060091018677e-01, -1.661283895373344421e-02, 1.185443028807640076e-01, -1.043459549546241760e-01, 1.606786623597145081e-02, -7.014602422714233398e-02, 3.157216683030128479e-02, 1.253534406423568726e-01, 1.540103182196617126e-02, -6.770557956770062447e-04, -7.749658823013305664e-02, -1.562776975333690643e-03, -1.035597100853919983e-01, -5.720825400203466415e-03, 8.904368430376052856e-02, -1.465990692377090454e-01, 4.638068377971649170e-02, 1.399700939655303955e-01, 5.790041014552116394e-02, 9.553808718919754028e-02, -6.364729255437850952e-02, 3.312622010707855225e-02, -1.354476213455200195e-01, -7.440710812807083130e-02, -6.099112704396247864e-02, 3.916148468852043152e-02, 1.519807986915111542e-02, -2.232757769525051117e-02, -6.695955246686935425e-02, 1.307407468557357788e-01, -2.090569771826267242e-02, -5.922751873731613159e-02, 1.099753007292747498e-01, 1.441281009465456009e-02, 2.926706969738006592e-01, 4.158984124660491943e-02, -2.042587660253047943e-02, -1.870141597464680672e-03, 6.668745074421167374e-03, 1.171308755874633789e-02, -1.022686064243316650e-01, -1.317809820175170898e-01, 5.995521321892738342e-02, -7.166387140750885010e-02, -6.238188967108726501e-02, -1.373236924409866333e-01, -1.174234822392463684e-01, 1.811609715223312378e-01, -5.489499773830175400e-03, -4.624033346772193909e-02, 1.355510652065277100e-01, -7.595783472061157227e-02, -2.375053614377975464e-02, -1.599487103521823883e-02, 7.545998692512512207e-02, -7.043109834194183350e-02, -2.112172730267047882e-02, -1.366293281316757202e-01, -6.098152324557304382e-02, 5.180853768251836300e-04, 1.981393061578273773e-02, -3.234788402915000916e-02, -7.902654260396957397e-02, -9.969340264797210693e-02, -9.557298570871353149e-02, 9.608847647905349731e-02, -2.149684913456439972e-02, -2.662871964275836945e-02, 5.972585827112197876e-02, 5.811049416661262512e-02, -4.297403618693351746e-02, -2.518948633223772049e-03, 9.696451574563980103e-02, 8.291140943765640259e-02, 1.122144162654876709e-01, -1.027230173349380493e-01, -7.092773914337158203e-02, 3.425205498933792114e-02, 4.270530119538307190e-02, -2.347896806895732880e-02, -1.659278199076652527e-02, 8.629091829061508179e-02, 1.409398578107357025e-02, -3.460481762886047363e-02, -3.691428154706954956e-02, 1.086096763610839844e-01, -2.384767681360244751e-02, -6.408114731311798096e-02, -1.421422325074672699e-02, 3.920245915651321411e-02, -1.186621040105819702e-01, -2.998688220977783203e-01, -4.695101827383041382e-02, -8.163279294967651367e-02, 1.991511285305023193e-01, -1.302023231983184814e-01, -7.407169044017791748e-02, 5.417413264513015747e-02, 5.308557301759719849e-02, -1.963540539145469666e-02, 3.437887504696846008e-02, -1.016355864703655243e-02, 2.835426665842533112e-02, -8.210245519876480103e-02, 3.074224479496479034e-02, 2.275647521018981934e-01, 1.737526506185531616e-01, -1.098199933767318726e-01, -3.643579781055450439e-02, -1.627031415700912476e-01, -3.057503141462802887e-02, -4.068291187286376953e-02, 4.257619380950927734e-02, -3.727661073207855225e-02, 4.709578678011894226e-02, -1.078798100352287292e-01, 5.288139358162879944e-02, -4.241699352860450745e-02, -1.182452142238616943e-01, -2.078931964933872223e-02, -3.245221078395843506e-02, 3.437790274620056152e-02, -4.221390001475811005e-03, 1.430529169738292694e-03, -7.922627776861190796e-02, 5.689980462193489075e-02, -6.238698214292526245e-02, -1.720541268587112427e-01, -6.413568556308746338e-02, -5.431050807237625122e-02, -1.332976669073104858e-01, -1.053648218512535095e-01, -1.956486403942108154e-01, -1.968015581369400024e-01, -6.670434959232807159e-03, -2.735880017280578613e-02, -9.029000997543334961e-02, 6.436159461736679077e-02, 1.076547950506210327e-01, -1.672489345073699951e-01, -1.162697449326515198e-01, 2.870021574199199677e-02, 2.837084047496318817e-02, -8.538442850112915039e-02, -4.588494449853897095e-02, -2.121683768928050995e-02, 2.941881678998470306e-02, 9.142293035984039307e-02, -2.312567271292209625e-02, -4.065023735165596008e-02, -7.945971935987472534e-02, 8.500792086124420166e-02, 4.969759285449981689e-02, -7.941838353872299194e-02, 5.303663201630115509e-03, 9.531988762319087982e-03, 3.409806266427040100e-02, -2.731621824204921722e-02, 1.254680454730987549e-01, -8.032730221748352051e-02, -1.956207305192947388e-02, -2.367239147424697876e-01, 1.856340840458869934e-02, 2.668672800064086914e-02, -5.151722952723503113e-02, -8.948548883199691772e-02, -8.945532143115997314e-02, -1.076444834470748901e-01, -1.627404987812042236e-01, 6.430006772279739380e-02, 3.402674570679664612e-02, -1.288029272109270096e-02, 1.287131384015083313e-02, -5.273077264428138733e-02, -1.044682320207357407e-02, 8.312747627496719360e-02, 1.367803364992141724e-01, -1.557658314704895020e-01, -1.198362559080123901e-01, -8.930481225252151489e-02, 1.740674525499343872e-01, 6.910322606563568115e-02, -3.650710582733154297e-01, -2.295176535844802856e-01, -1.793131083250045776e-01, 9.465398639440536499e-02, -2.476300299167633057e-01, -4.541366547346115112e-02, 7.500687241554260254e-02, -1.175640299916267395e-01, -1.102439910173416138e-01, -1.578411757946014404e-01, 4.717764630913734436e-02, 3.393737599253654480e-02, -1.053290590643882751e-01, -1.466564834117889404e-01, -8.556881546974182129e-02, 3.736487030982971191e-02, -3.024829924106597900e-02, -2.141595445573329926e-02, 3.364349901676177979e-02, -2.112611830234527588e-01, -1.030529476702213287e-02, -8.792141824960708618e-02, -1.640023663640022278e-02, 1.181247830390930176e-02, -1.315970867872238159e-01, -1.688633263111114502e-01, -2.734448760747909546e-02, -1.650357991456985474e-02, -5.552514269948005676e-02, -3.590583428740501404e-02, -1.025916635990142822e-02, -1.000679954886436462e-01, -1.151251718401908875e-01, -5.087566096335649490e-03, 3.372948989272117615e-02, 1.531764715909957886e-01, 2.413260936737060547e-01, 5.181226879358291626e-02, -4.845637455582618713e-02, 2.787568978965282440e-02, 7.497268170118331909e-02, 1.339362561702728271e-01, 6.199593842029571533e-02, 4.808299243450164795e-02, 9.412027895450592041e-03, 3.881291672587394714e-02, -1.567422412335872650e-02, -2.213068678975105286e-02, 1.856157556176185608e-02, 7.047432661056518555e-02, 8.742877095937728882e-02, -2.326810918748378754e-02, -1.915748566389083862e-01, 8.936187624931335449e-02, -3.593159094452857971e-02, 1.488446593284606934e-01, 1.760632097721099854e-01, 2.615458667278289795e-01, -6.017125397920608521e-02, 1.252845674753189087e-01, 8.440661430358886719e-02, -1.028531566262245178e-01, -5.349998828023672104e-03, -1.040255948901176453e-01, 1.445747017860412598e-01, 1.250433176755905151e-01, -1.582286693155765533e-02, 1.028324961662292480e-01, 6.071995943784713745e-02, 6.018875911831855774e-02, -7.012152671813964844e-02, 6.374362111091613770e-02, -7.646949589252471924e-02, 1.020646616816520691e-01, 2.794426493346691132e-02, 3.664187854155898094e-03, 9.609336033463478088e-03, 1.001470759510993958e-01, -2.178069390356540680e-02, 3.762878850102424622e-02, -6.990762054920196533e-02, -1.563249677419662476e-01, -1.488767415285110474e-01, 3.556935489177703857e-02, 9.587905555963516235e-02, 1.278772354125976562e-01, 2.115049809217453003e-01, 2.409862875938415527e-01, 6.454025954008102417e-02, 9.206856787204742432e-02, -1.967068016529083252e-02, 6.731531023979187012e-02, 1.575186848640441895e-01, 7.088828831911087036e-02, 1.500848382711410522e-01, -8.513609319925308228e-02, -8.602788299322128296e-02, -9.521650150418281555e-03, -5.507093295454978943e-02, -3.435688791796565056e-03, 7.036503404378890991e-02, 1.494143307209014893e-01, 9.751717001199722290e-02, 3.855188935995101929e-02, 7.126639038324356079e-02, 1.042069122195243835e-01, 1.796609908342361450e-01, -4.094737023115158081e-02, 5.757252126932144165e-02, -2.095631696283817291e-02, -3.201729385182261467e-03, -8.909338153898715973e-03, -8.361041545867919922e-02, -5.019662529230117798e-02, -1.241841688752174377e-01, -1.237746849656105042e-01, -4.240224510431289673e-02, -1.691484302282333374e-01, -8.522996306419372559e-02, -1.092068478465080261e-01, 4.292178153991699219e-02, -4.427736625075340271e-03, 1.694623529911041260e-01, -1.039982736110687256e-01, 4.890314862132072449e-02, 1.587760895490646362e-01, 2.804110944271087646e-01, 2.347911000251770020e-01, },
{-4.490809142589569092e-02, -7.701390236616134644e-02, -1.104223579168319702e-01, 5.655064433813095093e-02, 7.284880429506301880e-02, -3.469434380531311035e-02, -3.086123615503311157e-02, 7.092183828353881836e-02, 9.085220098495483398e-02, -3.435229184105992317e-03, -4.575404897332191467e-02, -7.472710311412811279e-02, -7.420340925455093384e-02, 1.398694328963756561e-02, 1.894278638064861298e-02, -9.151353687047958374e-02, -1.193337887525558472e-01, -3.007894195616245270e-02, -1.269010175019502640e-02, -1.041018515825271606e-01, -1.010205447673797607e-01, 5.435480177402496338e-02, 9.734243154525756836e-02, -9.794393926858901978e-02, -9.701952338218688965e-02, 1.753254979848861694e-01, -3.653778508305549622e-02, 1.835101842880249023e-02, -4.236694052815437317e-02, -1.780743598937988281e-01, -3.702859394252300262e-03, 9.235137701034545898e-02, -1.222774386405944824e-01, 2.521180361509323120e-02, -4.907915368676185608e-02, 5.215082690119743347e-02, 6.905657704919576645e-03, -1.424593850970268250e-02, -7.244388759136199951e-02, -5.926846340298652649e-02, 2.389504201710224152e-02, 1.208129748702049255e-01, -4.188016057014465332e-02, -3.353931009769439697e-02, 2.423162572085857391e-03, -2.722021937370300293e-02, -8.750002086162567139e-02, -3.188953176140785217e-02, 1.654996722936630249e-02, -3.899997472763061523e-02, -3.551886603236198425e-02, -6.440270692110061646e-02, -4.508232325315475464e-02, 3.731104731559753418e-02, 1.626124978065490723e-01, -1.056486591696739197e-01, -6.186036765575408936e-02, 1.009284332394599915e-01, 5.768634751439094543e-02, 4.379533231258392334e-02, 3.407371416687965393e-02, 1.276737917214632034e-02, -5.616318807005882263e-02, 1.363494694232940674e-01, -7.117731031030416489e-03, -9.216320514678955078e-02, -1.356544941663742065e-01, -1.845937520265579224e-01, -1.094047445803880692e-02, 4.021472483873367310e-02, -3.805311396718025208e-02, -1.800206303596496582e-02, 4.058606177568435669e-02, 6.647036969661712646e-02, 4.708934202790260315e-02, 6.440252531319856644e-03, 2.807230874896049500e-02, 1.624950394034385681e-02, -7.466471940279006958e-02, 7.362076640129089355e-02, -7.100375369191169739e-03, -1.156079769134521484e-01, -3.163839876651763916e-02, 1.575786434113979340e-02, -1.635754704475402832e-01, -5.377222225069999695e-02, -2.100719325244426727e-02, -1.133128404617309570e-01, -1.277773827314376831e-01, -5.694479122757911682e-02, -7.785061001777648926e-02, -2.277326211333274841e-02, -9.526897966861724854e-02, 6.952343136072158813e-02, 9.092493355274200439e-02, -1.368784457445144653e-01, -5.248047038912773132e-02, -2.767452038824558258e-03, 6.564715504646301270e-02, 7.715571671724319458e-03, -5.083842948079109192e-02, 6.231904495507478714e-03, 6.226828321814537048e-02, 1.014588251709938049e-01, 3.519884869456291199e-02, 5.935992673039436340e-02, -5.773831903934478760e-02, 9.581157006323337555e-03, 2.798729203641414642e-02, -4.756781272590160370e-03, -8.945252746343612671e-03, -1.316732615232467651e-01, 1.368920132517814636e-02, -3.541914001107215881e-02, 8.681350946426391602e-02, 1.088962890207767487e-02, -7.460047304630279541e-02, 2.327000023797154427e-03, 5.402005836367607117e-02, 1.654399037361145020e-01, 1.192595809698104858e-01, -1.463467441499233246e-02, -9.141751378774642944e-02, 1.850837282836437225e-02, -4.204972833395004272e-02, -4.485454410314559937e-02, 2.675028890371322632e-02, 2.335866913199424744e-02, 6.175343319773674011e-02, -1.443048864603042603e-01, 4.328184947371482849e-02, 5.461486428976058960e-02, -6.039382144808769226e-02, 8.224178105592727661e-02, -7.773033529520034790e-02, 2.073647454380989075e-02, 9.771951287984848022e-02, 1.565720587968826294e-01, 2.826654352247714996e-02, -2.809075638651847839e-02, -3.449569270014762878e-02, 1.204805001616477966e-01, 5.117336288094520569e-02, -4.531853273510932922e-02, -4.147332534193992615e-02, -1.006156355142593384e-01, -1.224419251084327698e-01, 1.670153886079788208e-01, 4.291366785764694214e-02, -1.369782239198684692e-01, -1.172161325812339783e-01, -7.848495990037918091e-02, -2.168210037052631378e-02, -1.896882057189941406e-02, -7.246481627225875854e-02, 4.578485712409019470e-02, -1.408505195286124945e-04, -5.048567801713943481e-02, -5.397217348217964172e-02, -1.171892657876014709e-01, -4.687047377228736877e-02, -1.277843564748764038e-01, -9.801955521106719971e-02, -1.235831901431083679e-01, -4.293309897184371948e-02, 4.811883717775344849e-02, -5.690328404307365417e-02, -5.761925503611564636e-02, 2.472786232829093933e-03, 8.069675415754318237e-02, 7.705114036798477173e-02, 4.225868731737136841e-02, -6.148093566298484802e-02, 3.772150352597236633e-02, 2.657724358141422272e-02, 8.349998295307159424e-02, 7.579720020294189453e-02, 3.719310089945793152e-02, 6.849386543035507202e-02, 9.351911023259162903e-03, 2.259879931807518005e-02, 1.551555842161178589e-01, -9.071887284517288208e-02, 1.411579102277755737e-01, -7.684853672981262207e-02, 9.049640037119388580e-03, 1.366402357816696167e-01, 2.119173854589462280e-02, 3.510024771094322205e-02, -1.187580525875091553e-01, 5.129710584878921509e-02, 5.395511537790298462e-02, -1.028034253977239132e-03, 5.381909012794494629e-02, -8.695232868194580078e-02, -9.460858255624771118e-02, -1.413789540529251099e-01, -5.593051388859748840e-02, -8.359272032976150513e-02, -6.455799937248229980e-02, -4.100429266691207886e-02, -3.137408196926116943e-02, -2.261794544756412506e-02, -1.458510197699069977e-02, -1.266955435276031494e-01, -1.170693337917327881e-02, 1.000164542347192764e-02, -6.675346195697784424e-02, 1.367111224681138992e-02, -2.952572517096996307e-02, -3.389893099665641785e-02, -2.546566911041736603e-02, 2.148868516087532043e-03, 3.903429582715034485e-02, -4.716040194034576416e-02, -8.738812059164047241e-02, 2.158197946846485138e-02, 4.217603430151939392e-02, -7.008869200944900513e-02, -2.947958558797836304e-02, -2.416321821510791779e-02, -5.596532300114631653e-02, -1.148287858814001083e-02, -4.366726428270339966e-02, -1.093651205301284790e-01, -5.328080803155899048e-02, -2.682139910757541656e-02, -1.013587638735771179e-01, 1.117177233099937439e-01, 6.261005997657775879e-02, -6.289009749889373779e-02, -2.785242162644863129e-02, 5.323212966322898865e-02, 1.576599664986133575e-02, -4.043626412749290466e-02, -9.971485286951065063e-02, -1.364609599113464355e-01, -1.290616393089294434e-01, -8.574855327606201172e-02, -7.134989649057388306e-02, -1.249601989984512329e-01, -9.992630779743194580e-02, 2.298221178352832794e-02, 8.177325874567031860e-02, -6.721302866935729980e-02, -1.400409042835235596e-01, -9.024755097925662994e-03, -6.593734025955200195e-02, -1.482742130756378174e-01, -7.714237272739410400e-02, 3.493858501315116882e-02, -6.869466509670019150e-03, -4.472304135560989380e-03, 6.626109778881072998e-02, -8.545926958322525024e-02, 1.437497697770595551e-02, 9.298697113990783691e-02, 2.026122808456420898e-02, 1.046794801950454712e-01, -1.704482138156890869e-01, -4.505197703838348389e-02, 1.017004549503326416e-01, -2.228089841082692146e-03, 5.532351508736610413e-02, -1.120422407984733582e-01, -6.469849497079849243e-02, 1.329611241817474365e-01, 3.934463113546371460e-02, -2.780358865857124329e-02, -4.099692776799201965e-02, -4.161319136619567871e-02, -9.149205870926380157e-03, 3.807023540139198303e-02, 2.171893045306205750e-02, 9.680430591106414795e-02, -1.419106423854827881e-01, 4.653805494308471680e-02, -1.232690364122390747e-02, -4.132852330803871155e-02, 1.016259714961051941e-01, -4.791248589754104614e-02, -5.291797965764999390e-02, 2.355972304940223694e-02, 3.003117255866527557e-02, -1.546144951134920120e-02, 2.033453807234764099e-02, 3.366150707006454468e-02, -1.405414287000894547e-02, 2.956121787428855896e-02, -2.474432066082954407e-02, -5.560403689742088318e-02, -5.078164860606193542e-02, 2.163173817098140717e-02, 2.457974478602409363e-02, -5.898446962237358093e-02, 2.330734021961688995e-02, -1.203717067837715149e-01, 2.075807377696037292e-02, -3.693122416734695435e-02, -9.497666358947753906e-02, -4.959294199943542480e-02, -9.895549714565277100e-02, -3.251889720559120178e-02, -2.898173034191131592e-02, -9.181854128837585449e-02, 4.480968415737152100e-02, 4.027852043509483337e-02, -4.051253572106361389e-02, -1.140649840235710144e-01, -3.481603926047682762e-04, -1.980137266218662262e-02, -8.029703050851821899e-02, -3.902560099959373474e-02, -1.429417133331298828e-01, -1.114996820688247681e-01, -8.913972228765487671e-02, -4.671027138829231262e-02, 5.866021662950515747e-02, 4.224151372909545898e-02, -8.784142881631851196e-02, -7.074852287769317627e-02, 6.284443289041519165e-02, 4.692035168409347534e-02, 1.207346022129058838e-01, 8.974271267652511597e-02, -7.278702408075332642e-02, -1.217934563755989075e-01, 1.921265572309494019e-02, 7.844937592744827271e-02, -9.224806725978851318e-02, -1.222980245947837830e-01, 4.544664919376373291e-02, -1.106327995657920837e-01, -1.119241565465927124e-01, -8.156961947679519653e-02, -9.342050552368164062e-02, 3.846079856157302856e-02, 7.049299776554107666e-02, 5.530671775341033936e-02, -5.544774234294891357e-02, -8.852621912956237793e-02, -2.693559601902961731e-02, 3.188178315758705139e-02, -5.995184183120727539e-03, -1.013300418853759766e-01, -1.342180967330932617e-01, 1.670073717832565308e-02, -7.289478927850723267e-02, -3.041960671544075012e-02, -4.838138818740844727e-02, -1.395127028226852417e-01, -8.703919500112533569e-02, -4.047174379229545593e-02, -7.410985976457595825e-02, -1.486535072326660156e-01, 3.121603466570377350e-02, 4.555393755435943604e-02, -5.677291005849838257e-02, -4.571245983242988586e-02, -1.211546957492828369e-01, -9.208074212074279785e-02, -8.543178439140319824e-02, -5.184933543205261230e-02, -6.385777890682220459e-02, -8.686765283346176147e-02, -2.903779409825801849e-02, 1.783584244549274445e-02, -1.334756985306739807e-02, -3.240235522389411926e-02, -4.561493173241615295e-02, 1.661029607057571411e-01, 1.648827791213989258e-01, 5.028568673878908157e-03, 1.335653513669967651e-01, 2.379733026027679443e-01, -1.163942739367485046e-01, 2.703470550477504730e-02, -5.378301814198493958e-02, -6.293358653783798218e-02, -9.391158819198608398e-02, 1.931904815137386322e-02, 8.675112389028072357e-03, -7.642766833305358887e-02, -4.985551163554191589e-02, -5.279547721147537231e-02, -2.401852048933506012e-02, -5.255127325654029846e-02, -1.094702109694480896e-01, 6.277698278427124023e-02, -3.050410747528076172e-02, -9.909121692180633545e-02, 3.440345451235771179e-02, -1.230327636003494263e-01, -3.279855847358703613e-02, -8.673380315303802490e-02, 6.590998731553554535e-03, -4.754563048481941223e-02, 3.903289139270782471e-02, -4.219980165362358093e-02, 3.171497955918312073e-02, },
{-3.034842899069190025e-03, 1.455247052945196629e-03, 7.580547826364636421e-04, -1.683135889470577240e-02, -3.570962697267532349e-03, -8.946661837399005890e-03, -6.455184519290924072e-02, -3.147725388407707214e-02, -6.228949874639511108e-02, -6.630805134773254395e-02, 1.947623863816261292e-02, 4.414292983710765839e-03, -4.622333496809005737e-02, 5.066344048827886581e-03, 1.296056667342782021e-03, -4.249279573559761047e-02, 1.200468759634532034e-04, -2.213569357991218567e-02, -1.289784070104360580e-02, 3.408472612500190735e-02, -1.487221755087375641e-02, 1.922083902172744274e-03, -4.275714978575706482e-02, -5.333743989467620850e-02, -7.832898944616317749e-02, 1.511914096772670746e-02, -2.523457072675228119e-02, -3.574589965865015984e-03, 9.944337420165538788e-03, 3.303956985473632812e-02, 4.078678414225578308e-02, -1.244638673961162567e-02, -2.173893526196479797e-02, -4.662254080176353455e-02, -1.369708124548196793e-02, -4.343480616807937622e-02, 1.084949728101491928e-02, -6.002530083060264587e-02, -5.334514752030372620e-02, 9.185960516333580017e-03, -2.450369112193584442e-02, 2.511685900390148163e-02, -3.899261122569441795e-03, -1.846113801002502441e-02, -4.896952584385871887e-02, -6.996586918830871582e-02, -6.713813543319702148e-02, -4.468198120594024658e-02, 1.150984037667512894e-02, -4.549685865640640259e-02, -2.387636713683605194e-02, 4.265556111931800842e-02, -5.893541034311056137e-03, 6.873738020658493042e-03, -3.974733874201774597e-02, -2.819132059812545776e-02, -9.227812290191650391e-03, -4.844927787780761719e-02, -3.982569277286529541e-02, -4.752812441438436508e-03, -1.659884490072727203e-02, 1.522652991116046906e-02, 1.863546669483184814e-03, 9.222701191902160645e-03, -1.602611877024173737e-02, -3.298768401145935059e-02, 2.277721464633941650e-02, -4.121759906411170959e-03, -4.130749404430389404e-02, 2.408512309193611145e-02, 1.989019475877285004e-02, -4.227559268474578857e-02, -4.859969019889831543e-02, 1.384495571255683899e-02, -2.818831615149974823e-02, -3.045546449720859528e-02, 3.205351531505584717e-02, -3.122173249721527100e-02, -5.050783231854438782e-02, 2.359310723841190338e-02, -8.267096243798732758e-03, -4.197000712156295776e-02, 1.038662903010845184e-02, -3.374624624848365784e-02, -8.009817451238632202e-02, -5.153464525938034058e-02, -4.627502709627151489e-02, -6.210881471633911133e-02, 4.225769080221652985e-04, -4.140380769968032837e-02, 2.936368249356746674e-02, -4.256554692983627319e-02, -1.617031916975975037e-02, -2.289809286594390869e-02, 7.644555880688130856e-04, -4.280043020844459534e-02, -1.626709476113319397e-02, -4.556959494948387146e-02, -1.117828674614429474e-02, -5.659981071949005127e-02, 1.030002906918525696e-02, -1.861231774091720581e-02, 2.548588206991553307e-03, 3.670083591714501381e-03, 4.722533002495765686e-02, -1.103502605110406876e-02, -4.293677955865859985e-02, -5.864813923835754395e-03, -2.044999599456787109e-02, -5.136496387422084808e-03, -3.659886121749877930e-02, -4.400258138775825500e-02, -2.226174250245094299e-02, 3.688435256481170654e-02, -3.152456507086753845e-02, -2.344951406121253967e-02, 5.571050103753805161e-03, -4.961733147501945496e-02, -2.693969290703535080e-03, -1.896795257925987244e-02, -7.414636667817831039e-03, -1.661053858697414398e-02, -1.859531924128532410e-02, -4.320676624774932861e-02, -1.666057482361793518e-02, 1.206272933632135391e-02, -4.874635860323905945e-02, -2.377769351005554199e-02, -7.426306605339050293e-02, 4.232172388583421707e-03, -1.778858713805675507e-02, -2.335982769727706909e-02, -6.173552200198173523e-02, -6.885194033384323120e-02, -2.721758745610713959e-02, -5.612338334321975708e-02, -5.218147486448287964e-02, -7.140377163887023926e-02, 1.511108316481113434e-02, -1.470587588846683502e-02, 5.064691882580518723e-03, 1.206502877175807953e-02, -4.961530119180679321e-02, -1.803817227482795715e-02, -5.853906273841857910e-03, 2.057079039514064789e-02, 5.768897011876106262e-03, 1.335864141583442688e-02, -5.041172727942466736e-02, 8.116757497191429138e-03, -4.916264116764068604e-02, -3.641413897275924683e-02, -6.823989748954772949e-02, -9.350198088213801384e-04, -1.890558190643787384e-02, -3.781957924365997314e-02, -2.712999098002910614e-02, -1.758262887597084045e-02, 3.248778870329260826e-03, 1.009389106184244156e-02, 3.585650026798248291e-02, 1.788484677672386169e-02, -3.229864407330751419e-03, -3.078125603497028351e-02, -4.941093549132347107e-02, -6.222996488213539124e-02, 2.411974966526031494e-02, 3.582649677991867065e-02, 1.361841335892677307e-02, 2.661509998142719269e-02, -5.351990833878517151e-02, -6.928356736898422241e-02, -9.417408145964145660e-03, -5.131670087575912476e-02, -5.346137657761573792e-02, 2.830613404512405396e-02, 1.622248813509941101e-02, -3.817433863878250122e-02, -3.147579729557037354e-03, -3.198893740773200989e-02, 2.432568930089473724e-03, 7.015970069915056229e-03, -5.320227891206741333e-02, -1.475690491497516632e-02, -4.474969953298568726e-02, 8.411133661866188049e-03, -2.789412811398506165e-02, -5.683469399809837341e-02, -1.949950121343135834e-02, -1.836110465228557587e-02, -9.983674623072147369e-03, -4.457651823759078979e-02, -3.888857364654541016e-02, -6.656368076801300049e-02, -3.856404917314648628e-03, -3.546433756127953529e-03, -3.792781382799148560e-02, -7.809532340615987778e-03, -7.374995853751897812e-03, -1.323235407471656799e-02, 2.634553797543048859e-02, 1.645714417099952698e-02, -5.075864121317863464e-02, -1.363042276352643967e-02, -2.231850102543830872e-02, -3.006760030984878540e-02, -4.549035429954528809e-02, -4.009308293461799622e-02, -3.181680664420127869e-02, 7.368381600826978683e-03, 2.927320823073387146e-02, -4.517096653580665588e-02, -4.754070937633514404e-02, 1.452550478279590607e-02, -3.624174371361732483e-02, 2.078969031572341919e-02, -3.273438662290573120e-02, -3.834590315818786621e-02, -4.081338644027709961e-02, -2.859277464449405670e-02, -2.600806765258312225e-02, -3.162109851837158203e-02, -2.425003424286842346e-02, -7.995687425136566162e-03, 9.703701362013816833e-03, -8.652143180370330811e-03, -3.820495912805199623e-04, -3.897038102149963379e-02, 1.606589183211326599e-02, 5.344215314835309982e-03, -6.127190776169300079e-03, -1.832389086484909058e-02, -2.859441190958023071e-02, -2.365859411656856537e-02, -8.636363781988620758e-03, -4.157159477472305298e-02, -5.618997663259506226e-02, 2.751472871750593185e-03, -3.852543607354164124e-02, 6.516382563859224319e-04, 3.664370998740196228e-02, -4.618024826049804688e-02, -6.591773778200149536e-02, -2.567021176218986511e-02, -2.358152158558368683e-02, -4.333237558603286743e-02, -2.539280802011489868e-03, -5.370758101344108582e-02, 5.917533766478300095e-03, -4.427967965602874756e-02, -6.093945726752281189e-02, -3.089047968387603760e-03, 8.699389174580574036e-03, -3.805980458855628967e-02, 1.961476355791091919e-02, -6.153010204434394836e-02, 1.490033324807882309e-02, -6.505094468593597412e-02, -3.024848550558090210e-02, -3.307652194052934647e-03, -4.071419686079025269e-02, -4.156070202589035034e-02, -4.132967814803123474e-02, -5.847306549549102783e-02, -4.548632726073265076e-02, -1.512722391635179520e-02, 2.595919370651245117e-02, -1.412753295153379440e-02, -2.175986580550670624e-02, 3.978156670928001404e-02, -8.282922208309173584e-03, -1.126240659505128860e-02, 7.872241549193859100e-03, -2.300919219851493835e-02, 1.980163902044296265e-02, -5.343463271856307983e-03, 1.493693608790636063e-02, 1.507554668933153152e-02, -4.783656448125839233e-02, 7.676314562559127808e-04, 4.133996367454528809e-02, -1.282849907875061035e-02, -7.303816080093383789e-02, -2.526592090725898743e-02, -3.167968243360519409e-02, -3.184653446078300476e-02, 2.255720458924770355e-02, -3.970896825194358826e-02, -1.431418955326080322e-02, -3.401810675859451294e-02, -5.030934885144233704e-02, -4.559437558054924011e-02, -1.019602292217314243e-03, -5.857740342617034912e-02, -4.913993179798126221e-02, -4.808849841356277466e-02, -3.369793295860290527e-02, -5.593397840857505798e-02, 7.923612371087074280e-03, -3.317578881978988647e-02, 1.262189447879791260e-02, -3.485355153679847717e-02, 5.547620356082916260e-03, -6.022553145885467529e-02, -5.107517912983894348e-02, 2.099592797458171844e-02, -6.428724527359008789e-02, -2.534474246203899384e-02, -7.730758283287286758e-03, -6.543220486491918564e-03, 2.016936987638473511e-02, -4.226017277687788010e-03, -4.466213658452033997e-02, -3.752110153436660767e-02, 9.940067538991570473e-04, -7.119866460561752319e-02, -5.120253935456275940e-02, 3.907328099012374878e-02, -8.292823098599910736e-03, -2.970589138567447662e-02, -3.216624259948730469e-02, -6.911318749189376831e-02, 2.349473349750041962e-02, 1.100551243871450424e-02, 6.849443074315786362e-03, -3.997258841991424561e-02, 2.082870528101921082e-02, 1.499739568680524826e-02, -4.938283562660217285e-02, -7.596402894705533981e-03, 2.784578502178192139e-02, 3.649184107780456543e-02, -2.743752300739288330e-02, -6.829625368118286133e-02, -6.889516022056341171e-03, -3.933518379926681519e-02, -3.590696677565574646e-02, -4.799716547131538391e-02, 1.802740991115570068e-02, -5.315930768847465515e-02, -1.835691928863525391e-02, -5.096101015806198120e-02, 2.024422958493232727e-02, -6.095156073570251465e-02, 1.676433905959129333e-02, -2.797655388712882996e-02, 4.086157307028770447e-02, -5.100276693701744080e-02, 7.077279035001993179e-03, -1.098188105970621109e-02, 2.625162713229656219e-03, -5.360439792275428772e-02, 1.060743443667888641e-02, -7.482988759875297546e-03, -5.486992001533508301e-02, 1.596102677285671234e-02, 6.215477827936410904e-03, -2.378772571682929993e-02, -5.088876932859420776e-02, -3.556012734770774841e-02, -5.931741092354059219e-03, -6.319167558103799820e-03, -3.608433529734611511e-02, 1.011858927085995674e-03, 2.053241059184074402e-02, -1.258227042853832245e-02, -1.895698718726634979e-02, -2.980373054742813110e-02, -1.474873349070549011e-02, -1.934406347572803497e-03, -5.093276873230934143e-02, -6.575001031160354614e-02, 9.525419212877750397e-03, -2.298436872661113739e-02, -1.884345896542072296e-02, -1.970699289813637733e-03, -4.501588270068168640e-02, -4.266063868999481201e-02, -3.032056242227554321e-02, -2.285692468285560608e-02, -3.514429926872253418e-02, 1.256572362035512924e-02, 2.160231396555900574e-02, 4.305897746235132217e-03, -2.414957992732524872e-02, -4.672738723456859589e-03, 8.448221720755100250e-03, -6.951309740543365479e-03, -6.334658246487379074e-03, -3.127530589699745178e-02, -4.144592955708503723e-02, -1.603863202035427094e-02, -1.322159916162490845e-02, -6.115238368511199951e-02, -1.410105917602777481e-02, -4.882261157035827637e-02, 1.599813112989068031e-03, 1.213712617754936218e-02, 6.430960725992918015e-03, -1.804820820689201355e-02, },
{-1.582130491733551025e-01, 2.469569444656372070e-01, -3.352976590394973755e-02, 4.585376940667629242e-03, -1.050235182046890259e-01, 9.754027426242828369e-02, -3.893858566880226135e-02, -1.533800512552261353e-01, 2.014080286026000977e-01, -5.800179764628410339e-02, -2.454714663326740265e-02, -2.724679410457611084e-01, 3.168730065226554871e-02, 9.689530730247497559e-02, 4.725883528590202332e-02, -2.187205106019973755e-01, -1.898523569107055664e-01, 6.262104213237762451e-02, 5.123234912753105164e-02, 6.616225838661193848e-02, -1.171527579426765442e-01, 8.575029671192169189e-02, 4.369801655411720276e-02, 2.015975303947925568e-02, -5.256840586662292480e-02, -1.495952010154724121e-01, -5.982872471213340759e-02, -1.249146554619073868e-02, 5.290472880005836487e-02, 1.563134044408798218e-02, 6.934285908937454224e-02, 1.063049808144569397e-01, 8.381609618663787842e-02, 1.353641040623188019e-02, -3.174135088920593262e-02, 5.099441483616828918e-02, 1.266623586416244507e-01, -2.182047627866268158e-02, -3.470183908939361572e-02, -1.134660467505455017e-01, 7.976415008306503296e-02, 9.005182236433029175e-02, -5.883665382862091064e-02, -2.889156900346279144e-02, 4.148415476083755493e-02, 6.563140195794403553e-04, -1.516084186732769012e-03, -6.783897429704666138e-02, -1.363920718431472778e-01, 1.908786743879318237e-01, -8.014791458845138550e-02, -1.029198616743087769e-01, 7.974543422460556030e-02, -3.850817307829856873e-02, 3.431871533393859863e-02, 1.158814206719398499e-01, -6.895816419273614883e-03, 3.557309042662382126e-03, -5.399198830127716064e-02, -4.007683396339416504e-01, -1.184348538517951965e-01, 5.136713385581970215e-02, 7.567040622234344482e-02, -1.096090208739042282e-02, 6.201094016432762146e-03, -3.272823244333267212e-02, 1.773153059184551239e-02, 7.368224114179611206e-02, 1.024404540657997131e-01, -1.074364259839057922e-01, 6.612142547965049744e-03, 6.750909984111785889e-02, 1.017039567232131958e-01, 2.568962424993515015e-02, -1.636065542697906494e-01, -1.753283441066741943e-01, 1.790892034769058228e-01, 7.161960005760192871e-02, 1.137451976537704468e-01, -1.596617996692657471e-01, -1.004090756177902222e-01, -2.786810696125030518e-02, -1.181226670742034912e-01, -2.048730663955211639e-02, -2.167273759841918945e-01, -8.500403910875320435e-02, -4.090183973312377930e-02, 6.955362856388092041e-02, 2.803456783294677734e-02, -9.852834045886993408e-02, 5.716859176754951477e-02, 5.715035274624824524e-02, 1.893213838338851929e-01, 1.161373034119606018e-02, -2.394589632749557495e-01, -5.600638687610626221e-02, 7.332710921764373779e-02, -9.478186070919036865e-02, 4.941821470856666565e-02, -8.235147595405578613e-02, -3.655368089675903320e-02, -5.696130543947219849e-02, 9.317842125892639160e-02, -1.939821839332580566e-01, -4.704462885856628418e-01, -2.528025582432746887e-02, 1.130137145519256592e-01, -1.298001967370510101e-02, -1.328353732824325562e-01, 3.218947211280465126e-03, -1.091098487377166748e-01, -1.091225147247314453e-01, -1.606534868478775024e-01, -6.722807884216308594e-02, 8.988331258296966553e-02, -1.934683918952941895e-01, -2.958546951413154602e-02, 6.275251507759094238e-02, -2.321534790098667145e-02, -7.414516806602478027e-02, 6.176409497857093811e-02, 1.586720198392868042e-01, 6.092564016580581665e-02, 1.105110794305801392e-01, 1.338003873825073242e-01, -2.702554166316986084e-01, -2.448344379663467407e-01, -1.239270344376564026e-01, 9.827549569308757782e-03, -1.642351225018501282e-02, 1.131074726581573486e-01, 3.187025710940361023e-02, 4.424770176410675049e-02, 8.804199285805225372e-03, -2.388582378625869751e-02, 1.263308227062225342e-01, -1.082317344844341278e-02, -9.805620461702346802e-02, 8.161100000143051147e-02, -2.616700902581214905e-02, -4.842870868742465973e-03, -1.755941063165664673e-01, -8.097425103187561035e-02, 8.494683355093002319e-02, 8.092986792325973511e-02, -1.393220722675323486e-01, 2.680152188986539841e-03, 1.166232395917177200e-02, -3.240222111344337463e-02, 1.233646199107170105e-01, -4.747620783746242523e-03, -1.149475108832120895e-02, 1.271296590566635132e-01, 4.679199680685997009e-02, -8.957167714834213257e-02, -4.606644436717033386e-02, -3.860700130462646484e-02, -3.608153387904167175e-02, -8.058201521635055542e-02, 1.705477945506572723e-02, 8.478303253650665283e-02, 2.632587775588035583e-02, 1.492027491331100464e-01, -3.711263835430145264e-02, -2.037764340639114380e-01, 9.964252263307571411e-02, 1.235186830163002014e-01, 1.504354458302259445e-02, -1.323518306016921997e-01, -2.930836975574493408e-01, -1.069833040237426758e-01, -1.125857234001159668e-02, 3.746594861149787903e-02, -9.940085560083389282e-02, -1.279169321060180664e-01, -1.912199258804321289e-01, 5.126293748617172241e-02, -1.239909753203392029e-01, 1.693078875541687012e-01, -8.369979262351989746e-02, 1.809819936752319336e-01, 5.090242251753807068e-02, 8.638273924589157104e-02, 4.208169505000114441e-02, -1.659200936555862427e-01, 8.871772326529026031e-03, 1.117474809288978577e-01, -5.917060747742652893e-02, 1.404494643211364746e-01, 3.542555496096611023e-02, -6.728462129831314087e-02, 9.351589530706405640e-02, -5.550739541649818420e-02, 8.067503571510314941e-02, 4.836149141192436218e-02, -4.092933610081672668e-02, -1.965248882770538330e-01, -1.799736469984054565e-01, -6.921013444662094116e-02, 1.899029165506362915e-01, 1.137519534677267075e-02, -1.715902239084243774e-01, -6.316346675157546997e-02, 8.763176947832107544e-02, -5.637699738144874573e-02, -6.453038752079010010e-02, -1.847497522830963135e-01, -1.075917258858680725e-01, -6.812218576669692993e-02, -3.309676051139831543e-02, -4.371428191661834717e-01, -1.671029031276702881e-01, 2.665689401328563690e-02, 8.101154863834381104e-02, 5.663223192095756531e-02, -4.788041710853576660e-01, -6.531118601560592651e-02, 5.151437595486640930e-02, 9.631723165512084961e-02, 2.324249222874641418e-02, -1.319693475961685181e-01, 1.324993073940277100e-01, 5.006925389170646667e-02, -1.715699769556522369e-02, 7.434664666652679443e-02, 1.500900182873010635e-02, 5.791347846388816833e-02, 1.485792803578078747e-03, -1.886753179132938385e-02, -2.711919248104095459e-01, 2.482683397829532623e-02, -8.754907548427581787e-02, -1.254138648509979248e-01, -6.351236999034881592e-02, -2.707534432411193848e-01, -1.001296564936637878e-01, -4.812910035252571106e-02, 1.932464689016342163e-01, 1.773170977830886841e-01, 4.688087850809097290e-02, -7.525295019149780273e-02, -5.306319892406463623e-02, 9.329862892627716064e-02, 1.033911406993865967e-01, 1.679325662553310394e-02, -9.300953149795532227e-02, -1.241832301020622253e-01, 5.060205981135368347e-02, 6.770725548267364502e-02, -1.338177919387817383e-01, -3.310576453804969788e-02, -1.728186942636966705e-02, -9.100290387868881226e-02, -3.934924677014350891e-02, -2.428382188081741333e-01, 2.146693691611289978e-02, 1.742098666727542877e-02, 1.051225885748863220e-01, -1.237285062670707703e-01, -1.694836616516113281e-01, 2.600995451211929321e-02, 9.741326421499252319e-02, 1.014519408345222473e-01, 6.378433853387832642e-02, -1.414747387170791626e-01, -6.656733900308609009e-02, 1.564826257526874542e-02, -4.853831976652145386e-02, 2.751201093196868896e-01, 4.415872320532798767e-02, -2.183405905961990356e-01, -2.412976026535034180e-01, -1.458085030317306519e-01, -2.038229443132877350e-02, 2.547047436237335205e-01, 8.286760002374649048e-02, 9.287459403276443481e-02, -1.023592799901962280e-01, -1.024985834956169128e-01, -1.528167873620986938e-01, 9.492777287960052490e-02, -7.305439561605453491e-02, -8.285814523696899414e-02, -9.540854021906852722e-03, -9.983666241168975830e-02, 3.670002520084381104e-02, -4.029523953795433044e-02, -6.237951666116714478e-02, -7.711829990148544312e-02, -3.688992001116275787e-03, -2.754315435886383057e-01, -2.252986878156661987e-01, -1.381126791238784790e-01, -4.410056397318840027e-02, -1.523714885115623474e-02, -2.057452052831649780e-01, -4.995250143110752106e-03, 5.861281603574752808e-02, 7.170721143484115601e-02, -1.034181565046310425e-02, 4.198252782225608826e-02, -6.989458203315734863e-02, -2.158213639631867409e-03, 1.124036759138107300e-01, 1.681891828775405884e-02, -1.268417984247207642e-01, -2.106460034847259521e-01, -8.318304270505905151e-02, -7.037886977195739746e-02, 5.132558941841125488e-02, -1.469433158636093140e-01, -9.485916793346405029e-02, -6.305610388517379761e-02, -6.818011403083801270e-02, -1.374773085117340088e-01, 2.790058553218841553e-01, 5.668720602989196777e-02, -2.451820820569992065e-01, -2.542291283607482910e-01, -1.313355416059494019e-01, 2.530670166015625000e-01, 1.328399479389190674e-01, -2.798264659941196442e-02, 1.966539770364761353e-02, 2.009517513215541840e-03, 1.695309132337570190e-01, 2.481384873390197754e-01, 1.135655269026756287e-01, -1.922860741615295410e-02, -1.020558029413223267e-01, -2.197683751583099365e-01, -1.363226473331451416e-01, -8.142963051795959473e-02, -3.246031329035758972e-02, -8.944936096668243408e-02, -2.089808285236358643e-01, -3.190015256404876709e-01, 1.584042608737945557e-01, 9.550240635871887207e-02, 6.775239109992980957e-02, -1.635403931140899658e-01, -1.297046989202499390e-01, 1.319274604320526123e-01, 1.501039564609527588e-01, -3.045901283621788025e-02, -1.159395650029182434e-01, -6.499966979026794434e-02, -3.975749015808105469e-02, -5.927299335598945618e-02, -3.825071081519126892e-02, 3.957952372729778290e-03, -1.775301992893218994e-02, -6.908318027853965759e-03, 3.466342762112617493e-02, -2.207808196544647217e-02, -1.766242235898971558e-01, -1.575195491313934326e-01, -3.676120936870574951e-02, -5.875776708126068115e-02, -8.197579532861709595e-02, -4.648119807243347168e-01, -1.871307939291000366e-01, -5.258747190237045288e-02, -8.785698562860488892e-02, -6.140411272644996643e-02, -9.923196583986282349e-02, 9.339458495378494263e-02, 1.953383442014455795e-03, -1.191928908228874207e-01, -1.593916267156600952e-01, 3.504486382007598877e-01, 3.670904934406280518e-01, 2.426390051841735840e-01, 3.106908872723579407e-02, -9.354383498430252075e-02, -5.400266870856285095e-02, -9.302788972854614258e-02, -1.545876264572143555e-02, -8.635113388299942017e-02, -1.637928336858749390e-01, -2.251178771257400513e-01, -2.565407156944274902e-01, 4.837295413017272949e-02, 1.349965780973434448e-01, -3.340412303805351257e-02, -2.026017308235168457e-01, 5.729734525084495544e-02, -5.925812944769859314e-02, 2.155453152954578400e-02, -1.187755316495895386e-01, -2.713403292000293732e-02, 1.029575765132904053e-01, 1.725036948919296265e-01, 2.655705995857715607e-02, -2.523085772991180420e-01, 1.697829067707061768e-01, 2.447998523712158203e-01, 7.360458374023437500e-02, 6.211595982313156128e-02, -2.420313507318496704e-01, },
{4.729894176125526428e-02, -1.716929115355014801e-02, -4.865904897451400757e-02, 5.992015823721885681e-02, -8.861898630857467651e-02, 2.860446460545063019e-02, 3.001174516975879669e-02, -1.999820210039615631e-02, 5.677101388573646545e-02, 1.300714612007141113e-01, -1.406750977039337158e-01, -1.043160557746887207e-01, 8.315439522266387939e-02, 2.129448950290679932e-01, 1.461179405450820923e-01, -1.680761426687240601e-01, -3.189789503812789917e-02, 1.709788665175437927e-02, -3.819642961025238037e-02, -6.119563803076744080e-02, -2.537768185138702393e-01, -1.785846650600433350e-01, -8.367794752120971680e-02, 7.040119171142578125e-02, 3.930376097559928894e-02, -1.173271015286445618e-01, -2.039102278649806976e-02, -4.797826707363128662e-02, 3.282753005623817444e-02, 1.152033656835556030e-01, -9.684986621141433716e-02, -1.042366549372673035e-01, 6.654167920351028442e-02, -1.524384017102420330e-03, 5.584209039807319641e-02, 1.275364309549331665e-01, 7.171199470758438110e-02, 7.848159968852996826e-02, 1.230594068765640259e-01, 8.006016910076141357e-02, 3.062990494072437286e-03, 1.240225359797477722e-01, 9.539351612329483032e-02, 1.185627877712249756e-01, -1.779643259942531586e-02, 4.702449962496757507e-02, -2.769044041633605957e-02, -2.589041367173194885e-03, -5.179275944828987122e-02, -2.258134260773658752e-02, 1.602432280778884888e-01, -9.985013306140899658e-02, -4.929479956626892090e-02, -3.537445515394210815e-02, -8.703736215829849243e-02, 3.322950005531311035e-02, -8.926534652709960938e-02, -8.637500554323196411e-02, -1.327635645866394043e-01, -1.436533033847808838e-01, 1.812645234167575836e-02, -3.459827974438667297e-02, 6.062607467174530029e-02, 1.230010911822319031e-01, 1.110382825136184692e-01, 1.695657335221767426e-02, -6.523514632135629654e-03, 3.791369870305061340e-02, 7.128792256116867065e-02, -1.856112033128738403e-01, 1.850827597081661224e-02, 6.733814626932144165e-02, 3.213740140199661255e-02, 2.676752023398876190e-02, -9.260641783475875854e-02, -1.405404359102249146e-01, 3.512320667505264282e-02, 5.532719567418098450e-02, 8.127708733081817627e-02, 2.773085795342922211e-02, -8.700975775718688965e-02, 7.647860050201416016e-02, 3.645321819931268692e-03, 1.074601337313652039e-02, -2.511891722679138184e-02, -1.197200194001197815e-01, -5.241872742772102356e-02, 1.095070037990808487e-02, 1.272601485252380371e-01, 1.376860290765762329e-01, -5.317182838916778564e-02, 7.805127184838056564e-03, 1.315549165010452271e-01, 7.394764572381973267e-02, -8.510655909776687622e-02, -6.192995607852935791e-02, 9.946928173303604126e-02, 1.412193626165390015e-01, -4.123885184526443481e-03, -2.478406578302383423e-01, 8.039309829473495483e-02, -1.960195973515510559e-02, -7.044782489538192749e-02, -5.220712721347808838e-02, -6.068347021937370300e-02, -4.322849959135055542e-02, -7.335731387138366699e-02, 6.564621627330780029e-02, 7.446797098964452744e-03, 1.758162081241607666e-01, -1.525588929653167725e-01, 1.472190469503402710e-01, -1.356267631053924561e-01, -8.880145102739334106e-02, 9.939429908990859985e-02, -1.201363187283277512e-02, 6.952553987503051758e-03, -1.483761370182037354e-01, -7.937193661928176880e-02, -8.576499670743942261e-02, -1.320546865463256836e-02, 8.473393321037292480e-02, 4.346528090536594391e-03, -7.857629097998142242e-03, 2.081133574247360229e-01, -2.147895842790603638e-01, -2.624044418334960938e-01, -5.270410329103469849e-02, -1.916884258389472961e-02, -2.030189149081707001e-02, -6.441550701856613159e-02, -1.976001560688018799e-01, 1.176300868391990662e-01, -4.603857547044754028e-02, -1.227972134947776794e-01, -5.389732494950294495e-02, -5.235484335571527481e-03, 5.545181781053543091e-02, 5.400377139449119568e-02, -3.812666609883308411e-02, 8.348017185926437378e-02, -6.731244176626205444e-02, -2.544758655130863190e-02, 2.462249249219894409e-02, 3.146169334650039673e-02, 5.416080355644226074e-02, -1.473393104970455170e-02, 1.305931247770786285e-02, 4.650942981243133545e-02, 8.264304138720035553e-03, -9.981173276901245117e-02, 5.152117833495140076e-02, 6.534390151500701904e-02, 1.093257218599319458e-01, 1.951012760400772095e-02, -3.227699548006057739e-02, 2.209907211363315582e-02, 7.557475473731756210e-03, 1.188040524721145630e-01, 1.864717751741409302e-01, -1.994352973997592926e-02, 8.718700148165225983e-03, -6.087079271674156189e-02, -5.772852525115013123e-02, -6.505957990884780884e-02, -4.014686495065689087e-02, 1.533189788460731506e-03, -2.428476884961128235e-02, 5.872565880417823792e-02, -1.153017133474349976e-01, 6.032673269510269165e-02, 7.093179970979690552e-02, 1.748150587081909180e-02, 7.617896888405084610e-03, -4.056710749864578247e-02, -7.067071646451950073e-02, -1.475225854665040970e-02, 6.395233422517776489e-02, 1.895355619490146637e-02, -1.723326928913593292e-02, 2.341080456972122192e-02, -2.910892665386199951e-02, 4.709746688604354858e-02, -1.043691411614418030e-01, -3.546189144253730774e-02, 3.840231150388717651e-02, 2.091268822550773621e-02, 1.254629939794540405e-01, 1.189664900302886963e-01, -4.375118017196655273e-02, 5.288015119731426239e-03, -8.534456044435501099e-02, 1.093047261238098145e-01, -4.773453995585441589e-02, -4.561882466077804565e-02, 1.081052497029304504e-01, 2.567959390580654144e-02, -9.201258420944213867e-02, -7.172881811857223511e-02, 6.909644603729248047e-02, -1.220219656825065613e-01, -2.062120884656906128e-01, 6.389779597520828247e-02, 6.772252172231674194e-02, 1.540983766317367554e-01, -2.427168190479278564e-02, -1.961410343647003174e-01, 7.988529652357101440e-02, -7.922494411468505859e-02, -1.729279011487960815e-02, -8.462105691432952881e-02, -1.528916358947753906e-01, 6.765000522136688232e-02, -2.444139495491981506e-02, -5.003652349114418030e-02, -6.085180118680000305e-02, -8.669900894165039062e-02, -1.291818358004093170e-02, 1.503538060933351517e-02, 8.729782700538635254e-02, -3.205017149448394775e-01, -2.464754134416580200e-02, 2.793269418179988861e-02, 9.638019651174545288e-02, 1.425841599702835083e-01, 5.144940316677093506e-02, 1.356540322303771973e-01, 4.968765005469322205e-02, -5.839309189468622208e-03, -2.393153905868530273e-01, 7.791247218847274780e-02, 3.910240530967712402e-02, 4.841633886098861694e-02, -3.106414154171943665e-02, -6.760228425264358521e-02, -8.030731230974197388e-02, -2.925292029976844788e-02, 1.323708295822143555e-01, 2.368510663509368896e-01, 8.754548430442810059e-02, -5.922957509756088257e-02, 9.990815073251724243e-02, 2.583793550729751587e-02, 7.390482816845178604e-03, -1.648122370243072510e-01, -1.267268657684326172e-01, -5.549510940909385681e-02, 7.002125494182109833e-04, -6.151479668915271759e-03, -7.537048310041427612e-02, -1.102687194943428040e-01, -1.142304614186286926e-01, -1.147133633494377136e-01, -1.117261052131652832e-01, 5.357225611805915833e-02, 4.129927605390548706e-02, 4.209812730550765991e-02, -4.289242997765541077e-02, -2.183149158954620361e-01, -1.115694940090179443e-01, 8.546147495508193970e-02, 3.091566450893878937e-02, 3.926024213433265686e-02, -4.351412504911422729e-02, -1.081247255206108093e-01, -2.631541527807712555e-02, 7.981771975755691528e-02, 1.270466446876525879e-01, 1.444678753614425659e-02, -1.240781471133232117e-01, -4.833258315920829773e-02, 3.465270996093750000e-02, -3.495454415678977966e-02, 2.061711438000202179e-02, -8.046454936265945435e-02, 1.751623749732971191e-01, -1.017113476991653442e-01, -1.096857935190200806e-01, 4.104653373360633850e-03, -1.214525923132896423e-01, -6.918719969689846039e-03, -4.505017027258872986e-02, -1.198966056108474731e-01, -3.437734395265579224e-02, -4.486659914255142212e-02, 9.309237822890281677e-03, 9.573739767074584961e-02, -7.486715167760848999e-02, -3.781263530254364014e-02, -1.969772949814796448e-02, 1.140513457357883453e-02, -6.710573285818099976e-02, 3.471874445676803589e-02, -3.094089962542057037e-02, -1.050410866737365723e-01, 9.977366030216217041e-02, 5.658096447587013245e-02, 8.348209783434867859e-03, -6.483288016170263290e-03, 7.542420178651809692e-02, -1.027483865618705750e-01, -1.172837801277637482e-02, -1.425615418702363968e-02, 8.125848323106765747e-02, 1.645066961646080017e-02, -1.719507575035095215e-01, -1.976416409015655518e-01, 3.452274715527892113e-03, 5.764672532677650452e-02, -7.989046163856983185e-03, 5.630925670266151428e-02, -5.521697923541069031e-02, -2.507527917623519897e-02, 4.321135953068733215e-02, -8.745516836643218994e-02, 7.834326475858688354e-03, 6.456664949655532837e-02, -7.945574820041656494e-02, -2.105393074452877045e-02, 2.411801554262638092e-02, 4.777688998728990555e-03, -3.005450032651424408e-02, -2.604372426867485046e-02, -1.480456255376338959e-02, 8.769129216670989990e-02, 2.337896265089511871e-02, -5.238508433103561401e-02, 6.084883213043212891e-02, -7.738281786441802979e-02, 4.048208147287368774e-02, -6.242851540446281433e-02, -1.539883166551589966e-01, 4.576670378446578979e-02, -1.347227208316326141e-02, 2.018405869603157043e-02, -1.634955555200576782e-01, -1.471915692090988159e-01, -6.180847063660621643e-02, -1.022834256291389465e-01, -2.135027013719081879e-02, 5.443583242595195770e-03, -2.346263639628887177e-02, -1.174767315387725830e-01, -3.154683113098144531e-02, -1.185715477913618088e-02, -1.821704804897308350e-01, -1.162281036376953125e-01, -4.268347844481468201e-02, -1.523308176547288895e-02, 1.501225214451551437e-02, 6.241004541516304016e-02, 6.457515805959701538e-02, 5.475224554538726807e-02, -5.811324715614318848e-02, -4.745842516422271729e-02, 7.601915393024682999e-03, -6.503046303987503052e-02, -2.670288644731044769e-02, -1.177717372775077820e-02, -1.244654692709445953e-02, 7.277166936546564102e-03, -5.041782930493354797e-02, -1.166155096143484116e-02, -3.389622271060943604e-02, -7.930301129817962646e-02, -2.885072678327560425e-02, 7.849597185850143433e-02, -4.447878804057836533e-03, -1.531163007020950317e-01, -1.351502090692520142e-01, 1.095464974641799927e-01, 1.776746511459350586e-01, -5.891916155815124512e-02, -4.389385506510734558e-02, -2.153090760111808777e-02, -2.350825443863868713e-02, 8.631958067417144775e-02, 1.461338102817535400e-01, -5.271245911717414856e-02, -1.775003969669342041e-01, -1.532623916864395142e-01, -7.271181792020797729e-02, 1.011613309383392334e-01, 2.274698019027709961e-02, -1.574194803833961487e-02, -3.385467827320098877e-02, 9.840990602970123291e-02, 1.485094726085662842e-01, -8.476221561431884766e-02, -4.425030052661895752e-01, -9.210987016558647156e-03, 4.086969047784805298e-02, 4.373807925730943680e-03, -6.326852738857269287e-02, 2.576952613890171051e-02, -4.709421843290328979e-02, 9.371753782033920288e-02, 9.083389490842819214e-02, 9.310098737478256226e-02, -9.186886250972747803e-02, },
{2.786611616611480713e-01, 1.432378292083740234e-01, -1.575495749711990356e-01, -1.608328968286514282e-01, -2.482988089323043823e-01, -4.395160451531410217e-02, -6.976928561925888062e-02, 2.461227774620056152e-02, -5.175336450338363647e-02, 1.044365689158439636e-01, -5.329478904604911804e-02, -4.112755879759788513e-02, 1.020392477512359619e-01, 1.078819036483764648e-01, 2.091857492923736572e-01, -2.142222039401531219e-02, 1.465924666263163090e-03, -4.330937936902046204e-02, 1.263389587402343750e-01, 4.035069048404693604e-02, -7.088790833950042725e-02, -2.639644965529441833e-02, -3.793787583708763123e-02, 6.252311170101165771e-02, -2.434914186596870422e-02, -7.065432518720626831e-02, 5.030480772256851196e-02, 5.638514831662178040e-02, 1.702265739440917969e-01, 2.201340496540069580e-01, -1.494048535823822021e-01, -4.086755961179733276e-02, 1.163973137736320496e-01, 6.575657427310943604e-02, 4.889025911688804626e-02, -1.322304755449295044e-01, -8.685760200023651123e-02, 7.033129781484603882e-02, 4.712234437465667725e-02, 6.741233170032501221e-02, -4.195097461342811584e-02, -9.131389856338500977e-02, 4.779220744967460632e-02, 1.159590575844049454e-02, 1.334006339311599731e-02, 2.289862371981143951e-02, -2.270734496414661407e-02, -6.626237183809280396e-03, -4.132542386651039124e-02, -7.184501737356185913e-02, 6.984499841928482056e-02, 3.394833207130432129e-02, 6.333331763744354248e-02, 8.120854943990707397e-02, -9.508261829614639282e-02, 1.447634100914001465e-01, -4.070918262004852295e-02, -1.117737814784049988e-01, 2.332848263904452324e-03, -1.264759749174118042e-01, 1.627969145774841309e-01, 6.955812126398086548e-02, 7.779833674430847168e-02, -7.448155432939529419e-02, 1.119201630353927612e-01, -8.211328089237213135e-02, 5.480255559086799622e-02, 3.944433107972145081e-02, -8.870152756571769714e-03, 4.735727328807115555e-03, 1.843027211725711823e-02, 7.691339403390884399e-02, 6.148440390825271606e-02, -7.862784713506698608e-02, 1.197761110961437225e-02, -1.083640232682228088e-01, 1.845876127481460571e-01, 1.177966967225074768e-01, 8.742740005254745483e-02, 7.732333987951278687e-02, 1.216893736273050308e-02, 1.750785410404205322e-01, 3.406473621726036072e-02, 2.820478938519954681e-02, 6.366357207298278809e-02, 3.953232616186141968e-02, 2.974433265626430511e-02, 2.542610093951225281e-02, 6.537708640098571777e-02, -9.027314372360706329e-03, -1.706226766109466553e-01, -1.149047259241342545e-02, 4.615905135869979858e-02, -1.955344527959823608e-02, -5.555788800120353699e-02, -1.072172671556472778e-01, -3.206166997551918030e-02, -2.886499743908643723e-03, -1.162655744701623917e-02, -1.931027136743068695e-02, 2.575243264436721802e-02, -2.479177340865135193e-02, -2.244077771902084351e-01, -1.650367528200149536e-01, -1.702189594507217407e-01, -8.186797797679901123e-02, -1.290491372346878052e-01, 2.666007727384567261e-02, -1.589018665254116058e-02, 1.630137412576004863e-04, 6.135903298854827881e-02, -1.613237895071506500e-02, -6.880638003349304199e-02, -9.349906444549560547e-02, 1.592791974544525146e-01, 1.199870556592941284e-01, -2.446633949875831604e-02, -1.896346360445022583e-02, 4.560950025916099548e-02, 2.040832117199897766e-02, 5.850165337324142456e-02, 1.051172614097595215e-01, 1.398175302892923355e-02, 1.236648261547088623e-01, 2.278468012809753418e-01, 7.969517027959227562e-04, -1.013762354850769043e-01, -9.724970161914825439e-02, -4.324370250105857849e-02, -6.401271373033523560e-02, -1.026303097605705261e-01, 1.460888888686895370e-02, 5.644480139017105103e-02, -6.168226711452007294e-03, 1.275875233113765717e-02, -2.076519876718521118e-01, -9.407793730497360229e-02, 5.641084164381027222e-02, -1.797870919108390808e-02, -7.222432643175125122e-02, 5.708117038011550903e-02, -1.798149012029170990e-02, -2.636669389903545380e-02, 2.774805948138237000e-02, -4.770855978131294250e-02, 1.949687302112579346e-01, -4.190567135810852051e-02, -4.270141199231147766e-02, -1.097028423100709915e-02, -1.418341100215911865e-01, 6.076185777783393860e-02, 3.355240449309349060e-02, 1.412953734397888184e-01, 1.078463792800903320e-01, 8.691555261611938477e-02, 8.355005085468292236e-02, 7.452894747257232666e-02, 6.708066165447235107e-02, 1.384237259626388550e-01, 1.036121025681495667e-01, -3.104190342128276825e-02, 2.750109322369098663e-02, -3.815853968262672424e-03, -1.613541506230831146e-03, 5.872550234198570251e-02, -9.078970551490783691e-02, -3.751075640320777893e-02, -6.898709386587142944e-02, 3.179036453366279602e-02, -1.199222169816493988e-02, 1.981658674776554108e-02, 7.602017372846603394e-02, -3.910569101572036743e-02, -2.499891072511672974e-02, -2.735189162194728851e-02, -1.450490653514862061e-01, 3.688913583755493164e-02, -1.357523538172245026e-02, 1.717407107353210449e-01, 6.254177540540695190e-02, -7.884584367275238037e-02, -2.332312287762761116e-03, -5.913190916180610657e-02, 1.435964107513427734e-01, 5.822734907269477844e-02, -1.585851609706878662e-01, -3.844860941171646118e-02, 2.899250760674476624e-02, 2.707234397530555725e-02, -7.974787615239620209e-03, 8.120469748973846436e-02, 7.837979122996330261e-03, 1.248162426054477692e-02, 3.408754616975784302e-02, -1.413899008184671402e-02, 9.603970497846603394e-02, 8.395827561616897583e-02, -1.040352508425712585e-01, -4.244836047291755676e-02, -1.095144003629684448e-01, -8.750783652067184448e-02, 4.972481727600097656e-02, -1.024350300431251526e-01, -3.269014880061149597e-02, 4.170730337500572205e-02, -1.287218183279037476e-01, 6.123629957437515259e-02, -1.437907014042139053e-02, 3.037892840802669525e-02, 1.942395605146884918e-02, -2.235650122165679932e-01, -1.155720800161361694e-01, -4.793551750481128693e-03, 6.760064978152513504e-03, -9.525889903306961060e-02, -5.984158813953399658e-02, -2.496937364339828491e-01, -1.540480926632881165e-02, 7.504222448915243149e-03, 8.994488045573234558e-03, -9.926272928714752197e-02, -1.344962120056152344e-01, -1.293920166790485382e-02, 1.242829300463199615e-02, -1.893896013498306274e-01, 1.222026720643043518e-01, 6.230010092258453369e-02, 2.383190672844648361e-03, -8.256250619888305664e-02, -1.884381175041198730e-01, 1.803613603115081787e-01, -4.210284724831581116e-02, -2.752481214702129364e-02, 9.950412809848785400e-02, 1.074891015887260437e-01, 1.630648225545883179e-02, 7.227532565593719482e-02, -2.677539549767971039e-02, 2.338179014623165131e-02, 1.861019581556320190e-01, -6.010174006223678589e-02, 4.859089106321334839e-02, 2.568019740283489227e-02, 1.148781254887580872e-01, -2.802916802465915680e-02, 1.786627061665058136e-02, -5.263666063547134399e-02, 2.672856673598289490e-02, -7.800772786140441895e-03, -1.222737133502960205e-01, -7.418853044509887695e-02, 8.350685238838195801e-03, -6.451909989118576050e-02, 7.191008189693093300e-04, 1.477566510438919067e-01, 1.096547232009470463e-03, 6.404352933168411255e-02, 4.148571938276290894e-02, -5.762314423918724060e-03, -8.198688924312591553e-02, -1.699154451489448547e-02, 4.353092983365058899e-02, -1.103542186319828033e-02, -4.328501224517822266e-02, -5.500037595629692078e-02, 8.829204738140106201e-02, 3.041017986834049225e-02, -5.809165164828300476e-02, -1.944357305765151978e-01, -8.357467502355575562e-02, 1.578759849071502686e-01, -1.038623694330453873e-02, -1.101220250129699707e-01, -8.065193146467208862e-02, -6.214390695095062256e-02, 1.105701848864555359e-01, -4.772953223437070847e-03, -8.909913152456283569e-02, -5.753212049603462219e-02, -3.109082281589508057e-01, -1.299539506435394287e-01, -1.041507422924041748e-01, -7.654059678316116333e-02, -1.160631403326988220e-01, -1.233443319797515869e-01, -2.502437531948089600e-01, -8.029849082231521606e-02, 1.445647515356540680e-02, -4.123809188604354858e-02, 7.756551355123519897e-02, -6.087471917271614075e-02, 4.070430248975753784e-02, 1.290082558989524841e-02, 3.515165299177169800e-02, 7.460294663906097412e-02, 1.810146123170852661e-01, -9.365308284759521484e-02, 4.448099434375762939e-02, 5.165924504399299622e-02, -4.524603113532066345e-02, 1.151711214333772659e-02, 1.134673580527305603e-01, 9.261257946491241455e-02, 9.516179561614990234e-02, 8.017063885927200317e-02, -1.648180931806564331e-02, -4.654959961771965027e-02, 9.168034046888351440e-02, -3.462070133537054062e-03, 3.060445562005043030e-02, -7.760748267173767090e-02, 3.790893405675888062e-02, -1.163589768111705780e-02, 1.117548346519470215e-02, 1.570031605660915375e-02, -4.567417129874229431e-02, 5.179759114980697632e-02, -3.890888392925262451e-02, -2.189473481848835945e-03, -4.657027125358581543e-02, 9.757878724485635757e-04, 2.787389419972896576e-02, -1.026017032563686371e-02, -1.245576962828636169e-01, -4.773736372590065002e-02, -1.320950239896774292e-01, -6.881338194943964481e-04, 7.069645822048187256e-02, -3.109691105782985687e-02, -6.024382635951042175e-02, 6.010587327182292938e-03, 1.091860681772232056e-01, 4.783044010400772095e-02, 4.723904654383659363e-02, 4.836361855268478394e-02, -1.184031590819358826e-01, -1.411003917455673218e-01, -9.931643307209014893e-02, -1.307586673647165298e-02, -9.542976319789886475e-02, 4.038126394152641296e-02, -2.024264484643936157e-01, -5.211910605430603027e-02, 2.703688293695449829e-02, -4.392006248235702515e-02, 8.933352679014205933e-02, -1.648285239934921265e-01, -9.907298535108566284e-02, -5.072880163788795471e-02, 1.636640168726444244e-02, 1.517625451087951660e-01, -1.109821815043687820e-02, 2.861857041716575623e-02, 4.173532500863075256e-02, 4.635865241289138794e-02, 1.163728442043066025e-02, 1.464823540300130844e-02, 5.204474553465843201e-02, 3.999971598386764526e-02, -1.948670484125614166e-02, 1.435023397207260132e-01, 1.258048564195632935e-01, 2.476050890982151031e-02, 6.312625110149383545e-02, -3.753161057829856873e-02, -5.572338402271270752e-02, -2.960913255810737610e-02, -3.755114600062370300e-02, -6.717144697904586792e-02, 1.152632012963294983e-02, -4.093492776155471802e-02, 1.131196320056915283e-02, 3.739926591515541077e-02, -2.991425339132547379e-03, 2.299449592828750610e-01, -7.010976225137710571e-02, 5.336724966764450073e-02, 9.666988998651504517e-02, 4.362013936042785645e-02, -3.335544839501380920e-02, -3.204151988029479980e-02, 1.170868501067161560e-01, 8.875833451747894287e-02, 1.053624972701072693e-01, 5.247256532311439514e-02, 9.855644404888153076e-02, 1.596545279026031494e-01, 4.628182947635650635e-02, -1.146723981946706772e-03, -4.957094416022300720e-02, -1.278874725103378296e-01, 2.126709371805191040e-02, -2.244131080806255341e-02, 4.238963872194290161e-02, 2.903645113110542297e-02, -4.435430094599723816e-02, 2.639066614210605621e-02, 1.232680156826972961e-01, 1.444150656461715698e-01, 1.971932649612426758e-01, },
{1.241997554898262024e-01, 2.655476033687591553e-01, 9.852402657270431519e-02, 2.032198943197727203e-02, -3.696739673614501953e-01, -2.940835803747177124e-02, -6.156077980995178223e-02, -8.236442506313323975e-02, 9.029396623373031616e-02, -6.460393965244293213e-02, -9.591436386108398438e-02, -1.295339614152908325e-01, 5.618929490447044373e-02, 1.461204290390014648e-01, 7.686121016740798950e-02, -1.045124083757400513e-01, -9.713654965162277222e-02, 5.363298952579498291e-02, -1.707632467150688171e-02, 2.299969270825386047e-02, -3.343566879630088806e-02, -5.645377933979034424e-02, -6.422179937362670898e-02, -1.163910888135433197e-02, 7.350756227970123291e-02, -3.268204927444458008e-01, -1.664889603853225708e-02, 2.533155679702758789e-01, 2.399831116199493408e-01, 6.929667294025421143e-02, -1.460726652294397354e-02, 5.865080654621124268e-02, 2.795085310935974121e-01, 1.391874253749847412e-01, 5.045563355088233948e-02, -1.507010497152805328e-02, 2.241806313395500183e-02, -1.236713770776987076e-02, 1.129028946161270142e-01, -8.942372351884841919e-02, -1.110307350754737854e-01, -1.891779829747974873e-04, -2.635643631219863892e-02, 8.443105965852737427e-02, 6.838165968656539917e-02, 7.369703054428100586e-02, -4.571237415075302124e-02, 7.586513459682464600e-02, 6.553523242473602295e-02, 1.691587641835212708e-02, 6.864621490240097046e-02, -1.167137920856475830e-01, -4.977710172533988953e-02, -5.815244466066360474e-02, -5.975868925452232361e-02, -1.186146400868892670e-02, 4.587803035974502563e-03, -1.875031739473342896e-02, 3.873985633254051208e-02, -2.535552084445953369e-01, -5.818685516715049744e-02, -1.178587898612022400e-01, 6.583696603775024414e-02, -3.304600417613983154e-01, -1.784336194396018982e-02, -1.360346525907516479e-01, -6.661016494035720825e-02, -6.237173452973365784e-02, 1.166525632143020630e-01, -1.226539909839630127e-01, -7.765878736972808838e-02, 7.751604914665222168e-02, -3.083252348005771637e-02, -1.756713353097438812e-02, -1.922323741018772125e-02, -3.367165625095367432e-01, 8.921682834625244141e-02, 3.593626320362091064e-01, 2.332714945077896118e-01, 1.204761639237403870e-01, -1.103989556431770325e-01, 1.009559407830238342e-01, 4.145603254437446594e-02, -2.157782390713691711e-02, -1.923525035381317139e-01, -1.147907748818397522e-01, -3.149959444999694824e-02, -4.142164811491966248e-02, -3.823528066277503967e-02, -1.391114480793476105e-02, -5.660781636834144592e-02, -5.338308215141296387e-02, 2.181429415941238403e-02, 8.161161094903945923e-02, -7.035810500383377075e-02, -5.784946680068969727e-02, 9.960661083459854126e-02, -1.563630066812038422e-02, -6.680882722139358521e-02, 3.295360505580902100e-02, 1.413409262895584106e-01, 1.373327672481536865e-01, -3.807368874549865723e-02, -1.405711323022842407e-01, -3.119575977325439453e-01, 1.121005266904830933e-01, -8.996189385652542114e-02, 1.276869773864746094e-01, -3.592418506741523743e-02, -5.930705741047859192e-02, -9.155455976724624634e-03, 2.050455063581466675e-01, 7.590362429618835449e-02, 3.632438555359840393e-02, 2.084513902664184570e-01, 6.386151909828186035e-02, 5.215149000287055969e-02, -1.245875805616378784e-01, 6.049716100096702576e-02, 7.210890948772430420e-02, -9.696883708238601685e-02, -3.111444239038974047e-04, -3.588254330679774284e-03, -3.839709237217903137e-02, 2.115166187286376953e-01, -4.079730808734893799e-01, -4.892363548278808594e-01, -9.010969847440719604e-02, 9.510049223899841309e-02, 3.909473866224288940e-02, 6.650198716670274734e-03, -8.521552383899688721e-02, 7.642388343811035156e-02, 1.295578926801681519e-01, 1.094021126627922058e-01, 1.975907012820243835e-03, 1.882395334541797638e-02, 6.281218677759170532e-02, 7.485526800155639648e-02, 3.971174731850624084e-02, 6.475251168012619019e-02, -1.549206525087356567e-01, 1.254487317055463791e-03, 3.183026239275932312e-02, 5.580879375338554382e-02, 2.336456030607223511e-01, 2.531260624527931213e-02, 4.500068351626396179e-02, 3.388739377260208130e-02, 1.021100357174873352e-01, -1.549257785081863403e-01, -2.488317340612411499e-02, 2.058723717927932739e-01, 2.315799146890640259e-01, 2.548035047948360443e-02, -5.465069785714149475e-02, -5.526959151029586792e-02, -7.562798261642456055e-02, -4.117352515459060669e-02, -9.139752388000488281e-02, -9.741795063018798828e-02, -1.100843027234077454e-01, -1.287797540426254272e-01, -1.389401555061340332e-01, -2.651486396789550781e-01, -3.975302726030349731e-02, -4.391593858599662781e-02, -3.971932455897331238e-02, -5.914038419723510742e-02, -7.696896791458129883e-02, 5.804472416639328003e-02, 9.816580265760421753e-02, -3.231462836265563965e-02, -6.348090711981058121e-03, -2.592721022665500641e-02, -1.098201870918273926e-01, 7.634369283914566040e-02, 6.928516179323196411e-02, 9.172826260328292847e-02, -6.914150714874267578e-02, 9.481991827487945557e-02, 7.097978144884109497e-02, -4.619344696402549744e-02, -1.998524554073810577e-02, -3.404383314773440361e-03, 3.481799364089965820e-02, 6.266527622938156128e-02, -3.736053768079727888e-04, 4.607789963483810425e-02, -5.199057981371879578e-02, 3.249328350648283958e-03, -7.166246324777603149e-02, 1.035054326057434082e-01, 1.162382736802101135e-01, 1.971784047782421112e-02, 1.746357977390289307e-01, 1.193420439958572388e-01, 1.796866506338119507e-01, 9.303754195570945740e-03, 1.220028921961784363e-01, -4.064213857054710388e-02, -6.562681496143341064e-02, -1.141910534352064133e-02, -8.578046225011348724e-03, 7.332148402929306030e-02, 2.146653458476066589e-02, -5.470788478851318359e-02, 6.041227653622627258e-02, 6.238632649183273315e-02, -3.459436446428298950e-02, -1.349289864301681519e-01, -4.415520653128623962e-02, 6.348410993814468384e-02, 5.059829726815223694e-02, -4.849217832088470459e-02, 4.465927928686141968e-02, -9.154150635004043579e-02, 2.426310069859027863e-02, 5.196491628885269165e-02, 8.484121412038803101e-02, -5.817119404673576355e-02, -1.193987950682640076e-01, 3.587158396840095520e-02, 4.719013348221778870e-02, 5.297153443098068237e-02, 1.658682674169540405e-01, 3.061804175376892090e-01, 1.194911971688270569e-01, -2.936307527124881744e-02, -3.215887546539306641e-01, 3.031492978334426880e-02, 4.906348884105682373e-02, 3.531467169523239136e-02, -6.394764035940170288e-02, -2.457594275474548340e-01, -6.888266652822494507e-02, -1.847164928913116455e-01, 2.824776619672775269e-02, -3.912563249468803406e-02, -4.312374442815780640e-02, -8.388312906026840210e-02, -1.284031849354505539e-02, 6.527235358953475952e-02, 7.496819645166397095e-02, -5.077730119228363037e-02, -6.924481131136417389e-03, -9.392022155225276947e-03, 9.087441139854490757e-05, 3.899122774600982666e-02, 1.060533672571182251e-01, -2.140398472547531128e-01, -1.577008515596389771e-01, -1.491583883762359619e-01, -8.411671221256256104e-02, -9.617409855127334595e-02, 1.154668480157852173e-01, -7.940675131976604462e-03, -2.254147455096244812e-02, -1.162815839052200317e-01, -1.038733869791030884e-01, 3.549427539110183716e-02, -6.110450485721230507e-04, -5.000066757202148438e-02, 1.659610867500305176e-02, -1.216170340776443481e-01, 4.004371538758277893e-02, 1.115618571639060974e-01, 1.129764690995216370e-01, 7.802695501595735550e-03, -5.079666897654533386e-02, 4.429442808032035828e-02, 6.298275291919708252e-02, 4.391859099268913269e-02, -1.457544509321451187e-02, -3.073514439165592194e-02, 8.215238898992538452e-02, 3.844186291098594666e-02, -7.061860710382461548e-02, -1.737506836652755737e-01, -3.499888181686401367e-01, 7.803563028573989868e-02, 1.505804955959320068e-01, 3.875763714313507080e-02, -8.549355715513229370e-02, -4.099852219223976135e-02, 2.363520488142967224e-02, 1.203389167785644531e-01, -1.063918620347976685e-01, 1.361113190650939941e-01, 4.888160899281501770e-02, 9.377541393041610718e-02, 1.258855313062667847e-01, 8.999528735876083374e-02, -3.900086879730224609e-02, 9.501394815742969513e-03, 2.436455786228179932e-01, 9.944888949394226074e-02, 3.589935228228569031e-02, -4.427853226661682129e-02, 4.270498827099800110e-02, -2.207974195480346680e-01, 6.725948303937911987e-02, 1.940722465515136719e-01, 1.423357725143432617e-01, 2.605905383825302124e-02, -3.047671914100646973e-01, -8.531189709901809692e-02, 1.011935397982597351e-01, 9.544273465871810913e-02, 5.615617707371711731e-02, -2.079555541276931763e-01, 2.861589379608631134e-02, -4.165584594011306763e-02, -5.580866709351539612e-02, -4.966822266578674316e-02, -1.736959666013717651e-01, 2.743775583803653717e-02, -5.347856506705284119e-02, -2.121059410274028778e-02, 4.447284340858459473e-02, -6.695786863565444946e-02, -3.019328974187374115e-02, -4.275305569171905518e-02, -2.426816150546073914e-02, 1.682117432355880737e-01, -4.801922664046287537e-02, 8.795809745788574219e-02, -7.182520348578691483e-03, 2.504443563520908356e-02, 5.645994842052459717e-02, -1.015962436795234680e-01, -4.355132207274436951e-02, 4.145886749029159546e-03, -8.206514269113540649e-02, -3.882615268230438232e-02, -3.204082697629928589e-02, 7.759807631373405457e-03, -1.861858963966369629e-01, 8.877134323120117188e-02, 3.161209449172019958e-02, 9.561194106936454773e-03, -1.020163297653198242e-02, -2.602343820035457611e-02, -8.928623795509338379e-02, -6.366121117025613785e-03, -6.437810510396957397e-02, -1.362131237983703613e-01, -1.137545108795166016e-01, 2.071579918265342712e-02, -5.546876229345798492e-03, 8.840594440698623657e-02, 9.710689634084701538e-02, -8.325607515871524811e-03, -9.212513267993927002e-02, -7.639987021684646606e-02, -2.349927127361297607e-01, -2.613007426261901855e-01, -7.947138696908950806e-02, 2.331457100808620453e-03, 6.047073379158973694e-02, -1.233456879854202271e-01, 2.502885088324546814e-02, 3.141599893569946289e-02, -5.463471263647079468e-02, -7.636824250221252441e-02, -5.128898471593856812e-02, -8.239373564720153809e-03, -6.067849695682525635e-02, -8.606649935245513916e-02, -6.468612235039472580e-03, -1.221876591444015503e-01, -1.553388983011245728e-01, 2.526128105819225311e-02, 3.029971569776535034e-02, 1.830498129129409790e-01, -8.401434868574142456e-02, -7.796167861670255661e-03, -3.051498532295227051e-02, -2.066819220781326294e-01, -2.563288211822509766e-01, -1.962307095527648926e-01, -2.279380410909652710e-01, 1.837465316057205200e-01, 1.117741018533706665e-01, 2.172904610633850098e-01, 3.819477930665016174e-02, 2.483066767454147339e-01, 2.286659479141235352e-01, 2.246255055069923401e-02, -3.645504713058471680e-01, -9.124748175963759422e-04, -1.049145311117172241e-01, -3.558699414134025574e-02, -7.719412446022033691e-02, -1.923925578594207764e-01, -7.219750434160232544e-02, -4.847830161452293396e-02, -8.101806975901126862e-03, 1.095408722758293152e-01, -6.666741520166397095e-02, },
{3.768699467182159424e-01, 2.170078754425048828e-01, 1.624323576688766479e-01, 8.784317225217819214e-02, -3.883467987179756165e-03, 1.150492280721664429e-01, 2.211196348071098328e-02, 1.732146441936492920e-01, -3.038633149117231369e-03, -1.055176705121994019e-01, -2.389140278100967407e-01, -2.109332680702209473e-01, -1.766043156385421753e-01, -1.851194500923156738e-01, -1.142502129077911377e-01, -1.318076997995376587e-01, -1.640488505363464355e-01, -1.358286142349243164e-01, -4.030755162239074707e-02, -7.662127166986465454e-02, -6.715273857116699219e-02, -4.374095797538757324e-02, 3.071287414059042931e-03, -6.041724234819412231e-02, 4.787568002939224243e-03, -1.500827968120574951e-01, 8.159353584051132202e-02, 2.101619094610214233e-01, 1.011152267456054688e-01, 8.889380842447280884e-02, -1.678604260087013245e-02, 1.166993100196123123e-02, 1.032012179493904114e-01, 4.909374192357063293e-02, 5.636766925454139709e-02, 7.953670620918273926e-02, 7.860748469829559326e-02, -8.378317952156066895e-02, 3.568359417840838432e-03, 3.237028373405337334e-03, -1.954653561115264893e-01, -3.870252892374992371e-02, 1.290814112871885300e-02, 8.786195516586303711e-02, -7.397054135799407959e-02, -2.590873092412948608e-02, 4.609800130128860474e-02, 1.735534816980361938e-01, 1.016795113682746887e-01, 1.218360513448715210e-01, 5.183697864413261414e-02, 6.080751493573188782e-02, 6.557378172874450684e-02, 1.149317026138305664e-01, 6.662498414516448975e-02, 6.960234791040420532e-02, 2.040665037930011749e-02, 1.629282161593437195e-02, 2.753096260130405426e-02, 1.064210236072540283e-01, 2.744615823030471802e-02, -2.372804284095764160e-01, -3.974123597145080566e-01, -1.773463338613510132e-01, 1.942539960145950317e-02, 2.588171698153018951e-02, -1.643719077110290527e-01, -3.445741832256317139e-01, -4.383557736873626709e-01, 1.877803727984428406e-02, -3.228991925716400146e-01, -3.274403810501098633e-01, -2.972706854343414307e-01, -2.567513287067413330e-01, -2.421990502625703812e-03, 2.629655413329601288e-02, 1.853991150856018066e-01, 1.988391391932964325e-02, 3.322750329971313477e-02, 1.117870211601257324e-01, 6.191036850214004517e-02, 3.780014067888259888e-02, 5.175904929637908936e-02, -4.149511083960533142e-02, 5.767070502042770386e-02, -2.178635075688362122e-02, -7.876773178577423096e-02, -2.003703266382217407e-01, -1.448535323143005371e-01, -8.625954389572143555e-02, -5.760172754526138306e-02, -2.241586335003376007e-02, -1.660893857479095459e-01, -7.684076577425003052e-02, -8.846805430948734283e-04, -2.419495880603790283e-01, -1.716801673173904419e-01, -7.836083881556987762e-03, 4.788931459188461304e-02, 1.005288511514663696e-01, -9.164262562990188599e-03, 1.725561320781707764e-01, 5.791911482810974121e-02, -1.892571449279785156e-01, -1.687352061271667480e-01, -6.703455001115798950e-02, 6.402745842933654785e-02, -2.877800026908516884e-03, -6.523233652114868164e-02, -9.472093544900417328e-03, -1.578569225966930389e-02, -5.460511427372694016e-03, 6.677555292844772339e-02, -8.444302529096603394e-02, 6.537209451198577881e-02, 2.860812246799468994e-01, -1.009122561663389206e-02, -1.812351122498512268e-02, 1.003920510411262512e-01, 3.570025786757469177e-02, 1.218662261962890625e-01, 3.274393081665039062e-02, 1.561533361673355103e-01, 2.873352356255054474e-02, -4.370426386594772339e-02, -1.419137865304946899e-01, -2.878924608230590820e-01, 1.801778376102447510e-01, 2.276445180177688599e-01, 1.887639909982681274e-01, 9.480807930231094360e-02, -6.342621892690658569e-02, -2.522199973464012146e-02, 1.063981503248214722e-01, 7.907110452651977539e-02, -1.626191660761833191e-02, 5.046150460839271545e-02, 9.364882484078407288e-03, 1.350011378526687622e-01, 9.897336363792419434e-02, -1.688544899225234985e-01, -4.308803007006645203e-02, 1.130871102213859558e-02, 1.707533001899719238e-02, 9.330636262893676758e-02, -1.963312178850173950e-02, 2.544992417097091675e-02, 8.288399130105972290e-02, -4.728648345917463303e-03, 9.862950444221496582e-02, -6.027824804186820984e-02, -1.363448612391948700e-02, 2.803673595190048218e-02, -2.069609425961971283e-02, 2.208832502365112305e-01, -3.686489909887313843e-02, -2.460762411355972290e-01, -1.924870163202285767e-01, -1.033715307712554932e-01, -2.596700191497802734e-01, -5.112130660563707352e-03, -1.291108876466751099e-01, -2.054440081119537354e-01, -3.256043791770935059e-01, -1.358077228069305420e-01, -3.025050759315490723e-01, -7.193603366613388062e-02, -1.611649692058563232e-01, -7.149674743413925171e-02, 1.214236300438642502e-02, 1.108442340046167374e-02, -1.649320423603057861e-01, -1.593291610479354858e-01, 1.987345702946186066e-02, 6.100826710462570190e-02, 4.742877185344696045e-02, 7.908337563276290894e-02, 1.938173472881317139e-01, 4.902996867895126343e-02, 5.447838455438613892e-02, 3.494188189506530762e-02, 7.111430168151855469e-02, 1.059547290205955505e-01, 1.775353997945785522e-01, 7.609144598245620728e-02, 5.266773700714111328e-02, 5.231229960918426514e-02, -4.778851568698883057e-02, -8.953253738582134247e-03, -5.105938296765089035e-03, -1.905741095542907715e-01, -9.152708947658538818e-02, -1.035434976220130920e-01, 4.385261237621307373e-02, -5.170506611466407776e-02, -4.426047671586275101e-03, 1.979071050882339478e-01, 1.710758358240127563e-01, -2.393828891217708588e-02, 9.736861288547515869e-02, 2.020470947027206421e-01, 1.616175919771194458e-01, 2.093469947576522827e-01, 4.356662929058074951e-02, 9.696271270513534546e-02, 1.217622682452201843e-02, 5.652664974331855774e-02, 1.030823141336441040e-01, 1.357176750898361206e-01, 1.040949765592813492e-02, -9.416458755731582642e-02, 4.382609948515892029e-02, -2.368448860943317413e-02, -1.515109185129404068e-02, -4.487007483839988708e-02, -4.719958454370498657e-02, 1.193631440401077271e-01, 4.978656023740768433e-02, -2.371679292991757393e-03, -1.359215844422578812e-02, 2.112782150506973267e-01, -8.398786932229995728e-02, -3.716971725225448608e-03, 1.228061132133007050e-02, -1.409219354391098022e-01, 1.641311794519424438e-01, 1.860966533422470093e-01, -1.842626952566206455e-03, 1.287375837564468384e-01, 1.110052168369293213e-01, 3.473852202296257019e-02, 4.547180980443954468e-02, 8.991241455078125000e-02, 1.322889775037765503e-01, -4.274659976363182068e-02, -5.417514592409133911e-02, -1.145097687840461731e-01, -3.001615107059478760e-01, -1.821799874305725098e-01, 1.748487651348114014e-01, -7.781319320201873779e-02, -2.752348221838474274e-02, -2.401819080114364624e-01, -1.452754884958267212e-01, -1.717283949255943298e-02, -4.045636206865310669e-02, -4.262940958142280579e-02, -8.753556013107299805e-02, -1.060487776994705200e-01, -4.563425853848457336e-02, -2.551381886005401611e-01, -1.159536689519882202e-01, -1.367065217345952988e-02, 8.466108888387680054e-02, 3.691420853137969971e-01, 1.668589934706687927e-02, -6.698601692914962769e-02, 3.979616984724998474e-02, 1.238603070378303528e-01, -4.998125601559877396e-03, 1.513757277280092239e-02, 1.271968428045511246e-02, -6.982360035181045532e-02, 3.860110300593078136e-04, 1.127221211791038513e-01, -2.888277545571327209e-02, 2.502953819930553436e-02, -9.548752754926681519e-02, -1.608539521694183350e-01, -2.419581636786460876e-03, 1.877622008323669434e-01, 2.039750218391418457e-01, 7.871269434690475464e-02, -3.724697045981884003e-03, 1.164354160428047180e-01, 1.435360163450241089e-01, 1.941659301519393921e-02, -6.994047015905380249e-02, 1.437942963093519211e-02, 4.340010881423950195e-02, 8.785867691040039062e-02, -2.922491170465946198e-02, -1.017625629901885986e-01, 3.388812392950057983e-02, 2.671291306614875793e-02, -1.188969910144805908e-01, -9.875890798866748810e-03, -5.027125775814056396e-02, 4.811576753854751587e-02, 1.114396080374717712e-01, -2.408405989408493042e-01, -4.186953231692314148e-02, 2.344366908073425293e-02, -9.285948239266872406e-03, 9.746152162551879883e-02, 1.228743940591812134e-01, 2.100412845611572266e-01, 1.062265187501907349e-01, -6.030804943293333054e-03, -1.987981051206588745e-02, -2.967007458209991455e-02, -7.456622086465358734e-03, 2.662230655550956726e-02, 3.666108474135398865e-02, 4.072744026780128479e-02, -2.713510692119598389e-01, -2.441818118095397949e-01, -2.900376915931701660e-01, -6.341610103845596313e-02, -4.956232011318206787e-02, -2.149496823549270630e-01, 1.073687449097633362e-01, -9.138433635234832764e-02, -3.392802178859710693e-01, 2.218001335859298706e-02, -1.841439306735992432e-01, -1.163220591843128204e-02, 2.902852296829223633e-01, 7.154396921396255493e-02, 3.805980458855628967e-02, -1.367752701044082642e-01, 2.904669754207134247e-02, 1.993161886930465698e-01, 9.516745060682296753e-02, 6.627818942070007324e-02, 2.302039861679077148e-01, 2.054493576288223267e-01, 6.158874183893203735e-02, 1.601221859455108643e-01, 9.687852114439010620e-02, 1.373628079891204834e-01, 1.417080909013748169e-01, 2.326321788132190704e-02, 4.199137166142463684e-02, 3.636945784091949463e-02, -2.594285905361175537e-01, -3.471912071108818054e-02, -2.599385082721710205e-01, 1.320537645369768143e-02, -8.978021144866943359e-02, 4.440366104245185852e-02, 1.591795682907104492e-02, -6.701010465621948242e-02, -4.919870942831039429e-02, 4.180676117539405823e-02, 7.507929950952529907e-02, -1.325329989194869995e-01, -3.072448633611202240e-02, 1.132247895002365112e-01, 9.598455578088760376e-02, -1.160027235746383667e-01, 3.552431473508477211e-03, 1.036362256854772568e-02, 1.419692020863294601e-02, -2.153082005679607391e-02, 9.826567256823182106e-04, -6.024717353284358978e-03, -3.248325288295745850e-01, -2.818614840507507324e-01, -1.231489703059196472e-01, 5.534170940518379211e-02, 1.561441719532012939e-01, 7.134269922971725464e-02, 2.959827147424221039e-02, -6.549096107482910156e-02, 1.734213531017303467e-01, 8.259277045726776123e-02, -2.757713943719863892e-02, 1.708466932177543640e-02, 3.167388262227177620e-03, -1.060305312275886536e-01, -1.270688921213150024e-01, 2.953607589006423950e-02, 1.659512817859649658e-01, 3.638936877250671387e-01, -6.731843203306198120e-02, 1.194410622119903564e-01, 2.457229346036911011e-01, -6.458583287894725800e-03, -3.650015592575073242e-02, -1.573823094367980957e-01, 1.477845162153244019e-01, 9.191516041755676270e-02, 1.002353206276893616e-01, -2.238142304122447968e-03, -7.614736258983612061e-02, 7.684110663831233978e-03, -8.129674941301345825e-02, -4.551681876182556152e-02, -3.718555718660354614e-02, 9.910060465335845947e-02, 5.150297656655311584e-02, -1.419443190097808838e-01, -2.406070753931999207e-02, -7.228664308786392212e-02, -1.919830590486526489e-01, -1.516167074441909790e-01, 3.392934054136276245e-02, -1.576553136110305786e-01, 1.591570973396301270e-01, },
