#ifndef _FC1_BIAS_
#define _FC1_BIAS_
#include "../op.h"
mylenet::BIAS fc1_bias[120] = {-1.269537024199962616e-02, 6.268037855625152588e-02, -2.840142697095870972e-02, -5.098123848438262939e-02, -1.119124069809913635e-01, 7.329161465167999268e-02, -2.351536974310874939e-02, 8.122334629297256470e-02, 1.964975334703922272e-02, -7.403335720300674438e-02, -4.508758708834648132e-02, 1.107963360846042633e-02, 2.649168297648429871e-02, 6.324186176061630249e-02, -2.124486118555068970e-02, -5.843353271484375000e-02, -1.832869090139865875e-02, 4.017020110040903091e-03, -4.887630045413970947e-02, -2.041829191148281097e-02, -2.310710959136486053e-02, -7.855539023876190186e-02, -1.663081347942352295e-02, -1.679208129644393921e-02, 9.913026541471481323e-02, 1.187311336398124695e-01, -5.104876589030027390e-03, -5.120362341403961182e-02, -2.316947095096111298e-02, 1.432250253856182098e-02, 3.574555739760398865e-02, 1.007959321141242981e-01, 4.363385215401649475e-02, -3.014024114236235619e-04, -4.364471510052680969e-02, 1.284187585115432739e-01, -2.578832022845745087e-02, -2.749570272862911224e-02, -4.120877012610435486e-02, 7.903906516730785370e-03, -5.046102404594421387e-02, -5.671560764312744141e-02, 9.608437865972518921e-02, -3.329226747155189514e-02, 8.599875122308731079e-02, 6.272024661302566528e-02, -2.542648650705814362e-02, 2.880695834755897522e-02, 4.420192912220954895e-02, 3.356637805700302124e-02, -7.258844375610351562e-02, -2.781691588461399078e-02, -6.577277928590774536e-02, -1.974822208285331726e-02, -5.526410415768623352e-02, 2.489231759682297707e-03, 4.533050581812858582e-02, -2.249694243073463440e-02, -1.323680952191352844e-02, 6.928865611553192139e-02, 2.352981455624103546e-02, -2.038041129708290100e-02, -5.163348093628883362e-02, -3.302896395325660706e-02, -6.347467005252838135e-02, 6.074117869138717651e-02, 4.354089871048927307e-02, -5.956995859742164612e-02, -1.892508752644062042e-02, -2.914723195135593414e-02, -6.472547352313995361e-02, -2.709864825010299683e-02, 7.912591099739074707e-02, 8.963576401583850384e-04, -1.052143424749374390e-02, 4.952911287546157837e-02, -2.702413499355316162e-02, 3.172300010919570923e-02, 3.813079092651605606e-03, 1.349837286397814751e-03, -5.364257469773292542e-02, 2.386382222175598145e-02, 3.094459697604179382e-02, -8.653739094734191895e-02, 8.599169552326202393e-02, -2.606346271932125092e-02, 6.627874076366424561e-02, 4.868268221616744995e-02, 1.663351356983184814e-01, -1.048213988542556763e-01, -2.429858967661857605e-02, -5.411929264664649963e-02, -6.065190955996513367e-02, 5.745239928364753723e-02, -2.519527636468410492e-02, 1.686959713697433472e-02, -1.741899922490119934e-02, 2.004640176892280579e-02, 2.244661003351211548e-02, 1.752119511365890503e-02, -3.531012684106826782e-02, 8.115794509649276733e-02, 6.853260844945907593e-02, 8.907218277454376221e-02, 4.052475467324256897e-02, -3.535638749599456787e-02, 5.111643671989440918e-02, 1.022545434534549713e-02, -3.182040527462959290e-02, -1.771609112620353699e-02, -9.737925231456756592e-02, -3.044945746660232544e-02, -4.850838705897331238e-02, -6.109341979026794434e-02, -4.216291755437850952e-02, -8.123403042554855347e-02, 4.921194911003112793e-02, -2.310959622263908386e-02, -2.260168641805648804e-02, -5.789277330040931702e-02, };

#endif