#ifndef _FC2_BIAS_
#define _FC2_BIAS_
#include "../op.h"
mylenet::BIAS fc2_bias[84] = {1.074881628155708313e-01, 1.700623705983161926e-02, -4.298431053757667542e-02, 1.116673871874809265e-01, 7.350219041109085083e-02, 6.279924511909484863e-02, 4.028834030032157898e-02, 7.468211650848388672e-02, 1.508642435073852539e-01, -3.878062963485717773e-02, -4.727723821997642517e-02, 5.445324629545211792e-02, 2.380684763193130493e-02, 8.981776237487792969e-02, -1.976699568331241608e-02, 1.117314910516142845e-03, 8.927223831415176392e-02, -8.095914125442504883e-02, -9.465212374925613403e-02, 8.610161952674388885e-03, 1.128029674291610718e-01, -4.238121584057807922e-02, -1.240450516343116760e-02, 7.310295850038528442e-02, -8.543330430984497070e-02, 2.820445597171783447e-02, 5.473448336124420166e-02, -6.369699537754058838e-02, -1.719605736434459686e-02, -3.856833279132843018e-02, 2.833179943263530731e-02, -6.830324232578277588e-02, 9.601058438420295715e-03, -7.343282457441091537e-03, -4.627026244997978210e-02, 1.668852865695953369e-01, -5.572529137134552002e-02, -8.758099377155303955e-02, 5.060058087110519409e-02, 5.991738662123680115e-02, 1.732047796249389648e-01, 9.656775742769241333e-02, -3.515358548611402512e-04, -8.879374712705612183e-02, -4.279099777340888977e-02, -9.518741071224212646e-02, -7.629265636205673218e-02, 5.855590850114822388e-02, -1.479756534099578857e-01, 1.464105397462844849e-02, 1.359083652496337891e-01, 1.122820153832435608e-01, 1.492489594966173172e-02, 2.184109389781951904e-02, 6.606546044349670410e-02, 3.369432315230369568e-02, 2.565437182784080505e-02, 2.347534894943237305e-02, 5.331695824861526489e-02, -3.975689411163330078e-02, 9.303791448473930359e-03, -5.118460208177566528e-02, 4.126023501157760620e-02, -8.182219415903091431e-02, 1.093318983912467957e-01, 2.231923341751098633e-01, 9.258738160133361816e-02, 2.560190856456756592e-02, -6.251080334186553955e-02, 2.011874616146087646e-01, -1.059046983718872070e-01, 2.982276957482099533e-03, -4.473192617297172546e-02, -9.548430889844894409e-02, 1.189656481146812439e-01, 1.756868697702884674e-02, 8.132343739271163940e-02, 1.104178950190544128e-01, -8.844953775405883789e-02, 2.531474828720092773e-02, -4.091204330325126648e-02, 1.597306877374649048e-01, 3.144982829689979553e-02, 1.309608072042465210e-01, };

#endif