#ifndef _FC2_WEIGHTS_
#define _FC2_WEIGHTS_
#include "../op.h"
mylenet::WEIGHT fc2_weights[84][120] = {{3.713099751621484756e-03, 1.002757847309112549e-01, 6.381919980049133301e-02, -5.179710686206817627e-02, 5.595452338457107544e-02, 9.317144751548767090e-02, -2.845563180744647980e-02, -7.389056682586669922e-02, -1.633752733469009399e-01, -1.356921158730983734e-02, 5.564755573868751526e-02, -2.933556400239467621e-02, -2.453459426760673523e-02, -7.645153254270553589e-02, -9.682673960924148560e-02, 7.786202430725097656e-02, 7.223507016897201538e-02, 5.854034796357154846e-02, 1.129967048764228821e-01, 2.424728125333786011e-01, 3.447325155138969421e-02, 1.064805984497070312e-01, 1.747743785381317139e-01, 5.009853467345237732e-02, -8.977527916431427002e-02, -1.573341637849807739e-01, 8.494333364069461823e-03, 4.521283507347106934e-02, 8.084472268819808960e-02, -4.877200350165367126e-02, 5.167090520262718201e-02, -2.673908695578575134e-02, 2.233042418956756592e-01, -6.494595855474472046e-02, 1.024287119507789612e-01, -9.924282133579254150e-02, 8.949503302574157715e-02, 4.330295324325561523e-02, -8.060232549905776978e-02, -7.011293619871139526e-02, -4.432247579097747803e-02, -3.652458777651190758e-03, -7.237225770950317383e-03, 6.603866070508956909e-02, -4.570010676980018616e-02, 1.043559461832046509e-01, -4.850205406546592712e-02, -5.004031583666801453e-02, 1.087914258241653442e-01, 1.608420461416244507e-01, -1.603089720010757446e-01, 6.220480799674987793e-02, -3.256247937679290771e-02, -2.102012932300567627e-02, 3.522058576345443726e-02, 2.599729783833026886e-02, -2.309837006032466888e-02, -1.548801958560943604e-01, 1.420409977436065674e-02, -9.721659868955612183e-02, 5.562463775277137756e-02, -7.496956095565110445e-05, 1.999603584408760071e-02, 1.118770390748977661e-01, -1.013921499252319336e-01, 9.594479203224182129e-02, -1.928634755313396454e-02, -9.991604834794998169e-02, -7.402674853801727295e-02, -1.405805163085460663e-02, 2.565534971654415131e-02, -3.416696563363075256e-02, -1.666676998138427734e-01, 1.305047236382961273e-02, 7.792136818170547485e-02, 2.197137326002120972e-01, 1.985262185335159302e-01, -6.082681193947792053e-02, -4.145329073071479797e-02, 1.341113299131393433e-01, 2.687934786081314087e-02, 3.746697679162025452e-02, 2.205337956547737122e-02, 1.342398971319198608e-01, 4.969279840588569641e-02, 8.933210372924804688e-02, -4.569795727729797363e-01, 1.156323626637458801e-01, -1.323371231555938721e-01, 4.799949005246162415e-02, -7.972230762243270874e-02, 5.276088789105415344e-02, 1.320456969551742077e-03, -1.818604953587055206e-02, -8.878677338361740112e-02, 1.053369492292404175e-01, 1.169653907418251038e-01, -1.532435417175292969e-02, 4.003305360674858093e-02, -4.126046784222126007e-03, 8.544800430536270142e-02, 1.297803968191146851e-01, -4.197910800576210022e-02, 1.767534166574478149e-01, -8.363202214241027832e-02, -5.024184286594390869e-02, -2.779483981430530548e-02, -3.162325620651245117e-01, -7.311426103115081787e-02, -1.428186595439910889e-01, 1.538334935903549194e-01, -5.556647107005119324e-02, 9.285540133714675903e-02, 9.419403038918972015e-03, -2.623121067881584167e-02, -1.325735598802566528e-01, -3.870381116867065430e-01, -6.161264330148696899e-02, 9.584563970565795898e-02, -4.628280922770500183e-02, },
{-1.232642773538827896e-02, 5.922868475317955017e-02, 4.180821031332015991e-02, 5.959778279066085815e-02, -1.840829104185104370e-01, -1.200806125998497009e-01, 1.320933103561401367e-01, -4.541982896625995636e-03, 2.220077216625213623e-01, -8.872595429420471191e-02, -6.487240642309188843e-02, 1.330740191042423248e-02, -7.100283354520797729e-02, 8.741655945777893066e-02, -2.945573255419731140e-02, 1.911917142570018768e-02, -2.369856536388397217e-01, 4.436268657445907593e-02, 4.064472019672393799e-02, -2.663880586624145508e-02, -1.486739143729209900e-02, -5.739979818463325500e-02, -2.030362188816070557e-01, -3.793069720268249512e-02, 7.151041924953460693e-02, -1.027934700250625610e-01, 1.550900638103485107e-01, -3.251413255929946899e-02, 7.220521569252014160e-02, 7.963471859693527222e-02, 5.103179439902305603e-02, 1.199186667799949646e-01, -2.965131215751171112e-02, 1.246433779597282410e-01, 1.063300389796495438e-02, 1.728320419788360596e-01, -1.189151406288146973e-02, -1.486065611243247986e-02, 5.319936573505401611e-02, -1.062325909733772278e-01, 6.163943931460380554e-02, -1.560679916292428970e-02, 9.571962803602218628e-02, -4.126036539673805237e-02, -1.629690080881118774e-01, -1.525210887193679810e-01, -2.237665839493274689e-02, 1.091314032673835754e-01, 6.583368033170700073e-02, 4.702980443835258484e-02, 2.099471092224121094e-01, 8.590875566005706787e-02, 1.449542492628097534e-01, -7.559996843338012695e-02, -1.316749304533004761e-01, -2.258185762912034988e-03, 1.337945014238357544e-01, 2.054883539676666260e-02, -3.551724925637245178e-02, 1.629766523838043213e-01, 1.465300749987363815e-02, 5.058303475379943848e-02, 1.065836548805236816e-01, 2.633216679096221924e-01, -1.693651080131530762e-03, -3.270009160041809082e-01, -7.145391404628753662e-02, -2.617029473185539246e-02, -8.234472572803497314e-02, -5.867708101868629456e-02, -1.649015210568904877e-02, -8.349485695362091064e-02, -6.506341695785522461e-02, 9.188600629568099976e-02, 2.042777687311172485e-01, -3.358171880245208740e-01, -7.840625196695327759e-02, -2.288489341735839844e-01, -1.591592282056808472e-01, -3.943486884236335754e-02, -1.306851059198379517e-01, -7.806807011365890503e-02, 7.994925230741500854e-02, 1.728675216436386108e-01, 1.604490876197814941e-01, 1.901002824306488037e-01, 6.673028320074081421e-02, 3.244776651263237000e-02, 6.025703623890876770e-03, 1.004741191864013672e-01, -2.510469220578670502e-02, -1.560710743069648743e-02, -6.971023231744766235e-02, -9.252974390983581543e-02, -3.314337506890296936e-02, 1.365799307823181152e-01, 1.001998484134674072e-01, -1.161878407001495361e-01, -2.234519720077514648e-01, 2.017007209360599518e-03, 9.260800667107105255e-03, -1.684464365243911743e-01, -1.985139697790145874e-01, 6.107567250728607178e-02, 2.145598381757736206e-01, 1.595896482467651367e-02, 4.343328624963760376e-02, 9.857711195945739746e-02, -3.476013243198394775e-02, 2.187906801700592041e-01, 1.162337884306907654e-02, -1.589488796889781952e-02, -8.760899305343627930e-02, 1.448053121566772461e-01, 7.386229932308197021e-02, 1.638215035200119019e-01, 1.827050559222698212e-02, -5.562582239508628845e-02, 9.517865628004074097e-02, -1.876038163900375366e-01, },
{4.817418754100799561e-03, -1.111840605735778809e-01, -4.124515131115913391e-02, -8.312941342592239380e-02, 2.246120199561119080e-02, 2.471150830388069153e-02, -3.522295132279396057e-02, 4.691384360194206238e-02, 2.208277434110641479e-01, 9.178017824888229370e-02, -6.994417309761047363e-02, 8.995781838893890381e-02, 4.237927123904228210e-02, -7.254377007484436035e-02, 7.028952240943908691e-04, 4.943671822547912598e-02, -1.402417272329330444e-01, -4.353485628962516785e-02, -8.734192699193954468e-02, -1.834268867969512939e-01, 3.949232399463653564e-03, -9.406821429729461670e-02, 6.938353925943374634e-02, 1.257409453392028809e-01, -6.182296201586723328e-02, -2.509223297238349915e-02, -8.980077505111694336e-02, 4.969763755798339844e-02, 1.392824947834014893e-02, 1.239727288484573364e-01, 3.302896395325660706e-02, -4.680699110031127930e-02, -2.031408697366714478e-01, -7.600823882967233658e-03, -9.050726890563964844e-03, -1.611940860748291016e-01, -4.111325740814208984e-02, -7.815015316009521484e-02, 5.234537646174430847e-02, 5.837232246994972229e-02, 7.745328545570373535e-02, 2.675554156303405762e-02, -5.244608968496322632e-02, -1.974788308143615723e-02, -5.083972215652465820e-02, -1.610080897808074951e-01, -2.040468156337738037e-03, -5.312300473451614380e-02, 1.938691884279251099e-01, -1.335237175226211548e-01, 5.570632219314575195e-02, 2.211870253086090088e-02, -4.966398701071739197e-02, -2.474394440650939941e-02, -1.217829436063766479e-01, -7.993919402360916138e-02, -1.392852328717708588e-02, -8.642455935478210449e-02, 9.289132803678512573e-02, 1.252104341983795166e-01, -1.146552562713623047e-01, 6.800910830497741699e-02, -8.400429040193557739e-02, -1.066816821694374084e-01, -3.024017065763473511e-02, -7.708676159381866455e-02, 2.421663841232657433e-03, -9.979998320341110229e-02, 6.346479058265686035e-02, -3.924502059817314148e-02, 6.853408366441726685e-02, -7.253234833478927612e-02, -1.072833091020584106e-01, 2.221567183732986450e-02, -6.037379056215286255e-02, -2.080857455730438232e-01, -1.631064862012863159e-01, 1.079390123486518860e-01, -3.309593349695205688e-02, -2.179757654666900635e-01, -5.023496970534324646e-02, -3.031599894165992737e-02, 7.938399910926818848e-03, -3.366016596555709839e-02, 3.329903259873390198e-02, -1.667829751968383789e-01, -7.697895169258117676e-02, 1.118509024381637573e-01, 5.644868314266204834e-02, 2.582538314163684845e-02, -6.597797572612762451e-02, 2.022518217563629150e-02, -1.196303963661193848e-02, -7.641045004129409790e-02, 6.735742092132568359e-02, 1.425112336874008179e-01, -2.832390367984771729e-03, 2.084259688854217529e-02, -4.033523425459861755e-02, 3.935421351343393326e-03, -9.761911630630493164e-02, -5.178554356098175049e-02, -5.538177117705345154e-02, 8.840571343898773193e-02, -1.613355986773967743e-02, 2.912453562021255493e-02, 1.027814149856567383e-01, -7.469629496335983276e-02, -1.218663156032562256e-02, 1.131253242492675781e-01, 2.533770911395549774e-02, -5.562163889408111572e-02, 1.112570390105247498e-01, 6.330820173025131226e-02, -7.936496287584304810e-02, -1.557474490255117416e-02, -1.081888973712921143e-01, 3.411908447742462158e-02, -4.668653476983308792e-03, -9.358268976211547852e-02, },
{3.616344183683395386e-03, 1.868368238210678101e-01, 4.641337320208549500e-02, -9.427302330732345581e-02, -2.239612191915512085e-01, 1.262989640235900879e-01, -7.874153554439544678e-03, 5.190286412835121155e-02, -2.107148244976997375e-02, -4.733268916606903076e-02, -7.776822894811630249e-02, -3.300215816125273705e-03, -1.201072856783866882e-01, 4.535396769642829895e-02, -4.521993547677993774e-02, 2.510553412139415741e-02, 4.332050308585166931e-02, 3.915045876055955887e-03, -7.252217829227447510e-02, -4.803654924035072327e-02, 4.582200199365615845e-02, -9.986381232738494873e-02, 1.627015620470046997e-01, 1.520882099866867065e-01, 8.324251323938369751e-02, 2.694599628448486328e-01, 2.170650660991668701e-01, -2.395930327475070953e-02, -8.449801802635192871e-02, 3.643660843372344971e-01, 9.148795157670974731e-02, -5.103993043303489685e-02, 1.064473167061805725e-01, 8.558627218008041382e-02, -6.641367077827453613e-02, 1.971891671419143677e-01, 3.907481580972671509e-02, 1.156599074602127075e-02, 4.084700718522071838e-02, -3.615989163517951965e-02, 4.453952610492706299e-02, 5.552326329052448273e-03, -2.136324159801006317e-02, 4.477398470044136047e-02, 3.180139884352684021e-02, 1.057569980621337891e-01, 1.765050180256366730e-02, -4.423719644546508789e-02, 1.538068354129791260e-01, 1.109825074672698975e-01, -1.048642173409461975e-01, -4.726724699139595032e-02, -1.059807371348142624e-02, 4.543954133987426758e-02, 6.630139052867889404e-02, -4.724405705928802490e-02, 1.095393523573875427e-01, -2.092629857361316681e-02, -1.053442731499671936e-01, 8.100921660661697388e-02, 2.365011349320411682e-02, -8.344217389822006226e-02, -4.339478909969329834e-02, -1.618164032697677612e-01, -1.030416600406169891e-02, 5.850796401500701904e-02, 1.450945287942886353e-01, -2.095230221748352051e-01, 2.239198051393032074e-02, 1.954986900091171265e-02, -3.173996806144714355e-01, 7.969173789024353027e-02, 3.751160576939582825e-02, 8.743280917406082153e-02, 1.611084118485450745e-02, 1.623618453741073608e-01, -1.381639540195465088e-01, 4.335811361670494080e-03, 7.180775701999664307e-02, 2.035689055919647217e-01, 3.419623896479606628e-02, 1.154832448810338974e-02, -7.779746083542704582e-04, -6.265582889318466187e-02, 1.622368246316909790e-01, -2.664623260498046875e-01, -3.087694989517331123e-03, 4.862251505255699158e-02, 5.071785300970077515e-02, 8.367550373077392578e-02, 7.083087414503097534e-02, -9.034501761198043823e-02, 1.249929890036582947e-02, 8.396802842617034912e-02, 1.104274205863475800e-02, -1.177867054939270020e-01, 2.502458915114402771e-02, -6.437078863382339478e-02, 8.196818083524703979e-02, -1.319684274494647980e-02, -1.561452001333236694e-01, -1.542530506849288940e-01, -3.450482711195945740e-02, -2.417934872210025787e-02, 1.472959816455841064e-01, -6.530126929283142090e-02, -8.609821647405624390e-02, 1.308965533971786499e-01, -7.627264410257339478e-02, -1.001513749361038208e-01, 1.077160984277725220e-01, -9.162077307701110840e-02, -9.471911191940307617e-02, 5.639255396090447903e-04, -6.496240943670272827e-02, -6.014590710401535034e-02, -2.708305604755878448e-02, -1.951676048338413239e-02, 1.270105242729187012e-01, -4.565576091408729553e-03, },
{-7.000113278627395630e-02, -1.230842247605323792e-01, 6.934303045272827148e-02, -2.412457577884197235e-02, -3.954209759831428528e-02, -1.100317686796188354e-01, -7.441076636314392090e-02, -1.769357919692993164e-01, -2.605948746204376221e-01, -7.865881919860839844e-02, 4.144418239593505859e-02, -5.588860809803009033e-02, 1.814372278749942780e-02, 3.222630592063069344e-03, 5.251657217741012573e-03, 9.177868068218231201e-02, 2.721193013712763786e-04, -2.182229608297348022e-02, 1.127808764576911926e-01, 8.110537379980087280e-02, -5.164683610200881958e-02, 1.454666107892990112e-01, 4.017546400427818298e-02, -1.071309745311737061e-01, -1.326535642147064209e-01, -9.059917181730270386e-02, -1.331410259008407593e-01, 7.372833788394927979e-02, 7.399106025695800781e-02, -3.156873583793640137e-01, 5.603714659810066223e-02, 1.227458491921424866e-01, 1.796431988477706909e-01, -1.500649899244308472e-01, -5.585244670510292053e-02, -1.336632072925567627e-01, 7.679061591625213623e-02, -1.703136600553989410e-02, -9.059516340494155884e-02, -1.833842247724533081e-01, -6.326959282159805298e-02, -8.173122256994247437e-02, 4.905763547867536545e-03, 4.204541817307472229e-02, -7.744142413139343262e-02, 3.386757150292396545e-02, 8.136071264743804932e-02, 4.576438665390014648e-02, 1.775401532649993896e-01, 7.814661413431167603e-02, 7.278161495923995972e-02, -5.515925586223602295e-03, -4.178935289382934570e-02, 5.180784687399864197e-02, -7.378299534320831299e-02, -3.148908540606498718e-02, 1.163137704133987427e-01, -2.030510604381561279e-01, 1.436158418655395508e-01, 1.151125952601432800e-01, -1.365710701793432236e-02, 2.319334633648395538e-02, 1.183620989322662354e-01, 1.670987904071807861e-01, -4.047159850597381592e-02, 1.020707003772258759e-02, -1.855880469083786011e-01, -1.216487865895032883e-02, -1.006227582693099976e-01, -3.723902627825737000e-03, 1.052715405821800232e-01, -3.431458026170730591e-02, 3.462724760174751282e-02, 5.033851414918899536e-02, 2.100955545902252197e-01, -1.094069108366966248e-01, -1.011888217180967331e-02, 7.125946879386901855e-02, 1.336587369441986084e-01, -1.021154299378395081e-01, -9.785182029008865356e-02, 4.812815785408020020e-02, 1.747966557741165161e-02, 1.760741472244262695e-01, 1.001897174865007401e-02, 4.100367426872253418e-02, -3.085272014141082764e-01, 1.144551113247871399e-01, -2.028873004019260406e-02, 1.038586273789405823e-01, -8.553190529346466064e-02, 4.058577492833137512e-02, -6.809065490961074829e-02, -1.078358441591262817e-01, 2.875373233109712601e-03, -8.118534088134765625e-02, -5.542062968015670776e-02, 2.419819682836532593e-02, -8.627332001924514771e-02, 1.326251775026321411e-01, -5.939533933997154236e-02, 3.521071746945381165e-02, 8.479537069797515869e-02, 4.040687158703804016e-02, -1.579341478645801544e-02, -6.025677919387817383e-02, 2.600591629743576050e-02, 2.492388635873794556e-01, -2.474725060164928436e-02, 1.936477608978748322e-02, 1.574302166700363159e-01, -2.333029545843601227e-02, 1.515675038099288940e-01, 1.737009584903717041e-01, 6.875757873058319092e-02, 6.766075640916824341e-02, 7.687459141016006470e-02, 3.591915220022201538e-02, -1.185283437371253967e-01, -1.168272495269775391e-01, },
{-3.182511404156684875e-02, 1.783348470926284790e-01, -4.733433201909065247e-02, 4.792047664523124695e-02, -1.623961925506591797e-01, -9.047136455774307251e-02, -2.124584745615720749e-03, 6.580724567174911499e-02, 3.077168166637420654e-01, -3.124099224805831909e-02, 3.506881184875965118e-03, -3.299925848841667175e-02, 3.432892635464668274e-02, -6.039232388138771057e-02, -9.647613018751144409e-02, 2.624521218240261078e-02, -4.921792075037956238e-02, -4.871584940701723099e-03, 7.015572488307952881e-02, 6.185188889503479004e-02, -7.568249944597482681e-03, -1.611800938844680786e-01, 9.937942028045654297e-02, 7.860597968101501465e-02, 3.651544451713562012e-02, 1.092029064893722534e-01, 6.992025673389434814e-02, 5.525711923837661743e-02, -2.306311950087547302e-02, 2.332821339368820190e-01, 5.214509367942810059e-02, -4.393706843256950378e-02, 1.486625969409942627e-01, 4.865803569555282593e-02, 3.566490113735198975e-02, 1.463404446840286255e-01, -8.958608843386173248e-03, -1.071429550647735596e-01, 8.794243633747100830e-02, 4.246895015239715576e-02, -8.458141982555389404e-02, -3.097580745816230774e-02, 9.694914519786834717e-02, -6.155356019735336304e-02, 5.905626714229583740e-02, -5.951124709099531174e-03, -2.155039459466934204e-02, -7.211665064096450806e-02, -4.088010638952255249e-03, 1.025696471333503723e-01, 5.821417644619941711e-02, 6.345745176076889038e-02, -1.890954673290252686e-01, 4.020642861723899841e-02, -1.624266803264617920e-01, -8.240004628896713257e-02, 1.988827809691429138e-02, 2.182065844535827637e-01, 1.041672006249427795e-02, 1.621344834566116333e-01, -1.360318362712860107e-01, -7.762795686721801758e-02, -1.189059242606163025e-01, 7.138733565807342529e-02, 2.884765155613422394e-02, -1.595173925161361694e-01, 4.931536689400672913e-02, -8.840001374483108521e-02, -2.187865823507308960e-01, -4.830695223063230515e-03, -1.253072470426559448e-01, -5.746017396450042725e-02, -1.757955178618431091e-02, -8.214827626943588257e-02, 5.498426035046577454e-02, -8.291376382112503052e-02, -4.453809186816215515e-02, 3.686828166246414185e-02, 1.658635139465332031e-01, 4.182333126664161682e-02, 4.239260405302047729e-02, 3.556489944458007812e-02, 4.617217183113098145e-02, -1.765170507133007050e-02, 1.377314627170562744e-01, -1.884995102882385254e-01, 1.072836369276046753e-01, 7.401580363512039185e-02, 4.282684251666069031e-02, 1.478199381381273270e-02, 4.624342918395996094e-02, -7.132667303085327148e-02, 9.818311035633087158e-02, 1.420733779668807983e-01, -6.625961512327194214e-02, 1.659035831689834595e-01, 8.151153475046157837e-02, 2.125429175794124603e-02, 6.847982108592987061e-02, -4.023509100079536438e-02, 1.033037714660167694e-02, 3.243047371506690979e-02, 1.390591710805892944e-01, 1.280000954866409302e-01, 5.622341856360435486e-02, 2.148158615455031395e-03, -6.910254061222076416e-02, 1.423065960407257080e-01, -1.308688987046480179e-02, -3.235954418778419495e-02, 5.898701027035713196e-03, -3.641247376799583435e-02, -1.194832623004913330e-01, 4.060415178537368774e-02, -1.307441890239715576e-01, -4.382202774286270142e-02, -2.347175404429435730e-02, 6.657378375530242920e-02, 9.664837270975112915e-02, -1.000302881002426147e-01, },
{4.945546761155128479e-02, -1.034078225493431091e-01, 6.306520849466323853e-02, -6.890650093555450439e-02, 1.702008545398712158e-01, 2.020450495183467865e-02, -9.653051197528839111e-02, 7.869311608374118805e-03, 6.845124810934066772e-02, -1.445154845714569092e-01, 5.202822387218475342e-03, 5.895996466279029846e-02, 1.843866109848022461e-01, -7.436098903417587280e-02, -3.678049519658088684e-02, 7.291235029697418213e-02, -2.115064859390258789e-02, -4.097205400466918945e-02, -8.273008465766906738e-02, 7.230391353368759155e-02, -2.999925427138805389e-02, -3.475259989500045776e-02, 5.466260388493537903e-02, 9.564545750617980957e-02, -3.142483904957771301e-02, 5.054774880409240723e-02, 3.914107754826545715e-02, -2.789791114628314972e-02, 5.672632250934839249e-04, -1.747623234987258911e-01, 6.096203997731208801e-02, 4.285788536071777344e-02, -4.399047419428825378e-02, 5.359379202127456665e-02, -1.780192926526069641e-02, 1.871503144502639771e-01, 3.597707673907279968e-02, 3.587527945637702942e-02, 5.045207589864730835e-02, 2.397690340876579285e-02, 9.272877871990203857e-02, -1.778162643313407898e-02, -1.034884005784988403e-01, -8.285978436470031738e-02, 1.738706231117248535e-01, -2.313615381717681885e-02, 1.635264419019222260e-02, -7.622109353542327881e-02, -6.305122375488281250e-02, -2.202976495027542114e-01, -2.725485712289810181e-02, -1.611325889825820923e-02, 7.164423167705535889e-02, 6.674706190824508667e-02, 1.014465019106864929e-01, 7.544344663619995117e-02, -3.579779341816902161e-02, -2.728302776813507080e-02, 1.202789694070816040e-01, -2.741607129573822021e-01, 2.356884032487869263e-01, 1.611909270286560059e-02, 9.464470669627189636e-03, -2.655528485774993896e-02, -7.770614326000213623e-02, 1.764766573905944824e-01, -2.558724209666252136e-02, 9.709452092647552490e-02, -8.293821662664413452e-02, 7.282430678606033325e-02, -1.463194489479064941e-01, -5.265596136450767517e-02, 7.999049127101898193e-02, -2.262863516807556152e-02, 6.592063605785369873e-02, 2.751654013991355896e-02, -9.483453631401062012e-02, 2.570394575595855713e-01, -7.283594459295272827e-02, 9.147745370864868164e-02, -7.435827516019344330e-03, 2.848979085683822632e-02, -3.053545206785202026e-02, 2.434717416763305664e-01, -7.991528511047363281e-02, 1.821140795946121216e-01, -3.766543045639991760e-02, 2.234388142824172974e-02, 9.726992249488830566e-02, -5.298638250678777695e-03, 8.504857122898101807e-02, 7.870774716138839722e-03, 1.798582077026367188e-02, -1.010600775480270386e-01, -4.046931862831115723e-02, -2.164933364838361740e-03, 5.888808891177177429e-02, -1.228935495018959045e-01, -2.693473361432552338e-02, -9.348610788583755493e-02, 2.627701163291931152e-01, 9.097827970981597900e-02, -3.610846027731895447e-02, -1.453910954296588898e-03, 1.456747390329837799e-02, -3.935769200325012207e-03, 1.309589296579360962e-01, -2.232906669378280640e-01, 1.634261012077331543e-02, -3.342466056346893311e-01, -1.958357542753219604e-02, -2.802690677344799042e-02, -5.068782344460487366e-02, -2.460326105356216431e-01, -1.998119242489337921e-02, 3.306553140282630920e-02, 6.678733509033918381e-03, 4.091801494359970093e-02, 7.849293202161788940e-02, 3.898365795612335205e-02, },
{5.350698716938495636e-03, -2.177144400775432587e-02, -3.069786354899406433e-02, 3.353735897690057755e-03, 1.084384880959987640e-02, -8.061791956424713135e-02, -5.509063974022865295e-02, 2.499119192361831665e-02, 6.309133023023605347e-02, 4.128688201308250427e-02, -5.844342336058616638e-02, 4.160243272781372070e-02, -2.414978807792067528e-03, -1.810416430234909058e-01, -7.223080098628997803e-02, 3.504659608006477356e-02, -1.022281274199485779e-01, 9.035161882638931274e-02, 9.372268617153167725e-02, 2.194435894489288330e-02, -1.054474115371704102e-01, 7.973361760377883911e-02, -1.037409305572509766e-01, -1.070062145590782166e-01, -1.615310832858085632e-02, -3.097347319126129150e-01, -2.403368055820465088e-01, -4.043975099921226501e-02, -4.884157329797744751e-02, -7.024620473384857178e-02, -2.959380671381950378e-02, 2.113859802484512329e-01, 5.371301993727684021e-02, -5.010948702692985535e-02, -5.434810742735862732e-02, -2.979855239391326904e-02, 3.736164048314094543e-02, -7.253575325012207031e-02, -7.674802094697952271e-02, -1.871448010206222534e-02, -6.314467638731002808e-02, -9.186860918998718262e-02, 1.592644304037094116e-01, -4.869457706809043884e-02, -4.452777281403541565e-02, 8.444188535213470459e-02, 7.870783656835556030e-02, 4.159575328230857849e-02, 7.972272485494613647e-02, 3.005024045705795288e-02, -3.124791756272315979e-02, -4.797028377652168274e-02, -2.131938189268112183e-01, -6.322453171014785767e-02, -8.024276047945022583e-02, -3.999174758791923523e-02, 8.146138489246368408e-02, -2.473095059394836426e-02, -1.525223441421985626e-02, 1.059950590133666992e-01, -1.365028470754623413e-01, -3.854421526193618774e-02, 4.473740234971046448e-03, -1.906729675829410553e-02, 1.012373939156532288e-01, 5.340567231178283691e-02, 7.609979808330535889e-02, 2.845070138573646545e-02, -1.804651916027069092e-01, 7.806276530027389526e-02, 1.225151345133781433e-01, 5.901429057121276855e-02, 5.399100482463836670e-02, -3.163389489054679871e-02, -9.653840959072113037e-02, -1.507927477359771729e-01, -6.246058642864227295e-02, 4.833399876952171326e-02, 9.521172195672988892e-02, -2.566392719745635986e-01, -1.096817404031753540e-01, 3.234875202178955078e-02, 4.511990025639533997e-02, -7.175411563366651535e-03, 5.622154101729393005e-02, 1.116505563259124756e-01, -6.389493495225906372e-02, 1.130351722240447998e-01, 1.421942412853240967e-01, -1.065399646759033203e-01, 6.328041851520538330e-02, -1.084657683968544006e-01, -5.735950917005538940e-02, -2.100566215813159943e-02, 5.419617891311645508e-02, -9.699452668428421021e-02, -2.732969820499420166e-02, 5.984804034233093262e-02, 9.584958106279373169e-02, 1.208083927631378174e-01, -1.325386017560958862e-01, 2.035419642925262451e-01, -1.043657865375280380e-02, 1.768632978200912476e-01, 6.578049808740615845e-02, 5.999169126152992249e-02, 1.572349667549133301e-01, -8.333108574151992798e-02, -6.209079921245574951e-02, 8.351511508226394653e-02, -6.572213768959045410e-02, -4.684643074870109558e-02, -9.023702703416347504e-03, 1.079603433609008789e-01, -1.439313404262065887e-02, 6.210456788539886475e-02, -3.785341605544090271e-02, 1.247236132621765137e-02, -1.324087083339691162e-01, 1.047000437974929810e-01, },
{-6.662520766258239746e-02, 1.025714278221130371e-01, -1.217017397284507751e-01, -3.943803720176219940e-03, -9.383726865053176880e-02, 6.146073713898658752e-02, -2.705076523125171661e-02, -2.298657298088073730e-01, -1.580129414796829224e-01, -2.294009551405906677e-02, 4.554657265543937683e-02, -5.086418986320495605e-02, -1.677744984626770020e-01, 6.844989210367202759e-02, 3.197040408849716187e-02, -2.073891833424568176e-02, 3.760083392262458801e-02, -7.411594688892364502e-02, -4.875381477177143097e-03, -2.541867084801197052e-02, 1.256886124610900879e-02, 1.021887138485908508e-01, 9.356882423162460327e-02, 1.181775555014610291e-01, -1.368002407252788544e-02, 8.602491021156311035e-02, -8.171224594116210938e-02, -2.088198252022266388e-02, 3.232332319021224976e-02, 3.159977495670318604e-02, -1.685682684183120728e-01, 1.423198729753494263e-01, -1.016560271382331848e-01, 2.520639821887016296e-02, -3.342713788151741028e-02, 1.111628487706184387e-01, -1.925312727689743042e-02, -4.312127828598022461e-02, -2.840626053512096405e-02, -7.515831384807825089e-03, -5.258027464151382446e-03, -7.770224660634994507e-02, 1.365635246038436890e-01, -3.780049271881580353e-03, 4.239689186215400696e-02, 7.428874820470809937e-02, -1.081172842532396317e-02, -3.803150355815887451e-02, 5.300856195390224457e-03, 2.877203980460762978e-03, -5.737275630235671997e-02, 1.113015972077846527e-02, -7.350105792284011841e-02, 6.841260194778442383e-02, -8.727902919054031372e-02, 1.395639311522245407e-02, 1.707435697317123413e-01, 8.351426571607589722e-02, -5.912499129772186279e-02, 2.753185480833053589e-02, 6.325787305831909180e-02, -3.175359591841697693e-02, 3.017916902899742126e-02, -2.545471191406250000e-01, 7.555153965950012207e-02, 2.140818536281585693e-01, -5.926717445254325867e-02, 1.125273201614618301e-02, 6.060940399765968323e-02, -7.912272959947586060e-02, -1.315665990114212036e-01, 3.951395303010940552e-02, -1.240837294608354568e-02, 2.882384695112705231e-02, -8.784631639719009399e-02, 1.471507102251052856e-01, -6.037270277738571167e-02, -1.584782004356384277e-01, -2.031705155968666077e-02, 1.211579330265522003e-02, 5.078457668423652649e-02, -2.733945148065686226e-03, 3.992768749594688416e-02, -1.947516202926635742e-01, -1.797281801700592041e-01, -1.257510632276535034e-01, 1.253636321052908897e-03, 6.395623832941055298e-02, -2.441810071468353271e-02, 1.339327543973922729e-02, -1.661131158471107483e-02, -1.723410338163375854e-01, -7.610450964421033859e-03, -1.670303754508495331e-02, 3.183019906282424927e-02, -4.808013327419757843e-03, 4.169443994760513306e-02, 5.919418856501579285e-02, 3.274670988321304321e-02, -7.496847212314605713e-02, -4.207982495427131653e-02, 1.324883550405502319e-01, 3.839902952313423157e-02, 1.407517641782760620e-01, 5.514973774552345276e-02, 7.035116199404001236e-03, -3.284179419279098511e-02, 1.324160024523735046e-02, 6.923880428075790405e-02, 2.689911751076579094e-03, -6.918729096651077271e-02, -6.317230314016342163e-02, 4.219505563378334045e-02, -1.699600666761398315e-01, -1.698905080556869507e-01, -1.769597977399826050e-01, 5.176168307662010193e-02, 8.365924656391143799e-02, -2.446320280432701111e-02, -1.399609073996543884e-02, },
{9.276467561721801758e-02, 9.354833513498306274e-02, -9.681471437215805054e-02, 6.096367165446281433e-02, 9.037256240844726562e-02, 2.272535581141710281e-03, 1.064570024609565735e-01, -7.439588755369186401e-02, -1.902426630258560181e-01, 1.365589816123247147e-02, 2.863137051463127136e-02, -2.150887809693813324e-02, 1.119856238365173340e-01, 1.416943687945604324e-02, -1.008963808417320251e-01, 5.097031965851783752e-02, 4.759396985173225403e-02, -2.572711929678916931e-02, 1.028451472520828247e-01, 2.181992232799530029e-01, 5.998135730624198914e-02, 1.007393281906843185e-02, 1.160671934485435486e-01, 3.198898211121559143e-02, -8.607007563114166260e-02, -1.873128116130828857e-02, -3.432910144329071045e-02, -1.019776519387960434e-02, 1.496831513941287994e-02, 1.764423400163650513e-02, -7.332144677639007568e-02, -1.313915699720382690e-01, 1.175539288669824600e-02, 5.708099529147148132e-02, 9.554393589496612549e-02, -1.900661550462245941e-02, -3.203166276216506958e-02, 1.825703307986259460e-02, 7.520595192909240723e-02, -2.983722090721130371e-01, 3.496439009904861450e-02, -2.270666696131229401e-02, -1.796154975891113281e-01, -5.174972862005233765e-02, -1.158617213368415833e-01, 8.475167304277420044e-02, -2.190583571791648865e-02, -2.166223526000976562e-02, -7.435175124555826187e-03, 6.406691973097622395e-04, -6.600178033113479614e-02, 6.097854673862457275e-02, 2.917507849633693695e-02, 4.922984912991523743e-02, 1.080008223652839661e-01, 9.245122969150543213e-02, -4.016425460577011108e-02, -1.467000544071197510e-01, 3.217082098126411438e-02, -2.009655907750129700e-02, 2.804693952202796936e-02, 3.638664633035659790e-02, 5.643367767333984375e-02, 6.543706357479095459e-02, 2.960267663002014160e-02, -7.357691973447799683e-02, -1.155159771442413330e-01, 4.567378014326095581e-02, -9.671910852193832397e-02, -6.166380643844604492e-02, -3.960802778601646423e-02, 7.340552657842636108e-02, -2.326784878969192505e-01, 4.125389456748962402e-02, 2.247197367250919342e-02, 1.345220953226089478e-01, 1.369819641113281250e-01, 1.592977941036224365e-01, -8.034070581197738647e-02, 2.020324021577835083e-01, 9.460387751460075378e-03, -9.412167221307754517e-02, -2.474990673363208771e-03, 2.310882210731506348e-01, 8.199032396078109741e-03, 2.314096987247467041e-01, -2.657183706760406494e-01, 7.267527282238006592e-02, -3.146835267543792725e-01, 1.582946479320526123e-01, 1.403868850320577621e-02, 1.029062718152999878e-01, 3.009858913719654083e-02, -2.995160035789012909e-02, 5.086734145879745483e-02, 9.722922742366790771e-02, -6.929237395524978638e-02, -9.007736295461654663e-02, 3.486790135502815247e-02, -1.294840965420007706e-02, 1.206292137503623962e-01, 3.697047941386699677e-03, 4.125428572297096252e-02, 7.746575772762298584e-02, -6.321678310632705688e-02, -4.732415825128555298e-02, -3.380085108801722527e-03, -2.216436564922332764e-01, -3.332609310746192932e-02, -4.875518847256898880e-03, 1.440246552228927612e-01, 9.413716197013854980e-02, 7.879673689603805542e-02, -2.489267848432064056e-02, -7.164768129587173462e-02, -1.740073561668395996e-01, -3.206337690353393555e-01, 4.001490742666646838e-05, 1.504561305046081543e-01, -7.187169790267944336e-02, },
{-6.363105773925781250e-02, 3.513766825199127197e-02, -5.559643730521202087e-02, -3.609586879611015320e-02, 2.708856575191020966e-02, -1.393796801567077637e-01, -8.368255198001861572e-02, -9.848976135253906250e-02, 4.861654713749885559e-02, 1.203623414039611816e-02, -7.396019995212554932e-02, 8.255016058683395386e-02, 6.246794387698173523e-02, -6.008530408143997192e-02, 4.265464842319488525e-02, -6.476980634033679962e-03, -1.076181977987289429e-02, 6.124186888337135315e-02, 1.004381291568279266e-02, 4.877331200987100601e-03, -8.536624908447265625e-02, -1.292908042669296265e-01, -5.536231398582458496e-02, -4.768371954560279846e-02, -1.750918477773666382e-02, -9.134788997471332550e-03, -1.226549074053764343e-01, 4.904035851359367371e-02, 1.788509637117385864e-02, 2.543984539806842804e-02, -4.129848629236221313e-02, -1.669708490371704102e-01, -6.596342474222183228e-02, -1.031858697533607483e-01, 1.470362395048141479e-02, -7.925493270158767700e-02, 8.500666916370391846e-02, -5.721808969974517822e-02, -9.594990313053131104e-02, -4.939578473567962646e-02, -4.355147108435630798e-02, -7.780902832746505737e-02, -2.265522629022598267e-02, 7.087361812591552734e-02, -6.473594158887863159e-02, -1.033588871359825134e-01, -1.802738010883331299e-02, 5.553808808326721191e-02, -6.097570806741714478e-02, -2.870542369782924652e-02, -8.005148172378540039e-02, 6.280750036239624023e-02, -1.439138432033360004e-03, -4.995559900999069214e-02, -1.036169826984405518e-01, -4.439226910471916199e-02, -9.103032946586608887e-02, 3.576390445232391357e-03, 5.306611210107803345e-02, -7.877228409051895142e-02, -9.495393373072147369e-03, 3.874301910400390625e-02, -1.164430007338523865e-02, -6.497332453727722168e-02, 4.747378826141357422e-02, 3.569125756621360779e-02, -1.182606890797615051e-01, -7.927532494068145752e-02, -1.617333665490150452e-02, -6.697920709848403931e-02, 4.823232535272836685e-03, -1.824901998043060303e-02, -2.495269291102886200e-02, -9.082207083702087402e-02, -5.734186992049217224e-02, -3.816874464973807335e-03, -6.116380169987678528e-02, -1.933395862579345703e-02, -3.875659778714179993e-02, 2.079700306057929993e-02, 1.028205081820487976e-02, 1.409692317247390747e-02, 3.067326359450817108e-02, -3.064457885921001434e-02, -1.203388795256614685e-01, -7.770057767629623413e-02, -1.627645269036293030e-02, -4.031518474221229553e-02, -7.773521356284618378e-03, -8.974294364452362061e-02, 2.417179197072982788e-02, -5.182256177067756653e-02, -3.138194605708122253e-02, -6.232099235057830811e-02, -6.801918894052505493e-02, -8.139745891094207764e-02, 6.431991606950759888e-02, -1.072318255901336670e-01, -2.083813212811946869e-02, 8.899942040443420410e-03, -2.570003829896450043e-02, 4.891825467348098755e-02, -6.004360318183898926e-02, 5.065385624766349792e-02, -7.724280003458261490e-03, 4.126684367656707764e-02, -2.853698842227458954e-02, -3.532346338033676147e-02, 8.188971132040023804e-02, -4.572524130344390869e-02, -1.652813106775283813e-01, 7.511860132217407227e-02, -3.022187575697898865e-02, 3.177549317479133606e-02, -4.963360354304313660e-02, -2.452082373201847076e-02, 1.557547599077224731e-03, 6.979337334632873535e-02, -8.568712323904037476e-02, -1.237399969249963760e-02, },
{-8.398196101188659668e-02, 3.056899644434452057e-02, -7.404389232397079468e-02, -2.234872058033943176e-02, -7.608345150947570801e-02, -8.090329915285110474e-02, -1.908976137638092041e-01, -2.035829722881317139e-01, -1.917903684079647064e-02, 6.691359728574752808e-02, 2.146152220666408539e-02, 1.671239286661148071e-01, -2.482785284519195557e-02, -8.293837308883666992e-02, -3.040486387908458710e-02, 8.247524499893188477e-03, 2.065585106611251831e-01, 6.036639586091041565e-02, -6.526203453540802002e-02, 2.857709676027297974e-02, 4.562190175056457520e-02, -2.118563652038574219e-01, 1.045204475522041321e-01, 1.917453259229660034e-01, 1.020907238125801086e-01, 2.840053439140319824e-01, -3.168453276157379150e-02, -6.046830862760543823e-02, -8.398151397705078125e-02, 2.489024400711059570e-02, -1.628979295492172241e-02, 4.121559113264083862e-02, -1.234616562724113464e-01, -1.046303939074277878e-02, -4.283469542860984802e-02, -3.483220934867858887e-02, -4.500600323081016541e-02, -4.533284530043601990e-02, -9.086127579212188721e-02, -4.591209813952445984e-02, -1.202218886464834213e-02, 2.986590564250946045e-02, -9.663781523704528809e-02, -3.665942349471151829e-04, 2.235243171453475952e-01, 1.380299478769302368e-01, -3.476129472255706787e-02, 7.490086555480957031e-02, -4.634258151054382324e-02, 3.652905672788619995e-02, -6.075968220829963684e-02, 6.259989738464355469e-02, -8.793309330940246582e-02, -2.212013490498065948e-02, -1.411554366350173950e-01, 9.350748360157012939e-02, -1.001000702381134033e-01, -1.132500171661376953e-01, -5.181042104959487915e-02, -6.976696103811264038e-02, 1.156093105673789978e-01, 1.365330349653959274e-02, -1.002869457006454468e-01, 2.141885012388229370e-01, 2.305085770785808563e-02, 8.079630881547927856e-02, 6.220759823918342590e-02, -6.280953437089920044e-02, -9.594460576772689819e-02, 4.977243766188621521e-02, -7.434546947479248047e-03, -5.186861008405685425e-02, 5.140287429094314575e-02, -7.346202433109283447e-02, 2.070314586162567139e-01, -4.336598888039588928e-02, -1.460692565888166428e-02, 2.594181597232818604e-01, 4.577063396573066711e-02, -4.150426480919122696e-03, -1.023364588618278503e-01, -5.476386845111846924e-02, -6.948701292276382446e-02, 1.292121261358261108e-01, -1.743071824312210083e-01, -1.776261329650878906e-01, 1.375946700572967529e-01, 1.036324426531791687e-01, 1.052607223391532898e-01, -8.099143952131271362e-02, 5.803486704826354980e-02, -1.761273741722106934e-01, -5.311525985598564148e-02, -4.116976261138916016e-02, -6.020511314272880554e-02, 2.528508938848972321e-02, -5.791703611612319946e-02, 9.802124649286270142e-02, 1.170974224805831909e-01, -1.617164015769958496e-01, 2.419019937515258789e-01, -2.476161904633045197e-02, -4.378489404916763306e-02, -9.370323270559310913e-02, 1.152938008308410645e-01, 4.729285836219787598e-02, 2.112197726964950562e-01, 9.071031957864761353e-02, 7.262609153985977173e-02, -8.599311858415603638e-02, -6.563722342252731323e-02, -5.767388269305229187e-02, 4.302763938903808594e-02, 2.193222008645534515e-02, -1.714255660772323608e-01, -1.668800413608551025e-01, 3.310634195804595947e-01, 7.851070724427700043e-03, -1.944673955440521240e-01, -9.039804339408874512e-02, },
{-5.873041599988937378e-02, -8.432680368423461914e-02, -4.822181537747383118e-02, -3.473426774144172668e-02, 6.275179982185363770e-02, -6.433560699224472046e-02, 4.282587394118309021e-02, 4.186179861426353455e-02, 2.566273510456085205e-02, 7.152031362056732178e-02, -5.825964361429214478e-02, 4.735052213072776794e-02, 3.326196596026420593e-02, -2.081443928182125092e-02, -4.307039547711610794e-03, 7.845760136842727661e-02, 6.171481311321258545e-02, 5.961031466722488403e-02, -1.026047393679618835e-01, -9.971112012863159180e-02, -2.606497704982757568e-02, -9.263515472412109375e-02, -4.894637316465377808e-02, 3.660089895129203796e-02, -2.495423704385757446e-02, 4.227825254201889038e-02, -1.209932640194892883e-01, -3.112839162349700928e-02, 8.686585351824760437e-03, 5.286315083503723145e-02, -9.779348224401473999e-02, 3.890131786465644836e-02, -6.383818387985229492e-02, -1.055220514535903931e-01, -2.976043894886970520e-02, 4.773378744721412659e-02, -8.153161406517028809e-02, 6.248202919960021973e-02, -5.791633203625679016e-02, -6.980987638235092163e-02, 2.044581808149814606e-02, 4.108646512031555176e-02, -6.315588951110839844e-02, 6.711058318614959717e-02, 4.350428655743598938e-02, -4.817538708448410034e-02, 2.989566326141357422e-02, 9.096585214138031006e-02, -7.896409928798675537e-02, -9.026135504245758057e-02, -6.432327628135681152e-02, -3.656346723437309265e-02, -9.238700568675994873e-02, 4.514288529753684998e-02, -8.027943223714828491e-02, 9.036049246788024902e-02, 7.346294820308685303e-03, -1.393300294876098633e-02, -4.454028233885765076e-02, -5.500936135649681091e-02, -1.146191805601119995e-01, -2.552550286054611206e-02, 3.312152624130249023e-02, 4.594294726848602295e-02, -7.903806120157241821e-02, -4.890104290097951889e-03, -4.341327771544456482e-02, -1.110231056809425354e-01, -4.915899038314819336e-02, -3.526678308844566345e-02, 4.935981123708188534e-04, 9.116877615451812744e-02, -8.538976311683654785e-02, -6.052588671445846558e-02, -1.138648241758346558e-01, 5.914824083447456360e-02, -1.070144698023796082e-01, -4.933700710535049438e-02, -3.607467561960220337e-02, -7.841056585311889648e-02, -1.071113049983978271e-01, 8.778360486030578613e-02, -6.445083767175674438e-02, -7.970453798770904541e-02, 6.236301362514495850e-02, 3.616887703537940979e-02, -5.740176141262054443e-02, -2.806962234899401665e-03, -1.676955819129943848e-02, -4.939396679401397705e-02, 6.456988397985696793e-03, -1.082983836531639099e-01, -1.620840281248092651e-02, 4.417003318667411804e-02, 4.010540619492530823e-02, 1.062268204987049103e-02, -2.280040085315704346e-02, -1.338621601462364197e-02, -7.034585624933242798e-02, -2.012564241886138916e-02, -8.754000812768936157e-02, -5.884072557091712952e-02, -3.412602841854095459e-02, -4.269605129957199097e-02, -1.203550845384597778e-01, 4.771412909030914307e-02, -9.281942993402481079e-02, -1.922324998304247856e-03, -3.434044867753982544e-02, -1.094293147325515747e-01, -1.329726073890924454e-02, 1.346937566995620728e-02, -9.412233531475067139e-02, 2.143972739577293396e-02, -2.363392896950244904e-02, 3.781652450561523438e-02, 4.566910862922668457e-02, -4.562611132860183716e-02, -8.454553782939910889e-02, -9.659814834594726562e-02, },
{1.485576480627059937e-02, -5.619025602936744690e-02, -3.620268777012825012e-02, -9.088700637221336365e-03, -2.091989219188690186e-01, 3.736644238233566284e-02, 3.030065819621086121e-02, 2.951029315590858459e-02, 6.525754928588867188e-02, -2.877978235483169556e-02, 9.220087528228759766e-02, 3.151851892471313477e-02, 9.182614833116531372e-02, -1.474086474627256393e-02, -1.820757240056991577e-02, -4.088926687836647034e-02, 9.722421318292617798e-02, 9.674672782421112061e-02, 8.491519838571548462e-02, 2.014679834246635437e-02, -5.171442404389381409e-03, 1.946194171905517578e-01, 2.172065898776054382e-02, -1.110752597451210022e-01, 2.527081966400146484e-02, 6.734228879213333130e-02, -5.358680710196495056e-02, 3.043496608734130859e-02, -4.278901964426040649e-03, 4.566678777337074280e-02, 6.565486639738082886e-02, 1.023652181029319763e-01, 2.143656462430953979e-01, -8.143624663352966309e-02, 7.451359182596206665e-02, 1.513798236846923828e-01, 6.776031851768493652e-02, 4.289636388421058655e-02, -1.045045852661132812e-01, -5.480941012501716614e-02, 3.228944540023803711e-02, -1.400712411850690842e-02, 7.222771644592285156e-02, 1.365529460599645972e-04, 1.656742841005325317e-01, -3.139752894639968872e-02, -2.715179696679115295e-02, 7.731853425502777100e-02, 1.680307686328887939e-01, 1.023015230894088745e-01, -8.970469981431961060e-02, -1.018933951854705811e-01, -8.870659768581390381e-02, 4.129411280155181885e-02, -1.361193954944610596e-01, -7.885736972093582153e-02, 1.707731187343597412e-01, 1.079638525843620300e-01, -7.800552994012832642e-02, 8.467859774827957153e-02, -1.009290218353271484e-01, 6.468525528907775879e-02, -1.269730180501937866e-01, -2.861515879631042480e-01, 2.722208388149738312e-02, 2.010792121291160583e-02, -1.441787090152502060e-02, -2.560634911060333252e-01, -3.644888103008270264e-02, -1.207384921144694090e-04, 2.119981124997138977e-02, -2.520084939897060394e-02, 1.078799515962600708e-01, 3.006881475448608398e-02, -1.786624938249588013e-01, 1.267324984073638916e-01, -1.054586693644523621e-01, -1.399562358856201172e-01, 5.962426587939262390e-02, 6.336151808500289917e-02, -4.569623246788978577e-02, -3.736051172018051147e-02, 5.294488742947578430e-02, -2.335948795080184937e-01, 1.032640561461448669e-01, -1.589186489582061768e-01, 6.279999017715454102e-02, 7.167185842990875244e-02, 7.062107324600219727e-02, -1.561159342527389526e-01, 7.021402567625045776e-02, -1.243403032422065735e-01, 1.362837255001068115e-01, 6.093891710042953491e-02, -5.581487715244293213e-02, -2.935465984046459198e-02, 2.102775685489177704e-02, -4.509073868393898010e-02, 8.081454783678054810e-02, 3.534556180238723755e-02, -3.407270088791847229e-02, 2.077647596597671509e-01, -7.631923537701368332e-03, 7.226251065731048584e-02, 9.359167516231536865e-02, -1.181156281381845474e-02, -3.316001966595649719e-02, -1.699249297380447388e-01, -1.018017064779996872e-02, -9.062441438436508179e-02, -1.522581428289413452e-01, -5.026741698384284973e-02, 3.824945166707038879e-02, -5.592345818877220154e-02, -1.262468993663787842e-01, -4.951363801956176758e-02, 3.343234071508049965e-03, -3.643672913312911987e-02, 5.807065591216087341e-02, -1.145153567194938660e-01, },
{-8.545603603124618530e-02, 2.390805035829544067e-01, -3.763451799750328064e-02, 4.974941909313201904e-02, -2.864853739738464355e-01, 2.260056696832180023e-02, -1.874309405684471130e-02, 9.367092698812484741e-02, -3.946063295006752014e-02, -6.179202347993850708e-02, 6.420458853244781494e-02, 1.708030141890048981e-02, -2.395922094583511353e-01, -2.309340834617614746e-01, -4.345712438225746155e-02, -6.310110539197921753e-02, -1.086055412888526917e-01, -1.914488524198532104e-02, -3.885336220264434814e-02, -1.806540489196777344e-01, 2.153990417718887329e-02, -5.631384626030921936e-02, -5.366274714469909668e-02, -3.824533522129058838e-02, 5.628893896937370300e-02, -4.218984395265579224e-02, 1.180704459547996521e-01, -1.134358346462249756e-03, 6.994813680648803711e-02, 2.168930619955062866e-01, -9.044452011585235596e-02, 5.646863207221031189e-02, -1.728020906448364258e-01, 1.382482945919036865e-01, 1.477560028433799744e-02, -9.511540085077285767e-02, 6.983369588851928711e-02, -1.619751751422882080e-02, -7.413721084594726562e-02, -1.003372818231582642e-01, -3.810675814747810364e-02, -4.035876318812370300e-02, 1.292044967412948608e-01, 5.668160319328308105e-02, 6.627244502305984497e-02, -9.242658317089080811e-02, -3.523973748087882996e-02, 5.993103981018066406e-02, -6.523892283439636230e-02, 2.970745414495468140e-02, 1.380094587802886963e-01, 8.278894424438476562e-02, 1.424422021955251694e-02, -8.841454982757568359e-02, -2.042773067951202393e-01, 8.550618588924407959e-02, 1.190554499626159668e-01, -4.154713824391365051e-02, -2.032416760921478271e-01, 1.837167516350746155e-02, 1.027521118521690369e-01, 4.861991107463836670e-02, -2.902768924832344055e-02, 3.676989302039146423e-02, 6.178021430969238281e-02, -9.559335559606552124e-02, 5.261622369289398193e-02, -1.629305928945541382e-01, 7.967084646224975586e-02, 3.793783485889434814e-02, -2.317660152912139893e-01, 2.165320515632629395e-02, -6.048867106437683105e-02, 7.481692731380462646e-02, 1.105609387159347534e-01, -1.714585870504379272e-01, -1.174930632114410400e-01, -2.038019895553588867e-01, -6.748345494270324707e-02, -9.246252477169036865e-02, -1.355891376733779907e-01, 1.156185567378997803e-02, -2.801639027893543243e-02, -1.661030203104019165e-02, 1.045803278684616089e-01, 3.797569870948791504e-02, 3.386093676090240479e-01, 1.373930424451828003e-01, -1.227044090628623962e-01, -2.177117392420768738e-02, -5.597875267267227173e-02, -1.328846365213394165e-01, 4.848887026309967041e-02, -1.912979967892169952e-02, 3.876085579395294189e-02, -2.871463894844055176e-01, -1.588639430701732635e-02, -1.516423821449279785e-01, -8.665482699871063232e-02, -1.506459265947341919e-01, -2.365074455738067627e-01, 7.548508234322071075e-03, 2.547534927725791931e-02, -8.421872556209564209e-02, 1.010865792632102966e-01, -2.846604585647583008e-02, -6.507500261068344116e-02, 6.155004724860191345e-02, 8.227676153182983398e-02, -2.062365859746932983e-01, 4.073666036128997803e-02, -3.988442197442054749e-02, -1.128730997443199158e-01, 8.051643520593643188e-02, -1.238366514444351196e-01, -5.149212107062339783e-02, 6.153864413499832153e-02, -6.719087064266204834e-02, 7.880171388387680054e-02, 2.680109068751335144e-02, },
{6.948485970497131348e-02, -4.225840792059898376e-02, 1.148773804306983948e-01, -7.606828212738037109e-02, 2.226352542638778687e-01, -1.065187603235244751e-01, 1.553332209587097168e-01, -2.437376044690608978e-02, 1.213434338569641113e-01, -5.148930475115776062e-03, 7.211749255657196045e-02, 2.211282588541507721e-02, -1.598604395985603333e-02, -5.567488074302673340e-02, 5.732374638319015503e-02, 5.783551931381225586e-02, 1.937392055988311768e-01, 5.900348722934722900e-02, 5.457019433379173279e-02, -1.460049897432327271e-01, 2.809431590139865875e-02, -1.257648915052413940e-01, -2.012675106525421143e-01, 5.137880891561508179e-02, 2.129485756158828735e-01, 1.977536268532276154e-02, 1.178591549396514893e-01, -5.676019564270973206e-02, 4.109308123588562012e-02, 6.558000296354293823e-02, 9.887553751468658447e-02, -6.219896674156188965e-02, -9.547144919633865356e-02, 6.084783747792243958e-02, -5.278971791267395020e-02, 9.265926666557788849e-03, -6.122379750013351440e-02, 4.120755195617675781e-02, -6.981851905584335327e-02, 3.347245603799819946e-02, -6.551750749349594116e-02, 8.647226542234420776e-02, 7.068751752376556396e-02, -3.257676586508750916e-02, -7.686264812946319580e-02, -1.097780764102935791e-01, -6.231728196144104004e-02, -4.583409987390041351e-03, 1.356823649257421494e-02, 8.724574744701385498e-02, 8.513775467872619629e-02, 5.838285014033317566e-02, -3.809581696987152100e-02, 2.582222223281860352e-03, 3.698975965380668640e-02, -1.308255735784769058e-02, -1.217654645442962646e-01, 7.669321447610855103e-02, 2.216361090540885925e-02, 4.763090237975120544e-02, -2.541595138609409332e-02, -4.463899880647659302e-02, 5.229357257485389709e-02, 1.365128308534622192e-01, -3.010076843202114105e-02, -2.594397664070129395e-01, 4.844193533062934875e-02, -5.028869956731796265e-02, 1.347105801105499268e-01, -3.155291825532913208e-02, 3.291070833802223206e-02, -2.500332705676555634e-02, 1.569243073463439941e-01, 8.508824557065963745e-02, 3.465375304222106934e-02, -1.930802315473556519e-01, -2.149099484086036682e-02, 8.614215254783630371e-02, -1.198483482003211975e-01, -1.183313503861427307e-01, -5.292101297527551651e-03, 6.782799214124679565e-02, -2.180609665811061859e-02, 1.044686064124107361e-01, 1.639694720506668091e-02, -1.967974752187728882e-01, 2.930644154548645020e-01, -1.961624473333358765e-01, -7.207138091325759888e-02, -6.008228659629821777e-02, 7.861440069973468781e-03, 2.318365685641765594e-02, -6.604650616645812988e-02, 1.559708267450332642e-01, -3.864200785756111145e-02, 2.069337293505668640e-02, 1.276633795350790024e-02, 1.992543041706085205e-01, -4.671981558203697205e-02, -1.125242561101913452e-01, 5.258385092020034790e-02, -3.183119297027587891e-01, -1.239971164613962173e-02, -5.467246845364570618e-02, -2.016396075487136841e-02, -2.769148722290992737e-02, 1.670941710472106934e-01, 2.007863521575927734e-01, -5.520128086209297180e-02, 7.853487879037857056e-02, -3.152222186326980591e-02, 3.897747769951820374e-02, -2.151979692280292511e-02, 4.022532328963279724e-02, 5.076220259070396423e-02, 2.147629670798778534e-02, 2.012097984552383423e-01, 5.858819186687469482e-02, -1.866979710757732391e-02, 1.002754941582679749e-01, },
{-3.625937178730964661e-02, 6.878960877656936646e-02, 1.819522082805633545e-01, -6.783083826303482056e-02, -1.905602514743804932e-01, 1.622659526765346527e-02, 9.078767150640487671e-02, 7.400166243314743042e-02, 3.189642131328582764e-01, -7.514692842960357666e-02, -5.577020347118377686e-04, -2.281029522418975830e-02, -7.937149703502655029e-02, 5.448292568325996399e-02, 3.655193746089935303e-02, 6.430420279502868652e-02, -5.196453630924224854e-02, 5.433297902345657349e-02, -8.214989677071571350e-03, 3.258464857935905457e-02, 9.448937140405178070e-03, -2.481217533349990845e-01, -4.911997169256210327e-02, 2.060056328773498535e-01, 1.361741274595260620e-01, -4.866354539990425110e-02, -1.170177012681961060e-02, 2.650809101760387421e-02, -5.249944701790809631e-02, 2.082982361316680908e-01, -3.512788563966751099e-02, -3.301561251282691956e-02, 6.352940201759338379e-02, 1.118367351591587067e-02, -3.968651220202445984e-02, 1.554888784885406494e-01, -4.020329937338829041e-02, -1.254715174436569214e-01, -9.849602729082107544e-02, 3.511335700750350952e-02, -7.428282499313354492e-02, -1.186874601989984512e-02, -7.930997014045715332e-02, 1.101175323128700256e-01, 3.324119839817285538e-03, 3.516991809010505676e-02, 2.352340705692768097e-02, -4.906204715371131897e-02, 1.072896644473075867e-01, 1.210890244692564011e-02, -1.068508848547935486e-01, -3.376856818795204163e-02, -1.157203968614339828e-02, 7.506787776947021484e-02, 4.033757373690605164e-02, -4.809962213039398193e-02, 4.072958976030349731e-02, 1.820310950279235840e-01, -9.666987508535385132e-02, -1.373462437186390162e-04, -1.315050870180130005e-01, 7.474575191736221313e-02, -1.167292222380638123e-01, -7.725035306066274643e-03, 7.243472337722778320e-02, 2.330415882170200348e-02, 7.890386134386062622e-02, 1.365927513688802719e-02, -2.013312280178070068e-01, 1.884136721491813660e-02, -6.136645004153251648e-02, 1.309520006179809570e-02, -5.813099816441535950e-02, -4.506059736013412476e-02, -7.239188998937606812e-02, 1.179407909512519836e-01, -2.441360428929328918e-02, -1.109254807233810425e-01, -8.601957559585571289e-02, 5.273597314953804016e-02, -2.032302692532539368e-02, -2.991182170808315277e-02, -5.593441799283027649e-02, 6.751161068677902222e-02, 7.047837227582931519e-02, -1.909402459859848022e-01, -1.214827075600624084e-01, -2.706833928823471069e-02, -2.142337523400783539e-02, 1.148399859666824341e-01, 8.323284983634948730e-02, 9.052586555480957031e-02, 3.644750267267227173e-02, 1.135754510760307312e-01, -8.846131712198257446e-02, 2.162139415740966797e-01, 9.980206936597824097e-02, 9.789279848337173462e-02, 1.281586289405822754e-02, -7.786916196346282959e-02, -3.692639991641044617e-02, -1.052560135722160339e-01, -1.020656898617744446e-01, 1.747057288885116577e-01, 5.062950775027275085e-02, 7.324296981096267700e-02, -2.042743004858493805e-02, 2.137573957443237305e-01, 9.858973324298858643e-02, 1.445455700159072876e-01, 1.706390082836151123e-01, -5.876248329877853394e-02, 5.686645582318305969e-02, -1.027378663420677185e-01, 3.829758614301681519e-02, -1.067191436886787415e-01, -2.002150565385818481e-02, -9.601913392543792725e-03, 3.455489501357078552e-02, 2.060525305569171906e-02, },
{-6.779122352600097656e-02, 1.509704533964395523e-02, -3.791991621255874634e-02, -8.001282811164855957e-03, -5.808230955153703690e-03, -1.197944767773151398e-02, 1.766842789947986603e-02, -6.001796573400497437e-02, -1.484739687293767929e-02, -3.749641776084899902e-02, -7.057365030050277710e-02, 2.898217923939228058e-02, -3.030662611126899719e-02, -9.043528139591217041e-02, -6.480363011360168457e-02, 6.246957182884216309e-02, 1.982317119836807251e-02, 5.210441350936889648e-02, 3.104829043149948120e-02, -4.708825796842575073e-02, 8.854991197586059570e-02, -3.872999548912048340e-02, -4.043678194284439087e-02, -1.031941846013069153e-01, -1.254608929157257080e-01, -5.415204912424087524e-02, -1.324924756772816181e-03, 2.456039935350418091e-02, -1.242715865373611450e-02, 6.057769991457462311e-03, -1.047920137643814087e-01, -3.145158290863037109e-02, -1.008074656128883362e-01, 2.843602001667022705e-02, -1.711378246545791626e-02, -5.642354488372802734e-02, -4.168557748198509216e-02, 5.385953187942504883e-02, 3.839192911982536316e-02, -1.020569428801536560e-01, -7.789219170808792114e-02, 9.115725755691528320e-03, -1.036713179200887680e-02, 4.030014574527740479e-02, -8.230008184909820557e-02, -4.111652076244354248e-02, -1.733417063951492310e-02, -8.468318730592727661e-02, 6.496800482273101807e-02, -5.842421948909759521e-02, -7.145695388317108154e-02, 4.805906116962432861e-02, 1.371626183390617371e-02, 1.505233347415924072e-02, 2.180007100105285645e-02, -2.350711822509765625e-02, -5.030801519751548767e-02, 9.549871087074279785e-02, -3.582583740353584290e-02, -5.336505174636840820e-02, -5.389261990785598755e-02, -2.526041120290756226e-02, 2.566844783723354340e-02, -9.423939138650894165e-02, 3.876365721225738525e-02, -1.847800239920616150e-02, 2.102891355752944946e-02, -1.014708504080772400e-01, -1.089672222733497620e-01, 3.491137921810150146e-02, -8.011846244335174561e-02, 8.787737786769866943e-02, -1.324325203895568848e-01, -7.040349394083023071e-02, 1.451004389673471451e-02, -7.191491872072219849e-02, -3.582764044404029846e-02, 1.761038787662982941e-02, -1.009852811694145203e-01, -3.196302428841590881e-02, -6.436091661453247070e-02, 8.335860073566436768e-02, -9.274089336395263672e-02, -8.937126398086547852e-02, -1.997872628271579742e-02, 4.338860511779785156e-02, -4.233294352889060974e-02, -1.106752082705497742e-01, -7.852144539356231689e-02, 3.692188113927841187e-02, 6.204701960086822510e-03, -3.184642642736434937e-02, -2.849433012306690216e-02, -1.083547845482826233e-01, -1.010534912347793579e-02, 8.259421586990356445e-02, -8.790240436792373657e-02, -1.232535112649202347e-02, -9.295624494552612305e-02, 1.226905547082424164e-02, 6.117102131247520447e-02, -8.743248134851455688e-02, -5.653256550431251526e-02, -4.452882334589958191e-02, 1.516105979681015015e-02, 8.443930745124816895e-02, 7.433670759201049805e-02, -3.344956412911415100e-02, 4.986482858657836914e-02, -6.149354204535484314e-02, -3.815030679106712341e-02, 5.045093595981597900e-03, -4.958554729819297791e-02, 1.526034623384475708e-01, -1.044713556766510010e-01, -6.452394276857376099e-02, 4.631578922271728516e-02, -4.946066439151763916e-02, -9.672379121184349060e-03, -5.187732353806495667e-02, },
{-4.311032220721244812e-02, -1.729205548763275146e-01, -2.393615059554576874e-02, -2.015127614140510559e-02, 1.835504025220870972e-01, 1.539014093577861786e-02, 5.875088274478912354e-02, 8.895741403102874756e-02, -3.411528766155242920e-01, -2.068315260112285614e-02, -3.695343621075153351e-03, 8.648014068603515625e-02, 1.392034292221069336e-01, -8.178266137838363647e-02, -6.336136907339096069e-02, 1.840526051819324493e-02, 1.272417455911636353e-01, 6.881845742464065552e-02, 1.090125292539596558e-01, 4.873745143413543701e-02, -3.426821157336235046e-02, -6.612367182970046997e-02, -4.519948363304138184e-02, -1.527261435985565186e-01, 4.167338088154792786e-02, 1.440135389566421509e-01, 4.707043990492820740e-02, 7.188486307859420776e-02, 8.778819441795349121e-02, 4.177866503596305847e-02, 1.122953370213508606e-01, 3.878968209028244019e-02, -4.590952396392822266e-02, -5.966258421540260315e-02, 3.173355013132095337e-02, -1.065589189529418945e-01, -3.546791151165962219e-02, -4.510989785194396973e-02, -7.629221770912408829e-03, 9.531680494546890259e-02, 6.016797944903373718e-02, 4.449437931180000305e-02, 4.728059843182563782e-02, 9.464006870985031128e-02, 1.397180464118719101e-02, 7.435510307550430298e-02, -8.540854603052139282e-02, -4.869281128048896790e-02, 2.032059803605079651e-02, -6.300190091133117676e-02, 1.832089424133300781e-01, -6.077400594949722290e-02, 1.152182593941688538e-01, 3.222889825701713562e-02, 9.332454204559326172e-02, -9.751861914992332458e-03, -1.265403926372528076e-01, -2.506455779075622559e-01, 1.298657506704330444e-01, 2.242121286690235138e-02, 7.411294430494308472e-02, 2.923793345689773560e-02, -5.906222760677337646e-02, 1.322934329509735107e-01, -4.843953624367713928e-02, -1.937565505504608154e-01, -1.134702265262603760e-01, 5.461839959025382996e-02, 9.162691235542297363e-02, -3.799203038215637207e-02, 6.555511057376861572e-02, -3.860232606530189514e-02, 1.761190444231033325e-01, 9.577058255672454834e-03, 1.561441570520401001e-01, -2.097559422254562378e-01, -3.175207227468490601e-02, 1.135871261358261108e-01, -4.281096532940864563e-02, -5.880945920944213867e-02, -1.102804690599441528e-01, 2.836002595722675323e-02, 6.803926080465316772e-02, 1.531052887439727783e-01, 1.726901382207870483e-01, 3.408704325556755066e-02, -1.705325394868850708e-01, -2.368679791688919067e-01, -5.338333174586296082e-02, 7.254662364721298218e-02, -6.964482832700014114e-03, 1.917973458766937256e-01, 5.781197920441627502e-02, -4.928488284349441528e-03, -6.784153729677200317e-02, -1.221283599734306335e-01, 1.930219866335391998e-02, 9.250830113887786865e-02, -7.111044228076934814e-02, -1.344902999699115753e-02, -2.359889820218086243e-02, 9.622868895530700684e-02, 9.633548557758331299e-02, -5.998345836997032166e-02, -4.250790178775787354e-02, -7.541712373495101929e-02, 9.057777374982833862e-02, -4.533686116337776184e-02, -3.310158848762512207e-03, -9.459205716848373413e-02, -1.474776566028594971e-01, -6.944698840379714966e-02, 1.250383704900741577e-01, 1.810056716203689575e-01, 1.401097029447555542e-01, 1.969565451145172119e-02, 7.228119671344757080e-02, 2.082383492961525917e-03, 7.197009027004241943e-02, 7.383777946233749390e-02, },
{-4.950704053044319153e-02, -1.317971199750900269e-01, 2.820829628035426140e-03, -8.102566003799438477e-03, -1.485817730426788330e-01, -9.269430302083492279e-03, 1.056807767599821091e-02, -9.968177974224090576e-02, -5.303046479821205139e-02, 8.334470540285110474e-02, 2.626378089189529419e-02, 1.433949172496795654e-01, -2.574974484741687775e-02, -9.661284089088439941e-02, -4.500545561313629150e-02, -4.844917729496955872e-02, 6.395573168992996216e-02, 6.507705152034759521e-02, 3.355870768427848816e-02, -1.256210505962371826e-01, -1.867023110389709473e-02, 9.898564219474792480e-02, -7.662144303321838379e-02, -1.380130499601364136e-01, -1.585812121629714966e-01, -1.551577597856521606e-01, -1.679344475269317627e-01, -6.922854483127593994e-02, -4.733419418334960938e-02, -8.211173117160797119e-03, -1.429183334112167358e-01, -1.431941688060760498e-01, 1.070820763707160950e-01, -1.452261656522750854e-01, 4.364551603794097900e-02, -1.273589134216308594e-01, -6.923917680978775024e-02, -4.701573401689529419e-02, 1.649844087660312653e-02, -7.039824128150939941e-02, -1.941565424203872681e-02, -5.046434700489044189e-03, -4.596740379929542542e-02, 5.283342301845550537e-02, -7.072120439261198044e-03, -6.054433435201644897e-02, -3.168233484029769897e-02, 8.103175461292266846e-02, 5.145875737071037292e-02, -2.563734538853168488e-02, 1.311852503567934036e-02, 7.387839257717132568e-02, 1.012396141886711121e-01, -3.043277934193611145e-02, -1.916112750768661499e-02, 7.336494326591491699e-02, 9.783044457435607910e-03, 5.706999450922012329e-02, -2.627188563346862793e-01, -1.548415720462799072e-01, -5.427907779812812805e-02, 7.947573065757751465e-02, 1.718662977218627930e-01, 8.930562436580657959e-02, -5.070233345031738281e-02, -5.519784614443778992e-02, -8.293949998915195465e-03, 1.273143589496612549e-01, 1.964721595868468285e-04, 5.785960331559181213e-02, -1.158395409584045410e-01, 5.197387933731079102e-02, -1.997330188751220703e-01, -5.500761792063713074e-02, 6.387484073638916016e-02, -4.856979101896286011e-02, 1.328414380550384521e-01, 7.486239820718765259e-02, 1.113330647349357605e-01, -9.051126241683959961e-02, -6.870703399181365967e-02, -5.830556526780128479e-02, -9.439916908740997314e-02, -2.874556370079517365e-02, -1.133617013692855835e-01, -3.326648101210594177e-02, -1.803779006004333496e-01, 1.086082123219966888e-02, -1.095630228519439697e-01, 8.276303112506866455e-02, 4.471170902252197266e-02, -1.652605831623077393e-01, 5.814288556575775146e-02, -4.214627295732498169e-02, -5.928077176213264465e-02, -5.523898079991340637e-02, 8.591011166572570801e-02, -2.293188869953155518e-01, -6.488107144832611084e-02, 9.112691879272460938e-02, -6.535369902849197388e-03, -4.469780996441841125e-02, -7.135518640279769897e-02, -6.059310957789421082e-02, -1.196604222059249878e-01, 1.776224374771118164e-02, -1.094126179814338684e-01, -1.093626841902732849e-01, -1.602879166603088379e-02, 5.987059324979782104e-02, 5.168489739298820496e-02, 2.350355684757232666e-02, -7.877639681100845337e-02, 1.319618523120880127e-01, -1.417816281318664551e-01, -3.762443363666534424e-02, 4.305204376578330994e-02, 2.013468742370605469e-02, 3.525980561971664429e-02, -1.083540469408035278e-01, },
{-7.297663390636444092e-02, 6.936325691640377045e-03, -7.951293885707855225e-02, 6.576761603355407715e-02, 5.267456918954849243e-02, -6.705714017152786255e-02, -2.086066752672195435e-01, -8.492603898048400879e-02, 5.863566696643829346e-02, -5.902743339538574219e-02, 5.173315107822418213e-02, 2.623420022428035736e-02, -8.928480558097362518e-03, -1.463053226470947266e-01, 2.987563610076904297e-03, -2.325498685240745544e-02, -1.293341964483261108e-01, 4.605870693922042847e-02, -3.890710771083831787e-01, -4.221460223197937012e-02, 9.981957264244556427e-03, -8.527836948633193970e-02, -3.684829175472259521e-02, -1.016949042677879333e-01, 1.102938205003738403e-01, 2.695616185665130615e-01, -2.701676450669765472e-02, -7.874844223260879517e-02, -1.468755863606929779e-02, -1.963831484317779541e-01, -1.085406690835952759e-01, 1.291006505489349365e-01, -3.347860649228096008e-02, -9.185552597045898438e-03, 7.764122635126113892e-02, 1.725966297090053558e-02, 7.248867768794298172e-03, 5.159173160791397095e-02, 4.356409609317779541e-02, 3.534001484513282776e-02, 7.888305187225341797e-02, 1.467341370880603790e-02, 8.524134010076522827e-02, -4.179827868938446045e-02, 4.364252556115388870e-03, -7.810454815626144409e-02, 8.956990786828100681e-04, 1.026201806962490082e-02, -3.429620340466499329e-02, -1.183205395936965942e-01, -9.793067723512649536e-02, 5.977953970432281494e-02, 1.025640033185482025e-02, 8.633160591125488281e-02, -1.513026207685470581e-01, -9.983669966459274292e-03, -2.232754975557327271e-02, 1.306200213730335236e-02, -2.712216377258300781e-01, -1.210624650120735168e-01, -4.756161570549011230e-02, 5.428242310881614685e-02, 1.098865717649459839e-01, 1.621732711791992188e-01, -3.019863925874233246e-02, -9.973552823066711426e-02, -1.745910048484802246e-01, -3.912386670708656311e-02, -1.180814057588577271e-01, -3.735638782382011414e-02, 1.589497476816177368e-01, -7.175871729850769043e-02, 5.496263131499290466e-02, -5.848284810781478882e-02, 7.187805324792861938e-02, -8.303529769182205200e-02, -7.622753828763961792e-02, 1.659330576658248901e-01, -1.149002835154533386e-01, 9.823842346668243408e-02, 2.180572412908077240e-02, -5.836408212780952454e-02, 1.388557069003582001e-02, 1.149309985339641571e-02, -1.814855188131332397e-01, 2.135550789535045624e-02, -1.059219986200332642e-01, 3.114634938538074493e-02, 1.316168755292892456e-01, 7.476864010095596313e-02, 4.120038449764251709e-02, -1.268692780286073685e-02, -8.860833197832107544e-02, -1.024016514420509338e-01, -4.244909062981605530e-02, 1.515864133834838867e-01, 1.039189472794532776e-02, -8.573301136493682861e-02, -4.827081412076950073e-02, -9.066483378410339355e-02, 2.070844471454620361e-01, 5.794024467468261719e-02, -2.268340438604354858e-01, 1.655907630920410156e-01, 6.426024436950683594e-02, 5.810272693634033203e-02, 2.338437587022781372e-01, -2.401175200939178467e-01, 7.895473390817642212e-02, -8.411671966314315796e-02, -7.844550907611846924e-02, 8.945164829492568970e-02, -1.609109640121459961e-01, -1.901681572198867798e-01, 4.265757650136947632e-02, 7.489765435457229614e-02, 9.907072037458419800e-02, 6.474235653877258301e-02, -2.309309989213943481e-01, -1.077679619193077087e-01, },
{7.983054220676422119e-02, 1.431305557489395142e-01, 7.789785414934158325e-02, 7.913617044687271118e-02, -1.718339920043945312e-01, -3.158346936106681824e-02, -2.364319562911987305e-01, -1.762633919715881348e-01, -1.394483447074890137e-01, 6.632569432258605957e-02, 8.780804276466369629e-02, 1.779245287179946899e-01, -7.037793099880218506e-02, 1.266663670539855957e-01, 2.037862129509449005e-02, 5.920344218611717224e-02, 4.292451590299606323e-02, 3.258992359042167664e-02, -1.396494954824447632e-01, 1.122269853949546814e-01, 1.980873348657041788e-04, -1.569486558437347412e-01, 6.092301011085510254e-02, 2.844805419445037842e-01, 1.366067975759506226e-01, 3.842348158359527588e-01, 1.502205282449722290e-01, 3.461687639355659485e-02, 1.315080374479293823e-02, -3.507768735289573669e-02, -1.715409606695175171e-01, -1.308129429817199707e-01, 5.227871239185333252e-02, -1.455437093973159790e-01, -7.455678656697273254e-03, 6.974463164806365967e-02, -6.256108731031417847e-02, -4.197057709097862244e-02, 4.451922699809074402e-02, -3.718796744942665100e-02, -2.410355582833290100e-02, 4.492965340614318848e-02, -1.001081522554159164e-02, 3.777315840125083923e-02, 8.873703330755233765e-02, -2.318080700933933258e-02, 3.846313804388046265e-02, -5.798524990677833557e-02, -8.254186064004898071e-02, 6.037878245115280151e-02, -2.319783344864845276e-02, -7.185319066047668457e-02, 5.580522119998931885e-02, 4.190302640199661255e-02, 3.344470262527465820e-02, -4.998142644762992859e-02, 1.132629811763763428e-01, 4.076325334608554840e-03, -1.038536727428436279e-01, -2.494619041681289673e-02, 1.995159834623336792e-01, 9.650630876421928406e-03, -5.795457959175109863e-02, 2.294196635484695435e-01, 2.709942311048507690e-02, -5.088026076555252075e-02, -1.374897360801696777e-01, 7.612953893840312958e-03, 5.254310742020606995e-02, 2.143150754272937775e-02, -7.157815247774124146e-02, 7.160078734159469604e-02, 7.720903307199478149e-02, -6.174729391932487488e-02, 2.371545135974884033e-02, -1.918991655111312866e-02, 8.139948546886444092e-02, 1.255859136581420898e-01, 7.088578492403030396e-02, 1.360937058925628662e-01, -8.238675445318222046e-02, 2.820308506488800049e-02, 2.903464436531066895e-02, -2.867312543094158173e-02, -5.536453425884246826e-02, -3.276449441909790039e-02, 1.519941389560699463e-01, 2.997895888984203339e-02, 8.711197972297668457e-02, 6.302966177463531494e-02, -5.407334864139556885e-02, -8.407895267009735107e-02, -4.757427424192428589e-02, -1.998240053653717041e-01, -2.268676646053791046e-02, 9.997514076530933380e-03, 2.637736871838569641e-02, -7.260739058256149292e-02, -6.735421251505613327e-03, -2.671959996223449707e-02, 5.701512470841407776e-02, 7.590150833129882812e-02, -7.228241115808486938e-02, -2.089077085256576538e-01, 5.099222436547279358e-02, -3.848687047138810158e-03, 1.829003393650054932e-01, 2.558854818344116211e-01, 8.287131786346435547e-02, -1.530571728944778442e-01, 8.159157633781433105e-02, -3.261277824640274048e-02, 6.239087879657745361e-02, 2.434204518795013428e-02, -2.051832675933837891e-01, -1.445401012897491455e-01, 1.452873200178146362e-01, 1.381394565105438232e-01, -1.895976811647415161e-01, 1.208723802119493484e-02, },
{-7.191672176122665405e-02, 3.263248875737190247e-02, 6.167981028556823730e-02, -1.090849004685878754e-02, -1.631193011999130249e-01, 3.531881049275398254e-02, -8.281617611646652222e-02, -8.566811680793762207e-02, 8.027078956365585327e-02, -1.735824160277843475e-02, -5.806057713925838470e-03, -2.881630510091781616e-02, -1.097333058714866638e-01, 9.872486442327499390e-02, -4.165853839367628098e-03, 7.911762595176696777e-02, -5.388867482542991638e-02, -2.970642410218715668e-02, 1.601415872573852539e-01, 1.252983361482620239e-01, 5.086483433842658997e-02, 4.992035403847694397e-02, 4.066898673772811890e-02, 1.974811255931854248e-01, -2.222573459148406982e-01, -2.071581631898880005e-01, 1.817280054092407227e-01, -4.070921614766120911e-02, -3.718697279691696167e-02, -6.830145418643951416e-02, -3.657766059041023254e-02, -2.227960675954818726e-01, -6.732840836048126221e-02, -4.911677539348602295e-02, -5.677533894777297974e-02, -1.320812106132507324e-01, -5.019470676779747009e-02, 5.942634120583534241e-02, 6.387743353843688965e-02, -1.173392012715339661e-01, -7.964257895946502686e-02, -9.198855608701705933e-02, 1.027770247310400009e-02, -7.640963047742843628e-02, 2.517358958721160889e-02, 3.487998619675636292e-02, -2.516339905560016632e-02, -5.868725478649139404e-02, -9.243943542242050171e-02, 2.991073764860630035e-02, 3.631750866770744324e-02, -6.188963353633880615e-02, -4.288619384169578552e-02, 4.249666631221771240e-02, 1.054508835077285767e-01, -2.930985577404499054e-02, -1.415732204914093018e-01, -7.806435227394104004e-02, 1.616859249770641327e-02, -7.495139725506305695e-04, -8.828985691070556641e-02, -4.427184164524078369e-02, -3.479024767875671387e-02, 1.482667326927185059e-01, -3.731030225753784180e-02, 4.398902412503957748e-03, 1.515593230724334717e-01, 1.669880151748657227e-01, -6.846053898334503174e-02, 7.459227461367845535e-03, -1.778436475433409214e-03, 6.984704732894897461e-02, -2.343655675649642944e-01, 2.481686696410179138e-02, 7.569460570812225342e-02, 2.305806577205657959e-01, 1.694305092096328735e-01, 1.762202978134155273e-01, 3.294689953327178955e-02, 8.218724280595779419e-02, 5.059843510389328003e-02, 7.840079814195632935e-02, -7.623361051082611084e-02, 1.447664499282836914e-01, -1.352895200252532959e-01, 5.486266687512397766e-02, -1.697987690567970276e-02, -1.536317751742899418e-03, -9.900993108749389648e-02, 1.286319196224212646e-01, 3.527901135385036469e-03, -1.472820341587066650e-01, 4.065708070993423462e-02, -9.150333702564239502e-02, -5.972310528159141541e-02, 2.749546766281127930e-01, 9.334254078567028046e-03, 3.833567723631858826e-02, 1.017704233527183533e-01, -1.253609508275985718e-01, 1.257169693708419800e-01, -2.046709954738616943e-01, -1.393579994328320026e-03, 1.106837540864944458e-01, -1.894468218088150024e-01, -6.165927276015281677e-02, -1.547435112297534943e-02, 1.253822166472673416e-02, 4.109265655279159546e-02, -6.697994470596313477e-02, 2.706257104873657227e-01, -2.847319468855857849e-02, 1.721611022949218750e-01, -1.241082772612571716e-01, -2.117880284786224365e-01, -1.601166576147079468e-01, -7.195359468460083008e-02, 3.165253624320030212e-02, 6.436619162559509277e-02, 1.026966944336891174e-01, },
{-8.281647413969039917e-02, 1.400083303451538086e-01, -7.502367347478866577e-02, -8.976164460182189941e-02, -6.285611540079116821e-02, -2.066651172935962677e-02, -2.644283697009086609e-02, 3.070475347340106964e-02, 9.885693341493606567e-02, 1.012413203716278076e-01, -5.752383545041084290e-02, 9.875329583883285522e-02, -9.591203182935714722e-03, -1.294112205505371094e-01, 4.806501418352127075e-02, 3.545350208878517151e-02, 4.667417332530021667e-02, 1.537160202860832214e-02, -4.803439229726791382e-02, -3.496464490890502930e-01, 1.139515172690153122e-02, 4.252488538622856140e-02, -1.240029484033584595e-01, 1.879388839006423950e-02, 3.804634138941764832e-02, 1.043224260210990906e-01, -4.495358094573020935e-02, -1.607785187661647797e-02, -1.908389385789632797e-03, -7.055123150348663330e-02, -1.010994538664817810e-01, -5.163515731692314148e-02, -2.816200852394104004e-01, 1.388515233993530273e-01, -7.828654348850250244e-02, -1.973766088485717773e-02, -1.168525122920982540e-04, -2.104700170457363129e-02, 5.703721195459365845e-02, 1.221217811107635498e-01, 2.172444947063922882e-02, -5.027455091476440430e-02, 9.628378599882125854e-02, 2.305560931563377380e-02, -1.359238922595977783e-01, 1.211531907320022583e-01, 4.660044983029365540e-02, -3.319453075528144836e-02, -1.797829270362854004e-01, 1.814240403473377228e-02, 1.668341159820556641e-01, -9.311202913522720337e-02, -3.395006358623504639e-01, 8.840884082019329071e-03, -3.275077939033508301e-01, 5.462952330708503723e-02, -2.180884629487991333e-01, 1.944728344678878784e-01, 5.138430744409561157e-02, 9.041347354650497437e-02, -2.712146937847137451e-02, 5.765268206596374512e-02, -3.327982127666473389e-02, -1.810272485017776489e-01, 7.195737212896347046e-02, -1.170395761728286743e-01, 1.465584486722946167e-01, -2.549660578370094299e-02, -2.043005526065826416e-01, -2.113899588584899902e-02, 2.731817364692687988e-01, 4.288823902606964111e-02, 1.130744889378547668e-01, 7.337242364883422852e-02, -1.175685748457908630e-01, -2.329176664352416992e-01, -4.330108314752578735e-02, 2.134765088558197021e-01, 1.108493134379386902e-01, -1.965466514229774475e-02, -1.003073975443840027e-01, -7.940521091222763062e-02, 1.075024008750915527e-01, -2.099236845970153809e-01, -7.036909461021423340e-02, -2.225562930107116699e-01, 3.662322461605072021e-01, 1.863948106765747070e-01, 1.456074267625808716e-01, -3.139494657516479492e-01, 6.714870780706405640e-02, -1.045121848583221436e-01, -3.890909254550933838e-02, 2.679269993677735329e-03, -4.306004568934440613e-02, 1.380500197410583496e-01, -4.763503000140190125e-02, 1.237151771783828735e-01, 9.063288569450378418e-02, 6.112233176827430725e-02, -1.133476123213768005e-01, -4.160608649253845215e-01, 1.501964330673217773e-01, 8.371490985155105591e-02, -1.188913807272911072e-01, -3.244652599096298218e-02, 2.194057404994964600e-01, 2.679121680557727814e-02, -4.052229691296815872e-03, 9.400238841772079468e-02, 4.732272773981094360e-02, 6.994875520467758179e-02, -1.861362308263778687e-01, 3.943329676985740662e-02, -2.527819275856018066e-01, 1.898008286952972412e-01, 2.783713638782501221e-01, -9.971002116799354553e-03, -1.261759400367736816e-01, 9.269641339778900146e-02, },
{-8.192779868841171265e-02, 1.498757023364305496e-02, -4.885086789727210999e-02, -6.827499717473983765e-02, -7.830303162336349487e-02, -3.051877766847610474e-02, -1.226386502385139465e-01, -4.405780136585235596e-02, -2.875774353742599487e-02, 5.241264402866363525e-02, -2.411641180515289307e-02, -7.549556344747543335e-02, 8.320003002882003784e-02, -5.671957507729530334e-03, -6.796342134475708008e-02, 9.041602909564971924e-02, -3.637427836656570435e-02, 2.925969660282135010e-02, -7.090578228235244751e-02, 3.921445459127426147e-02, 3.766211122274398804e-02, 4.525337833911180496e-03, -1.459930688142776489e-01, -1.403751522302627563e-01, -1.452122330665588379e-01, 1.067036483436822891e-02, -7.266224175691604614e-02, 1.650584861636161804e-02, 2.929100394248962402e-02, -2.582175657153129578e-02, -2.682011947035789490e-02, -6.500277668237686157e-02, 1.911027729511260986e-02, -9.373984485864639282e-02, 2.279763296246528625e-02, -7.399044930934906006e-02, 5.444888025522232056e-02, -8.769722282886505127e-02, 4.074889700859785080e-03, -4.626846313476562500e-02, 5.394604802131652832e-02, -6.605270504951477051e-02, -3.621714189648628235e-02, -7.973171770572662354e-02, 2.516346424818038940e-02, 1.819785335101187229e-03, -2.471713721752166748e-02, -6.100601330399513245e-02, -9.112515300512313843e-02, -2.785286679863929749e-02, -9.819547086954116821e-02, -1.029599457979202271e-02, -1.286532580852508545e-01, -5.599299818277359009e-02, 3.197526559233665466e-02, 1.577003672719001770e-02, 1.532514393329620361e-02, -2.001935429871082306e-02, -9.235192835330963135e-02, -7.839327305555343628e-02, -5.673744715750217438e-03, 8.666533231735229492e-02, 5.733185913413763046e-03, 3.102737292647361755e-02, -8.181247115135192871e-02, -8.366405218839645386e-02, -5.800605192780494690e-02, -1.179595962166786194e-01, -1.088156178593635559e-01, 2.200760133564472198e-02, -3.005681559443473816e-02, 7.613538205623626709e-02, -8.696684241294860840e-02, -2.636235952377319336e-02, -1.400070786476135254e-01, -1.214517056941986084e-01, -3.987758979201316833e-02, -9.701812267303466797e-02, -2.645229920744895935e-02, -6.051530316472053528e-02, -8.706751465797424316e-02, -2.148680388927459717e-03, 4.227661341428756714e-02, -1.142790168523788452e-02, 9.277136623859405518e-02, -8.221966773271560669e-02, -1.624363362789154053e-01, -1.232881247997283936e-01, -2.439299374818801880e-01, -1.419387757778167725e-01, -6.152508035302162170e-02, -2.011725865304470062e-02, 2.737292647361755371e-02, 3.954541683197021484e-02, 7.948550581932067871e-02, 3.422949463129043579e-03, -9.196378290653228760e-02, -7.090244442224502563e-02, -2.376324124634265900e-02, -1.718186214566230774e-02, -1.663150787353515625e-01, -3.454255685210227966e-02, 7.554628700017929077e-02, -7.905634492635726929e-02, -1.336007714271545410e-01, -2.261023223400115967e-02, 1.063277944922447205e-03, 1.841996312141418457e-01, -5.672842264175415039e-03, -1.638760976493358612e-02, 9.219777584075927734e-02, 2.097267284989356995e-02, 4.034411534667015076e-02, -8.609324693679809570e-02, -9.465962648391723633e-02, -1.186289861798286438e-01, 1.098843291401863098e-01, -9.268597699701786041e-03, -1.934194006025791168e-02, -1.562467813491821289e-01, },
{-9.748615324497222900e-02, 1.113094091415405273e-01, -1.396380364894866943e-02, 4.429892450571060181e-02, 3.491972088813781738e-01, 1.136559620499610901e-01, 1.581352204084396362e-01, 1.931655555963516235e-01, 1.262698974460363388e-02, -5.067545920610427856e-03, -4.753297567367553711e-02, 1.614775508642196655e-02, 2.473333664238452911e-02, -3.874534741044044495e-03, 4.933966323733329773e-03, 6.310755014419555664e-02, -4.562361538410186768e-02, -4.795235395431518555e-02, -4.470345377922058105e-02, -1.004799306392669678e-01, -1.212050858885049820e-02, 1.241426765918731689e-01, -3.632472828030586243e-02, 5.871533229947090149e-02, 1.011114567518234253e-01, -1.139862909913063049e-01, 1.044040173292160034e-01, 2.348219417035579681e-02, -3.852823516353964806e-03, 6.596853584051132202e-02, -1.461709942668676376e-02, 1.354495584964752197e-01, -1.952992826700210571e-01, 1.220339685678482056e-01, -5.345883592963218689e-02, -5.718360189348459244e-03, -1.046427618712186813e-02, -4.957419633865356445e-02, 4.561674594879150391e-02, 1.118105128407478333e-01, 9.810354560613632202e-02, 8.390069007873535156e-02, -1.262908726930618286e-01, 4.557253792881965637e-02, 2.055040746927261353e-02, 3.161382675170898438e-02, 2.065493352711200714e-02, -2.980895340442657471e-03, 1.177969854325056076e-02, -1.221248283982276917e-01, 1.864341944456100464e-01, -5.816664546728134155e-03, 1.882349103689193726e-01, 2.091703563928604126e-02, 1.577991098165512085e-01, 7.312926650047302246e-02, -7.377419620752334595e-02, 1.811255812644958496e-01, 2.468451671302318573e-02, -1.410695351660251617e-02, -6.810892373323440552e-02, 1.851468719542026520e-02, 1.124811097979545593e-01, 4.994270205497741699e-02, -6.826663017272949219e-02, 5.550815910100936890e-02, -1.513568311929702759e-01, 1.236525103449821472e-01, 2.281896770000457764e-01, -5.044350028038024902e-02, 3.658759593963623047e-02, 4.215133562684059143e-02, 2.665663138031959534e-02, 7.814200222492218018e-02, -2.154510840773582458e-02, 2.158164791762828827e-02, -4.586726427078247070e-02, -2.202793061733245850e-01, -3.109379708766937256e-01, 3.379453718662261963e-02, 3.652162104845046997e-02, 8.151210844516754150e-02, -4.264639690518379211e-02, 1.927288174629211426e-01, 9.286197274923324585e-02, -1.458320673555135727e-02, 3.046704269945621490e-02, -1.203586012125015259e-01, -2.921862900257110596e-01, 1.497987508773803711e-01, -8.655890822410583496e-02, 1.605120599269866943e-01, -9.359580278396606445e-02, 4.858903586864471436e-02, 3.181939944624900818e-02, -1.094820871949195862e-01, 2.516151592135429382e-02, 1.436363905668258667e-01, -1.105835288763046265e-02, -1.344964802265167236e-01, -4.176589474081993103e-02, -7.814433425664901733e-02, -1.580977141857147217e-01, -4.105632193386554718e-03, -1.033316701650619507e-01, 1.987589057534933090e-03, -1.975318491458892822e-01, -1.046159192919731140e-01, 2.877051010727882385e-03, 1.077016070485115051e-01, 7.270507514476776123e-02, -1.615616120398044586e-02, -1.059029996395111084e-01, 1.428712438791990280e-02, 4.194031655788421631e-02, 1.298597157001495361e-01, -2.179518491029739380e-01, 4.736732691526412964e-02, 1.539234668016433716e-01, 9.174853563308715820e-02, },
{1.110969483852386475e-02, 2.615908160805702209e-02, 4.692552983760833740e-02, -4.174251854419708252e-02, 1.465311050415039062e-01, -9.483154863119125366e-02, 2.023635804653167725e-02, 2.474943995475769043e-01, -2.074027806520462036e-02, 3.955524042248725891e-02, -2.277899160981178284e-02, 3.010617941617965698e-02, 1.448242068290710449e-01, -2.348035387694835663e-02, -4.177428781986236572e-02, -3.297782689332962036e-02, 1.509804427623748779e-01, -8.511202037334442139e-02, 1.417576074600219727e-01, -6.295740604400634766e-02, -2.138859406113624573e-02, -1.369839906692504883e-01, 4.015746712684631348e-02, 3.667411580681800842e-02, 1.105831656605005264e-02, -1.980270147323608398e-01, 3.962593525648117065e-02, -1.732093468308448792e-02, 6.328056007623672485e-02, 3.923543542623519897e-02, 1.034054383635520935e-01, -8.979126811027526855e-02, -2.453293204307556152e-01, 9.961801767349243164e-02, 4.966915771365165710e-02, -9.117160737514495850e-02, 7.808288559317588806e-03, -4.992064088582992554e-02, 4.077747464179992676e-02, 1.386861503124237061e-01, -1.797448471188545227e-02, -7.146609574556350708e-02, -3.807908669114112854e-02, -7.991758175194263458e-04, 1.024240702390670776e-01, 1.845743134617805481e-02, -2.627664990723133087e-02, 9.707144647836685181e-02, -8.704377710819244385e-02, 9.087512642145156860e-02, 7.510930299758911133e-02, 3.722387552261352539e-02, -7.004005461931228638e-02, -7.104645669460296631e-02, -1.144195254892110825e-02, -2.408219128847122192e-02, -1.057426705956459045e-01, 1.683734804391860962e-01, 1.022266671061515808e-01, 1.339749842882156372e-01, -1.138300001621246338e-01, 4.158887267112731934e-02, 4.105269908905029297e-02, 1.051309630274772644e-01, -3.706682473421096802e-02, -1.829161494970321655e-01, 4.619201645255088806e-02, 1.242216024547815323e-02, -1.804655231535434723e-02, 8.984843268990516663e-03, 2.615028023719787598e-01, 5.338037386536598206e-02, 1.121977120637893677e-01, -7.849087566137313843e-02, -7.286205654963850975e-04, -2.315301746129989624e-01, 8.158231526613235474e-02, 1.506748646497726440e-01, -9.706266969442367554e-02, 1.017028186470270157e-02, -1.472996920347213745e-01, 4.649668931961059570e-02, -2.542414516210556030e-02, 5.621365085244178772e-02, 2.761096693575382233e-02, 1.157794669270515442e-01, 1.183823347091674805e-01, -2.130096852779388428e-01, 2.786402590572834015e-02, -7.887544482946395874e-02, -7.728599593974649906e-04, -6.189027056097984314e-02, -9.756497293710708618e-02, -8.382599055767059326e-02, -2.524279756471514702e-03, -2.631601318717002869e-02, -1.143734306097030640e-01, 1.310979127883911133e-01, 4.404189437627792358e-02, 6.077280268073081970e-02, 1.381464898586273193e-01, 6.772139668464660645e-02, 9.285215288400650024e-02, 9.852089732885360718e-02, 5.112342908978462219e-02, -4.425613582134246826e-02, 1.973949074745178223e-01, -2.746739387512207031e-01, -6.791982054710388184e-02, 8.601517230272293091e-02, -8.160099387168884277e-02, -1.509083714336156845e-02, -1.350667625665664673e-01, 9.470471739768981934e-02, 9.304934740066528320e-02, 1.908342540264129639e-01, -1.759538650512695312e-01, 1.224254537373781204e-02, 3.699114546179771423e-02, 9.638900309801101685e-02, },
{-1.947107166051864624e-02, 1.558498293161392212e-02, -1.110760942101478577e-01, 6.473606824874877930e-02, -2.026872150599956512e-02, -1.362896114587783813e-01, -1.143096461892127991e-01, 2.152201905846595764e-02, 1.656060479581356049e-02, 5.975095182657241821e-02, -8.972393721342086792e-02, -4.100375249981880188e-02, 6.896812003105878830e-03, -2.083857655525207520e-01, 5.364857614040374756e-02, -7.026215642690658569e-02, 1.786826411262154579e-03, -5.611248314380645752e-02, -7.993225753307342529e-02, 9.063229709863662720e-02, 5.058614909648895264e-02, -2.251629978418350220e-01, -1.072166953235864639e-03, -1.375794857740402222e-01, -1.452572345733642578e-01, -3.297293558716773987e-02, -9.150911867618560791e-02, -2.119565755128860474e-02, -2.117186784744262695e-02, -1.839949190616607666e-02, 1.587034016847610474e-01, 2.486919239163398743e-02, 6.863623391836881638e-03, -3.836104646325111389e-02, 6.573088467121124268e-02, -3.120107650756835938e-01, 5.301622301340103149e-02, -3.140657767653465271e-02, -9.131901897490024567e-03, -2.599312663078308105e-01, -1.830123364925384521e-03, -2.974865492433309555e-03, 1.247619688510894775e-01, 4.854738712310791016e-02, -1.173019260168075562e-01, -1.438954323530197144e-01, 2.513244748115539551e-02, -3.320800513029098511e-02, -1.222736611962318420e-01, 7.441417872905731201e-02, -9.732621908187866211e-02, 5.236597359180450439e-02, -3.090878948569297791e-02, -1.436990499496459961e-02, -1.830698996782302856e-01, -5.477645620703697205e-02, 1.401906460523605347e-02, -3.356704115867614746e-02, 7.733545452356338501e-02, 2.815897166728973389e-01, -2.200204581022262573e-01, -8.690461516380310059e-02, -2.873195111751556396e-01, 3.593120723962783813e-02, 2.515878900885581970e-02, -5.909799598157405853e-03, 7.971081137657165527e-02, -6.291074678301811218e-04, -1.308798342943191528e-01, 4.290364682674407959e-02, -2.676940560340881348e-01, 5.214594304561614990e-02, -1.911764591932296753e-01, -3.662127256393432617e-02, 9.342917054891586304e-02, -8.649680763483047485e-02, 5.840075016021728516e-02, 3.296725079417228699e-02, -3.098388202488422394e-02, 4.585584625601768494e-02, -3.007967472076416016e-01, -4.082405939698219299e-02, -1.606143824756145477e-02, 4.599818587303161621e-02, 3.331440093461424112e-04, 1.393303722143173218e-01, -3.125432729721069336e-01, 1.436286568641662598e-01, 5.002821329981088638e-03, 3.542262315750122070e-02, 2.579087018966674805e-02, 5.709944292902946472e-02, 4.575604200363159180e-02, -5.207274481654167175e-02, 2.956368029117584229e-03, 1.733561158180236816e-01, 1.027151476591825485e-03, -2.549797296524047852e-02, -9.577140212059020996e-02, -1.957959868013858795e-02, -1.639562100172042847e-02, 9.611000865697860718e-02, -4.223062470555305481e-02, 9.595901705324649811e-03, -1.218761354684829712e-01, 4.677189886569976807e-02, 1.291617453098297119e-01, 6.586876511573791504e-02, 6.195168197154998779e-02, -3.138019517064094543e-02, -8.150235563516616821e-02, -2.270229160785675049e-03, -1.203901544213294983e-01, 1.212408393621444702e-01, -2.014057934284210205e-01, -2.381707355380058289e-02, 6.223045662045478821e-02, 9.056289494037628174e-02, 4.196578636765480042e-02, -6.433296948671340942e-02, },
{-9.364729374647140503e-02, -8.038850128650665283e-02, -5.338666960597038269e-03, 3.578936681151390076e-02, 5.228860303759574890e-02, -9.191492199897766113e-02, 5.222532898187637329e-02, 9.556847065687179565e-02, 4.797372221946716309e-02, 6.282372027635574341e-02, 6.513280421495437622e-02, 2.923605730757117271e-03, 1.452662795782089233e-01, -1.168816238641738892e-01, 4.307281225919723511e-02, 4.205497354269027710e-02, 2.214003652334213257e-01, 6.004410982131958008e-02, 8.513315767049789429e-02, 9.947224706411361694e-02, -8.620581775903701782e-02, -1.398815363645553589e-01, -5.536531656980514526e-02, 3.616647794842720032e-02, -4.658654704689979553e-02, -1.976902335882186890e-01, 4.646748304367065430e-02, -9.518105536699295044e-02, -4.948849976062774658e-02, 3.324979916214942932e-02, 2.047123312950134277e-01, -2.834955751895904541e-01, -1.492006182670593262e-01, -2.771673724055290222e-02, 5.184837058186531067e-02, -7.741571962833404541e-02, 2.222937345504760742e-02, 4.072142019867897034e-02, 5.668738856911659241e-02, 5.901598557829856873e-02, 9.205485135316848755e-02, 5.321762338280677795e-02, -2.634431608021259308e-02, -6.601277738809585571e-02, 4.404952749609947205e-02, -6.058690603822469711e-03, -6.852618418633937836e-03, -5.103714764118194580e-02, -2.789019607007503510e-02, 4.465452954173088074e-02, 4.373027011752128601e-02, 5.303305387496948242e-02, -9.962536394596099854e-02, -2.357072941958904266e-02, -6.622681021690368652e-02, 5.297350231558084488e-03, -2.781727910041809082e-01, 2.332922816276550293e-02, 1.502390503883361816e-01, 1.659788489341735840e-01, -1.517312675714492798e-01, -5.800754204392433167e-02, -2.679702043533325195e-01, 8.932183682918548584e-02, -2.100950665771961212e-02, -1.136119589209556580e-01, 6.639790534973144531e-02, -1.341046243906021118e-01, -2.163296192884445190e-01, -2.233145385980606079e-02, 8.533623814582824707e-02, 8.589756488800048828e-02, -5.686683952808380127e-02, 7.554991543292999268e-02, 4.939082264900207520e-02, -9.292375296354293823e-02, 9.365446865558624268e-02, 2.340703308582305908e-01, -2.058312669396400452e-02, -8.896935731172561646e-02, -5.868295580148696899e-02, 6.195314973592758179e-02, -1.088881772011518478e-02, 2.371374964714050293e-01, -1.629970967769622803e-02, 8.260673284530639648e-02, 2.566691860556602478e-02, -1.571690291166305542e-02, -7.653679698705673218e-02, 9.337307885289192200e-03, -1.438463013619184494e-02, -1.545008122920989990e-01, -2.550335973501205444e-02, 5.077948421239852905e-02, -1.535792369395494461e-02, 9.809423238039016724e-02, -7.386673707515001297e-03, 1.363668739795684814e-01, 1.538715064525604248e-01, -5.581613257527351379e-02, 6.346384435892105103e-02, -4.675623029470443726e-02, 8.662839978933334351e-02, 9.404911100864410400e-02, -1.171070560812950134e-01, 1.720060035586357117e-02, 1.170759052038192749e-01, -1.662200391292572021e-01, -2.034071274101734161e-02, -2.445498257875442505e-01, -3.183101490139961243e-02, 1.581581681966781616e-02, -1.163018867373466492e-01, -4.327428340911865234e-02, -8.957869559526443481e-02, -7.274205237627029419e-02, 3.006832860410213470e-02, 7.971274852752685547e-02, -7.203280925750732422e-02, 1.081781685352325439e-01, },
{-2.779781259596347809e-02, -1.187480986118316650e-01, 1.268723011016845703e-01, -7.351163029670715332e-02, 2.825505845248699188e-02, -1.472653746604919434e-01, -5.694957077503204346e-02, -1.869197636842727661e-01, -2.453945577144622803e-02, -1.174840424209833145e-02, -3.853567317128181458e-02, -2.735220827162265778e-02, -7.083758711814880371e-02, -3.370316326618194580e-02, 5.512356758117675781e-03, 1.160795688629150391e-01, 4.966826736927032471e-02, -4.012833535671234131e-02, -1.758899390697479248e-01, -2.632268331944942474e-02, -1.462580543011426926e-02, -4.012344181537628174e-01, -2.224673479795455933e-01, 1.541453003883361816e-01, 1.455835551023483276e-01, -2.375242710113525391e-01, -3.910861536860466003e-02, -6.241177394986152649e-02, -4.784199222922325134e-02, -1.120951995253562927e-01, 1.029834449291229248e-01, 1.199613511562347412e-01, -1.457129418849945068e-01, 4.076852276921272278e-02, 2.393628656864166260e-02, -7.922565937042236328e-02, 8.647133409976959229e-02, 7.582010328769683838e-02, -1.323926728218793869e-02, 2.244343757629394531e-01, -1.523826736956834793e-02, 8.253112435340881348e-03, -2.792332135140895844e-02, -4.099341109395027161e-02, -8.032887428998947144e-02, -1.042588129639625549e-01, -1.879990100860595703e-02, 9.434738010168075562e-02, 4.468119144439697266e-02, -7.414841651916503906e-02, -1.973702805116772652e-03, -3.349545225501060486e-02, -6.414723396301269531e-02, 5.245991051197052002e-02, 7.106418162584304810e-02, 8.176966011524200439e-02, 1.431538611650466919e-01, 1.383606493473052979e-01, -6.513573974370956421e-02, -1.371197402477264404e-01, -7.576919347047805786e-02, 4.235187172889709473e-02, -1.838046475313603878e-03, 6.434459984302520752e-02, -4.346813634037971497e-02, 5.435577407479286194e-02, 1.427663117647171021e-01, 2.098627388477325439e-01, 1.761156618595123291e-01, 7.138010114431381226e-02, 5.166693776845932007e-02, -5.895351991057395935e-02, 1.210956051945686340e-01, -6.895124912261962891e-02, -3.567745164036750793e-02, -8.739902079105377197e-02, 1.701883673667907715e-01, -4.753531143069267273e-02, -4.067913070321083069e-02, -2.175623178482055664e-01, -6.103966850787401199e-03, -2.641378343105316162e-02, 9.682633914053440094e-03, 4.350476339459419250e-02, -1.989254727959632874e-02, -3.167476505041122437e-02, 1.170439273118972778e-01, -1.064439713954925537e-01, 9.445858746767044067e-02, 5.469262972474098206e-02, 8.725052326917648315e-02, 9.495613723993301392e-02, -6.276679039001464844e-02, -1.747493147850036621e-01, 4.810431599617004395e-02, -2.165073752403259277e-01, 3.147004544734954834e-02, 1.290588974952697754e-01, -3.770004212856292725e-02, -6.658897548913955688e-02, 8.200678974390029907e-02, -3.273342922329902649e-02, 2.342705801129341125e-02, -3.813314139842987061e-01, 6.710709631443023682e-02, -6.614255905151367188e-02, 1.103991493582725525e-01, 2.830943763256072998e-01, -1.662796735763549805e-02, 6.410399824380874634e-02, -9.255179017782211304e-02, -8.636295050382614136e-02, 2.977295778691768646e-02, 6.784242391586303711e-02, 1.231859903782606125e-02, 7.188812643289566040e-02, 9.341776371002197266e-02, -3.786674514412879944e-02, -3.524377197027206421e-02, 2.008014321327209473e-01, },
{4.872782155871391296e-02, 6.485281884670257568e-02, -4.945566761307418346e-04, -1.424491871148347855e-03, 6.951090693473815918e-02, 1.354744732379913330e-01, 1.602239310741424561e-01, 1.974786520004272461e-01, 1.239502429962158203e-02, -2.914949320256710052e-02, 3.729756176471710205e-02, 3.679640218615531921e-02, -2.158366143703460693e-02, -1.207489222288131714e-01, 5.672216787934303284e-02, -2.387289330363273621e-02, -5.577998608350753784e-02, 4.120490327477455139e-02, -6.835822761058807373e-02, 4.002264514565467834e-02, 8.419691771268844604e-02, -2.157126367092132568e-02, 8.412822335958480835e-02, 6.586556788533926010e-03, 1.037472859025001526e-01, -2.379119098186492920e-01, -1.093670651316642761e-01, 4.731076583266258240e-02, -6.536634266376495361e-02, -9.856132417917251587e-02, 1.773108728229999542e-02, 4.658536985516548157e-02, -3.847132250666618347e-02, 1.646329909563064575e-01, 1.806402020156383514e-02, 3.986135125160217285e-02, -2.186127565801143646e-02, 4.000102728605270386e-02, 4.499955475330352783e-02, 1.655712425708770752e-01, -7.387843728065490723e-02, 1.922656223177909851e-02, 2.992124669253826141e-02, 5.242797359824180603e-02, 1.161669790744781494e-01, 1.406714878976345062e-02, 8.370250463485717773e-02, 3.399430774152278900e-03, 8.339582942426204681e-03, -8.020216046134009957e-05, 3.460606932640075684e-02, -4.198599234223365784e-02, -4.007039964199066162e-02, 5.085306242108345032e-03, 5.809814482927322388e-02, -5.839720740914344788e-02, -1.078447103500366211e-01, 3.370892629027366638e-02, 7.155312225222587585e-03, -2.278039231896400452e-02, -8.891043066978454590e-02, -5.343364924192428589e-02, 1.413159538060426712e-02, -1.708877384662628174e-01, 3.659579157829284668e-02, 1.230340749025344849e-01, 1.812849789857864380e-01, 7.572565972805023193e-02, -2.084614709019660950e-02, 5.554458498954772949e-02, 4.501723945140838623e-01, -2.803050540387630463e-02, 5.473704263567924500e-02, -7.808157801628112793e-02, -1.605393588542938232e-01, 1.445005685091018677e-01, 3.488329797983169556e-02, -1.273305118083953857e-01, 5.370808765292167664e-02, -6.545216590166091919e-02, 6.805437058210372925e-02, 1.952260546386241913e-02, 6.404781341552734375e-02, -9.637115150690078735e-02, -3.010434471070766449e-02, -1.153560075908899307e-02, 6.195168197154998779e-02, 1.420491784811019897e-01, 5.853836238384246826e-02, 7.882227189838886261e-03, 8.952401578426361084e-02, -1.222845911979675293e-01, -1.683926396071910858e-02, 3.178278356790542603e-02, -8.843755349516868591e-03, -8.442389965057373047e-02, -5.920261144638061523e-02, 1.383411884307861328e-01, 1.617307215929031372e-01, 9.762952476739883423e-02, -2.452218718826770782e-02, 1.573252081871032715e-01, 7.390000671148300171e-02, 2.256427556276321411e-01, -1.130678579211235046e-01, -3.066585585474967957e-02, 7.096464931964874268e-02, -2.156893014907836914e-01, -5.075074732303619385e-02, -1.526473760604858398e-01, -5.087526887655258179e-02, 7.695535570383071899e-02, 6.637972593307495117e-02, -2.364721894264221191e-01, -8.506208658218383789e-02, 8.435513824224472046e-02, -2.047915756702423096e-01, -9.005022048950195312e-02, 4.219312965869903564e-02, 2.011717259883880615e-01, },
