#ifndef _FC3_WEIGHTS_
#define _FC3_WEIGHTS_
#include "../op.h"
mylenet::WEIGHT fc3_weights[10][84] = {{-2.836910486221313477e-01, 1.005915328860282898e-01, 1.920518875122070312e-01, -2.588266134262084961e-01, -2.377051711082458496e-01, 9.165718406438827515e-02, -2.242472022771835327e-02, 1.743609309196472168e-01, -2.014914005994796753e-01, -1.965885162353515625e-01, 6.350252777338027954e-02, 2.076706476509571075e-02, -5.663619190454483032e-02, -3.456733003258705139e-02, -1.754982620477676392e-01, 1.388785988092422485e-01, 3.935679793357849121e-02, -7.897774130105972290e-02, -8.164608478546142578e-02, -2.143591828644275665e-02, 7.888532429933547974e-02, -3.062488436698913574e-01, 1.205195263028144836e-01, 2.526657879352569580e-01, -1.462003216147422791e-03, -5.934113264083862305e-02, 1.698943078517913818e-01, -7.299911230802536011e-02, 1.814939379692077637e-01, 1.913121938705444336e-01, 1.565747112035751343e-01, 1.708110719919204712e-01, 1.698327511548995972e-01, -1.343227773904800415e-01, 6.117422506213188171e-02, 1.416637003421783447e-01, -2.713082432746887207e-01, -1.299957633018493652e-01, -4.304012283682823181e-02, -2.281504571437835693e-01, -4.336575046181678772e-03, -3.949998915195465088e-01, -2.059345990419387817e-01, -5.800032615661621094e-02, 5.531644076108932495e-02, -8.590729534626007080e-02, -1.089084520936012268e-01, -1.847390681505203247e-01, -1.847564987838268280e-02, -1.049020513892173767e-01, 4.446046799421310425e-02, -1.981714963912963867e-01, -1.344428956508636475e-01, -4.070646166801452637e-01, -2.812607772648334503e-02, -1.763114929199218750e-01, -1.344606727361679077e-01, 9.082757681608200073e-02, -1.566240638494491577e-01, 4.886877536773681641e-02, -1.105236709117889404e-01, -1.322234421968460083e-01, -5.832349509000778198e-02, -8.184859156608581543e-02, 3.140745684504508972e-02, 7.907427847385406494e-02, -1.646625101566314697e-01, -1.469431370496749878e-01, 1.326320916414260864e-01, -2.327673137187957764e-01, -1.748691499233245850e-02, 2.278790250420570374e-02, -1.918512582778930664e-01, 6.621872633695602417e-02, 4.346077144145965576e-02, -2.038393169641494751e-02, -1.830110996961593628e-01, -2.144462168216705322e-01, -1.241174805909395218e-02, 1.962419450283050537e-01, 2.066989988088607788e-02, -2.210808843374252319e-01, 1.693101078271865845e-01, 1.311343014240264893e-01, },
{-3.034535609185695648e-02, 5.905004218220710754e-02, 1.146655157208442688e-02, 8.411514014005661011e-02, -7.608827203512191772e-02, 5.290254950523376465e-02, 1.196969673037528992e-01, 1.869710907340049744e-02, 4.029648751020431519e-02, 1.070935353636741638e-01, -1.306429319083690643e-02, 1.379176676273345947e-01, -9.512719511985778809e-02, 6.990303099155426025e-02, -1.047862321138381958e-01, -1.643106341361999512e-01, 6.985228508710861206e-02, -8.456154912710189819e-02, -2.688159048557281494e-01, -1.165636256337165833e-01, 2.560156583786010742e-01, 1.068467199802398682e-01, 1.077855154871940613e-01, -2.876545302569866180e-02, -8.608894795179367065e-02, -1.119720339775085449e-01, -2.370501458644866943e-01, -2.580341100692749023e-01, -1.099664792418479919e-01, -2.374679446220397949e-01, -2.700752019882202148e-01, -5.275866016745567322e-02, 1.183035597205162048e-01, -6.373512744903564453e-02, -1.742390841245651245e-01, -2.917612493038177490e-01, 1.400553733110427856e-01, -1.963845640420913696e-01, 1.273471713066101074e-01, 8.774183690547943115e-02, -1.591774448752403259e-02, 8.725990355014801025e-02, -1.760647147893905640e-01, 5.333440750837326050e-02, 4.732975363731384277e-02, 1.392914820462465286e-02, -4.072806239128112793e-02, -4.843984264880418777e-03, -2.387061864137649536e-01, -1.635550707578659058e-01, 2.099284082651138306e-01, -7.491173595190048218e-02, 8.311193436384201050e-02, 9.051365777850151062e-03, -1.400192081928253174e-01, -1.190070584416389465e-01, -2.967638373374938965e-01, -1.804064512252807617e-01, 1.399472951889038086e-01, -7.185057550668716431e-02, -8.712606877088546753e-02, 8.355086296796798706e-02, -2.204390764236450195e-01, 6.962098181247711182e-02, 1.129018738865852356e-01, -1.506262719631195068e-01, -1.637009829282760620e-01, 7.175209373235702515e-02, -4.421842396259307861e-01, 1.600841581821441650e-01, -9.042132645845413208e-02, -1.963292062282562256e-01, 5.781286582350730896e-02, 3.202846050262451172e-01, -1.904011219739913940e-01, -1.406420581042766571e-02, 4.115422815084457397e-02, 1.203200817108154297e-01, -3.115978650748729706e-02, 5.818695947527885437e-02, -5.287285521626472473e-02, -1.167445480823516846e-01, 1.436609178781509399e-01, -2.215698510408401489e-01, },
{-2.122086286544799805e-01, 2.434917390346527100e-01, -2.086223475635051727e-02, 1.070601940155029297e-01, -9.131879359483718872e-02, 1.000798419117927551e-01, -1.404299866408109665e-02, -9.524445980787277222e-02, -8.818079531192779541e-02, -1.352960169315338135e-01, -5.351503565907478333e-02, -1.288401186466217041e-01, -7.085653394460678101e-02, 7.773475255817174911e-03, 1.328859180212020874e-01, 1.197759434580802917e-01, 7.841131091117858887e-02, 6.437960267066955566e-02, -2.682286873459815979e-02, -9.499634802341461182e-02, 6.917133461683988571e-03, 4.549055919051170349e-02, -2.331059873104095459e-01, -2.026865631341934204e-01, 5.407948046922683716e-02, 1.820317953824996948e-01, 1.744647324085235596e-02, -4.239752292633056641e-01, -9.255268424749374390e-02, 2.785714715719223022e-02, -1.320045590400695801e-01, -1.139507349580526352e-02, 8.518509566783905029e-02, -1.223398298025131226e-01, -1.060690730810165405e-01, 8.093325793743133545e-02, 1.863478422164916992e-01, 4.748248681426048279e-02, 1.772944480180740356e-01, -1.702437698841094971e-01, 8.152613043785095215e-02, 7.746402174234390259e-02, 8.899088948965072632e-03, -1.178810000419616699e-01, 6.333273649215698242e-02, -5.853646621108055115e-02, 8.510849624872207642e-02, -6.136417388916015625e-02, 3.022747859358787537e-02, 2.817545831203460693e-02, -2.078603506088256836e-01, -1.980184912681579590e-01, -2.058881521224975586e-02, 8.333821780979633331e-03, -3.208377957344055176e-01, 1.482896208763122559e-01, -1.224721074104309082e-01, 1.172392815351486206e-02, 5.875669792294502258e-02, -5.794114992022514343e-02, -7.851738482713699341e-02, -1.358026731759309769e-02, -1.010847687721252441e-01, -2.399470470845699310e-02, -3.622720837593078613e-01, 9.811522066593170166e-02, -1.545310318470001221e-01, -1.009580716490745544e-01, -3.447367250919342041e-01, -6.005560979247093201e-02, -1.901578009128570557e-01, -1.777018792927265167e-02, -1.174729093909263611e-01, -1.027594208717346191e-01, -3.953279554843902588e-02, 5.712087079882621765e-02, 9.554225951433181763e-02, -3.013508319854736328e-01, -3.797018900513648987e-02, 1.124431341886520386e-01, -1.492934972047805786e-01, 5.711843073368072510e-02, 1.396046578884124756e-01, 1.636002063751220703e-01, },
{8.134505897760391235e-02, -1.956510245800018311e-01, -3.106935918331146240e-01, 1.351080369204282761e-02, -1.285141110420227051e-01, -1.770954579114913940e-01, -1.519039869308471680e-01, -1.077000424265861511e-01, 5.582271516323089600e-02, 9.306085109710693359e-02, -1.612068712711334229e-02, -2.245825082063674927e-01, 1.278526894748210907e-02, -2.459414005279541016e-01, -5.702485889196395874e-02, -1.316177546977996826e-01, 1.633669435977935791e-02, -6.942060589790344238e-02, -1.167342588305473328e-01, -5.841396376490592957e-02, -2.171949446201324463e-01, -3.763095140457153320e-01, 1.490759700536727905e-01, 1.519490480422973633e-01, -6.467217952013015747e-02, 1.906820684671401978e-01, -1.727622151374816895e-01, 7.007407024502754211e-03, -1.406867057085037231e-01, -2.210301458835601807e-01, 1.117721349000930786e-01, -2.103078812360763550e-01, -9.327353537082672119e-02, -7.286576926708221436e-02, -3.513223826885223389e-01, 6.549383699893951416e-02, -9.227885305881500244e-02, 7.606457918882369995e-02, 1.311868429183959961e-01, -2.662631273269653320e-01, 2.971753664314746857e-02, 1.837038435041904449e-02, 7.964891940355300903e-02, -3.261566162109375000e-01, -3.406506497412919998e-03, 1.253792196512222290e-01, -2.933899313211441040e-02, 1.749182194471359253e-01, -1.893350034952163696e-01, -1.700956076383590698e-01, -2.069101780652999878e-01, -2.446677237749099731e-01, -1.933840066194534302e-01, -1.765169352293014526e-01, -2.817340195178985596e-02, -9.603961557149887085e-02, 7.799544930458068848e-02, 1.239605545997619629e-01, 1.673964858055114746e-01, -6.090148538351058960e-02, -1.074339598417282104e-01, 7.663504779338836670e-02, 1.535627543926239014e-01, 1.141866110265254974e-02, -2.429505437612533569e-01, 7.413428276777267456e-02, 1.750930249691009521e-01, -1.743132174015045166e-01, -2.210864126682281494e-01, -1.588068157434463501e-01, -1.849806010723114014e-01, 5.110589042305946350e-02, -1.897271573543548584e-01, -2.976495027542114258e-01, -9.856388717889785767e-02, -8.289156854152679443e-02, -2.476641722023487091e-02, 2.390451729297637939e-01, -1.284415423870086670e-01, -2.791058830916881561e-02, 2.562889158725738525e-01, -1.424989551305770874e-01, -4.011808037757873535e-01, -1.094599664211273193e-01, },
{-5.278229713439941406e-02, -1.022128164768218994e-01, -3.066193759441375732e-01, -2.242826819419860840e-01, 1.215216442942619324e-01, -1.254727393388748169e-01, -1.277253217995166779e-02, 2.955465950071811676e-02, 7.663906365633010864e-02, -6.069275736808776855e-02, -3.877460584044456482e-02, 1.619938760995864868e-01, -4.196869209408760071e-02, -2.317260392010211945e-02, -3.955612778663635254e-01, 1.060768440365791321e-01, -2.852681875228881836e-01, -2.103060483932495117e-02, 1.298391073942184448e-01, -2.178294062614440918e-01, -3.137297630310058594e-01, 1.276380866765975952e-01, -1.541106700897216797e-01, -1.099444925785064697e-03, -8.943361043930053711e-02, -1.681300103664398193e-01, -1.048449426889419556e-01, -9.198109805583953857e-02, 1.304493751376867294e-02, 1.540401577949523926e-01, -1.953007429838180542e-01, -2.747264504432678223e-01, -5.163138359785079956e-02, 1.123852208256721497e-01, -8.558931201696395874e-02, 1.027265470474958420e-02, -8.898970484733581543e-02, 1.351104825735092163e-01, -7.686441391706466675e-02, 3.894822299480438232e-02, -4.543789848685264587e-02, -7.317823916673660278e-02, -1.647092867642641068e-03, 1.981902122497558594e-01, 9.522997774183750153e-03, -1.463920176029205322e-01, -1.127724349498748779e-02, -6.245604157447814941e-02, 1.099861487746238708e-01, -3.657830506563186646e-02, -1.355810761451721191e-01, -6.570362299680709839e-02, -9.535376727581024170e-02, 8.999186009168624878e-02, 1.363781243562698364e-01, 1.178977489471435547e-01, -3.015900775790214539e-02, -1.679661422967910767e-01, -1.800455600023269653e-01, -6.438629329204559326e-02, -5.199014022946357727e-02, 9.529765695333480835e-02, 9.382164478302001953e-02, -3.468261286616325378e-02, -4.099307581782341003e-02, -2.056757658720016479e-01, -3.268365561962127686e-01, -2.056873440742492676e-01, -5.694720894098281860e-02, 1.423071771860122681e-01, 1.019206792116165161e-01, 5.018807202577590942e-02, 1.466687917709350586e-01, -2.537527382373809814e-01, 2.602418363094329834e-01, -3.376394137740135193e-02, 1.332817524671554565e-01, 1.032730266451835632e-01, 7.132531143724918365e-03, 9.001107513904571533e-02, 1.572855561971664429e-01, 7.908607274293899536e-02, -8.384595811367034912e-02, 7.621110230684280396e-02, },
{9.684102237224578857e-02, 7.527891546487808228e-02, -2.465852648019790649e-01, 8.279920369386672974e-02, -2.765575051307678223e-01, 1.000882387161254883e-01, 1.171749550849199295e-02, -1.599241942167282104e-01, -1.178136244416236877e-01, 1.514883637428283691e-01, 1.282888837158679962e-02, 1.529225409030914307e-01, -6.872393190860748291e-02, -6.630639731884002686e-02, 6.399372965097427368e-02, 7.031932473182678223e-02, 1.724651902914047241e-01, -5.667497217655181885e-02, 3.105995245277881622e-02, -1.161795407533645630e-01, -3.043839335441589355e-01, 1.058181226253509521e-01, 1.834355890750885010e-01, -1.253515630960464478e-01, 6.493418663740158081e-02, -4.345470666885375977e-02, -3.033579327166080475e-02, 6.035007908940315247e-02, 1.324876099824905396e-01, 1.052209138870239258e-01, -3.176327794790267944e-03, -4.038658440113067627e-01, -1.726549305021762848e-02, -1.603087633848190308e-01, -2.118820399045944214e-01, 2.275225892663002014e-02, -1.429727673530578613e-01, 2.865681424736976624e-02, -1.037888973951339722e-01, -1.843224465847015381e-01, -1.639287024736404419e-01, -7.230857759714126587e-02, 7.709596306085586548e-02, -4.196332395076751709e-01, -1.680203527212142944e-02, 2.505387179553508759e-02, -1.594424843788146973e-01, -1.570794582366943359e-01, 1.525232493877410889e-01, 1.049916446208953857e-02, -5.063321441411972046e-02, 9.473667293787002563e-02, -2.077094018459320068e-01, 6.390727311372756958e-02, 1.065590512007474899e-02, -2.521480917930603027e-01, 8.118100231513381004e-04, -9.074100106954574585e-02, 1.325740516185760498e-01, 3.506178036332130432e-02, 6.392005831003189087e-02, 2.458155751228332520e-01, 1.384688764810562134e-01, 4.459477216005325317e-02, 1.315257251262664795e-01, 9.909555315971374512e-02, -3.515364369377493858e-03, -1.923703774809837341e-02, 1.725367456674575806e-01, -2.411874383687973022e-01, 3.524719737470149994e-03, 1.576623618602752686e-01, -2.639069259166717529e-01, -1.402723640203475952e-01, 3.206195831298828125e-01, -2.367153018712997437e-02, -4.214914441108703613e-01, -1.999337524175643921e-01, -1.280053108930587769e-01, -2.486587464809417725e-01, -8.059836924076080322e-02, 4.466364905238151550e-02, -3.531186282634735107e-02, -5.341554805636405945e-02, },
{-2.918709218502044678e-01, -2.146790027618408203e-01, 2.417348325252532959e-02, 1.289723068475723267e-01, -1.681946218013763428e-01, 1.256416290998458862e-01, -3.267244100570678711e-01, -1.688792183995246887e-02, 3.702339157462120056e-02, -2.784010171890258789e-01, 3.230891749262809753e-02, 1.857471019029617310e-01, 5.513052642345428467e-02, 1.037057712674140930e-01, -8.854987472295761108e-02, 1.027775257825851440e-01, -4.472249373793601990e-02, -1.682655364274978638e-01, 7.323806639760732651e-03, -1.052213162183761597e-01, -1.284606009721755981e-01, 1.335889995098114014e-01, -2.410961985588073730e-01, 1.670396327972412109e-01, -4.105316847562789917e-02, -1.309668421745300293e-01, 2.988466434180736542e-02, -3.162528946995735168e-02, 9.344644099473953247e-02, -1.445888131856918335e-01, -4.988067969679832458e-02, -1.176280975341796875e-01, 1.199611425399780273e-01, -1.484739482402801514e-01, 7.540185749530792236e-02, -1.135485544800758362e-01, 1.758100986480712891e-01, 1.580925434827804565e-01, -1.445258110761642456e-01, 1.160574331879615784e-01, 5.409576743841171265e-02, -7.508679758757352829e-03, -3.247705996036529541e-01, 5.508564412593841553e-02, 5.984786525368690491e-02, 1.256878674030303955e-01, -8.614970743656158447e-02, -2.731507420539855957e-01, 1.444345414638519287e-01, -4.905335605144500732e-02, -3.013235926628112793e-01, -5.265302956104278564e-02, 2.651256881654262543e-02, 8.593103289604187012e-02, 7.792379707098007202e-02, -2.669017314910888672e-01, -2.069829255342483521e-01, 9.069100767374038696e-02, -3.632118701934814453e-01, -2.625848865136504173e-03, -4.090706631541252136e-02, -1.079395115375518799e-01, -1.910800114274024963e-02, -2.253866288810968399e-03, 1.068660765886306763e-01, 2.766397409141063690e-02, 1.100268661975860596e-01, 1.491843163967132568e-01, -1.032715514302253723e-01, -3.215698599815368652e-01, -1.636772900819778442e-01, 2.230904102325439453e-01, -1.430362910032272339e-01, 2.640719711780548096e-01, -6.886275857686996460e-02, -1.737460643053054810e-01, -2.360566407442092896e-01, -1.745999604463577271e-01, -2.369855158030986786e-02, -1.408905386924743652e-01, 1.593903303146362305e-01, 8.399715274572372437e-02, -2.156767994165420532e-01, 4.504975676536560059e-02, },
{1.240893527865409851e-01, 1.930182278156280518e-01, -2.210513651371002197e-01, -1.255165785551071167e-01, 2.105107158422470093e-01, 1.294427551329135895e-02, -9.435332566499710083e-02, 7.329546660184860229e-02, -2.296035587787628174e-01, 1.008444502949714661e-01, 4.360965266823768616e-02, -3.421403169631958008e-01, 3.701017796993255615e-02, -2.333597093820571899e-01, -2.666792273521423340e-01, -6.174677237868309021e-02, -1.661771684885025024e-01, 8.604794740676879883e-02, 1.150529086589813232e-01, 1.221552863717079163e-01, -1.189575046300888062e-01, -2.001103013753890991e-01, 1.099249273538589478e-01, -3.846078813076019287e-01, 1.482992470264434814e-01, -6.493192911148071289e-02, 5.352680757641792297e-02, 1.840078383684158325e-01, 1.054026931524276733e-01, -3.887060880661010742e-01, -1.181652769446372986e-01, -2.026957720518112183e-01, 4.282960668206214905e-02, 1.336037814617156982e-01, 6.206898763775825500e-02, -7.205685228109359741e-02, 1.812298893928527832e-01, 6.029788777232170105e-02, 2.989506581798195839e-03, -1.330095678567886353e-01, -1.456569284200668335e-01, 1.507300068624317646e-03, 7.293375581502914429e-02, -2.096940875053405762e-01, -1.107650771737098694e-01, 1.415075212717056274e-01, -1.120967939496040344e-01, 1.241198629140853882e-01, -9.345057606697082520e-02, -9.560199081897735596e-02, 1.233330816030502319e-01, 1.572689227759838104e-02, 3.081316500902175903e-02, -2.333018332719802856e-01, -1.093826815485954285e-02, 1.095061972737312317e-01, 1.840976625680923462e-02, -2.250868640840053558e-02, 1.354066729545593262e-01, 2.358659915626049042e-02, -7.045098394155502319e-02, -3.302400708198547363e-01, -2.780523002147674561e-01, -1.712867175228893757e-03, -4.696795716881752014e-02, -1.843578070402145386e-01, -1.931140869855880737e-01, -1.294263172894716263e-02, -1.315571218729019165e-01, -3.180912882089614868e-02, 1.162158846855163574e-01, -6.332848221063613892e-02, 2.001693248748779297e-01, 4.602865502238273621e-02, -2.990001142024993896e-01, 7.300712168216705322e-02, 7.201381772756576538e-02, 5.769154801964759827e-02, -8.178490400314331055e-02, 1.678532958030700684e-01, 2.100092470645904541e-01, -2.060383558273315430e-01, -9.216774255037307739e-02, -1.389848142862319946e-01, },
{6.815046072006225586e-02, -1.187667921185493469e-01, -7.972769439220428467e-02, 1.355091035366058350e-01, -8.326588571071624756e-02, 1.142220422625541687e-01, -2.124425619840621948e-01, 8.062966912984848022e-02, 1.600524336099624634e-01, -6.259500980377197266e-02, 5.622502416372299194e-03, -7.050214707851409912e-02, -1.082087382674217224e-01, 2.134886085987091064e-01, 1.638004742562770844e-02, -1.849739998579025269e-01, 5.137013643980026245e-02, -8.826997131109237671e-03, -1.536580324172973633e-01, 9.997478127479553223e-02, 6.234037131071090698e-02, -1.585595905780792236e-01, -2.005027979612350464e-01, -1.993681341409683228e-01, 2.759877964854240417e-02, -1.881134510040283203e-01, -6.443578749895095825e-02, -9.158574044704437256e-02, -1.186117976903915405e-01, 1.104370206594467163e-01, 1.033335030078887939e-01, 5.737253278493881226e-02, 7.925373315811157227e-02, 5.264457315206527710e-02, -2.353887856006622314e-01, 1.424636542797088623e-01, -1.795614808797836304e-01, -9.383045136928558350e-02, 1.672195736318826675e-03, 5.808459222316741943e-02, 1.500094980001449585e-01, -1.973960921168327332e-02, 8.199305832386016846e-02, -3.729358017444610596e-01, -4.817432910203933716e-02, -1.235898882150650024e-01, -1.548808217048645020e-01, 1.039670631289482117e-01, -1.591409444808959961e-01, 6.206674873828887939e-02, 3.160652518272399902e-02, 6.574815511703491211e-02, -9.236241877079010010e-02, 1.389071345329284668e-01, 1.110463589429855347e-01, 1.239243745803833008e-01, 7.709660381078720093e-02, 6.708271801471710205e-02, -2.661814689636230469e-01, -3.323944285511970520e-02, 1.351094990968704224e-02, -2.185464501380920410e-01, 8.666416257619857788e-02, 6.589274108409881592e-02, 1.333036124706268311e-01, 1.583091169595718384e-01, 6.060071289539337158e-02, 3.350742533802986145e-02, -1.099931597709655762e-01, 9.329653531312942505e-02, -6.092351675033569336e-02, -3.731198236346244812e-02, -2.145789712667465210e-01, 2.302373573184013367e-02, -6.751447916030883789e-02, -1.341591775417327881e-01, -7.483122404664754868e-03, -3.723378479480743408e-02, -1.230556890368461609e-01, -2.555728256702423096e-01, -1.444730460643768311e-01, 1.508487910032272339e-01, -2.303510606288909912e-01, 8.874128758907318115e-02, },
{6.144928187131881714e-02, -5.690573528409004211e-02, -8.294095098972320557e-02, -1.147321239113807678e-01, -4.618276655673980713e-02, -1.773208975791931152e-01, 1.989436745643615723e-01, 1.764517836272716522e-02, -1.106779724359512329e-01, 8.033170551061630249e-02, -2.147832885384559631e-02, -1.988248080015182495e-01, 1.312947552651166916e-02, 1.172777563333511353e-01, -9.687739610671997070e-02, 8.207173645496368408e-02, -1.458981186151504517e-01, 9.271101094782352448e-03, 1.772015392780303955e-01, -7.683753967285156250e-02, 5.761535838246345520e-02, -1.118923500180244446e-01, -7.169236987829208374e-02, 6.475093960762023926e-02, 4.829173162579536438e-02, 1.464025527238845825e-01, 1.206414401531219482e-01, -1.754635423421859741e-01, 1.213361173868179321e-01, 5.758014973253011703e-03, 1.041270866990089417e-01, -1.228578835725784302e-01, -2.837295830249786377e-01, -6.531506031751632690e-02, 2.725803479552268982e-02, -2.004026807844638824e-02, -3.040550947189331055e-01, -3.901176154613494873e-01, -3.408423960208892822e-01, 1.071396842598915100e-01, -3.311861678957939148e-02, -1.879994422197341919e-01, -1.230217609554529190e-02, 1.532506942749023438e-01, -3.934608772397041321e-02, -2.896468043327331543e-01, -1.695164740085601807e-01, 1.103081032633781433e-01, 6.733255088329315186e-02, -4.006113857030868530e-02, 6.444509327411651611e-02, 4.371976479887962341e-02, 1.842230111360549927e-01, -8.579447120428085327e-02, 1.794482916593551636e-01, 1.240987181663513184e-01, 1.192063838243484497e-01, -2.618704736232757568e-01, 8.707398921251296997e-02, 8.327713608741760254e-02, 7.785446196794509888e-02, -1.481317430734634399e-01, 1.832771152257919312e-01, -3.525286912918090820e-02, -9.603444486856460571e-02, -1.880092620849609375e-01, 7.531516253948211670e-02, -1.628485918045043945e-01, -1.128679513931274414e-01, 1.334822084754705429e-02, -9.739898145198822021e-02, -5.296569317579269409e-02, 1.539013832807540894e-01, 3.935217857360839844e-03, -7.403358072042465210e-02, 9.916326031088829041e-03, -8.816414512693881989e-03, 2.065475657582283020e-02, -3.718779608607292175e-02, -1.466112434864044189e-01, -1.364574432373046875e-01, 7.359366863965988159e-02, 1.252845972776412964e-01, -5.636797845363616943e-02, },
};

#endif